digraph Tree {
node [shape=box, style="filled, rounded", color="black", fontname=helvetica] ;
edge [fontname=helvetica] ;
0 [label=<FDRD &le; 1.5<br/>gini = 0.446<br/>samples = 12000<br/>value = [7965, 4035]>, fillcolor="#e581397e"] ;
1 [label=<OCCUPATION &le; 14.5<br/>gini = 0.472<br/>samples = 10171<br/>value = [6293, 3878]>, fillcolor="#e5813962"] ;
0 -> 1 [labeldistance=2.5, labelangle=45, headlabel="True"] ;
2 [label=<saving ACC_OPEN_DATE' &le; 20121014.0<br/>gini = 0.428<br/>samples = 3017<br/>value = [2081, 936]>, fillcolor="#e581398c"] ;
1 -> 2 ;
3 [label=<CARD_TYPE<SUB>0</SUB> &le; 0.5<br/>gini = 0.451<br/>samples = 2568<br/>value = [1688, 880]>, fillcolor="#e581397a"] ;
2 -> 3 ;
4 [label=<NO_OF_YRS_AT_RES &le; 0.5<br/>gini = 0.383<br/>samples = 2275<br/>value = [1688, 587]>, fillcolor="#e58139a6"] ;
3 -> 4 ;
5 [label=<IBS &le; 0.5<br/>gini = 0.395<br/>samples = 2167<br/>value = [1581, 586]>, fillcolor="#e58139a0"] ;
4 -> 5 ;
6 [label=<AUTO_STATUS &le; 2.5<br/>gini = 0.494<br/>samples = 549<br/>value = [304, 245]>, fillcolor="#e5813931"] ;
5 -> 6 ;
7 [label=<saving ACC_OPEN_DATE' &le; 20050505.0<br/>gini = 0.497<br/>samples = 532<br/>value = [287, 245]>, fillcolor="#e5813925"] ;
6 -> 7 ;
8 [label=<AGE &le; 43.5<br/>gini = 0.405<br/>samples = 110<br/>value = [79, 31]>, fillcolor="#e581399b"] ;
7 -> 8 ;
9 [label=<Salary &le; 7.0<br/>gini = 0.494<br/>samples = 47<br/>value = [26, 21]>, fillcolor="#e5813931"] ;
8 -> 9 ;
10 [label=<saving ACC_OPEN_DATE' &le; 19935610.0<br/>gini = 0.491<br/>samples = 46<br/>value = [26, 20]>, fillcolor="#e581393b"] ;
9 -> 10 ;
11 [label=<gini = 0.0<br/>samples = 2<br/>value = [0, 2]>, fillcolor="#399de5ff"] ;
10 -> 11 ;
12 [label=<BRANCH STATUS' &le; 1.5<br/>gini = 0.483<br/>samples = 44<br/>value = [26, 18]>, fillcolor="#e581394e"] ;
10 -> 12 ;
13 [label=<OCCUPATION &le; 11.5<br/>gini = 0.497<br/>samples = 24<br/>value = [13, 11]>, fillcolor="#e5813927"] ;
12 -> 13 ;
14 [label=<NO_OF_DEPENDENTS &le; 1.5<br/>gini = 0.499<br/>samples = 23<br/>value = [12, 11]>, fillcolor="#e5813915"] ;
13 -> 14 ;
15 [label=<saving ACC_OPEN_DATE' &le; 19991125.0<br/>gini = 0.42<br/>samples = 10<br/>value = [3, 7]>, fillcolor="#399de592"] ;
14 -> 15 ;
16 [label=<gini = 0.0<br/>samples = 1<br/>value = [1, 0]>, fillcolor="#e58139ff"] ;
15 -> 16 ;
17 [label=<gini = 0.346<br/>samples = 9<br/>value = [2, 7]>, fillcolor="#399de5b6"] ;
15 -> 17 ;
18 [label=<PROFESSION &le; 20.0<br/>gini = 0.426<br/>samples = 13<br/>value = [9, 4]>, fillcolor="#e581398e"] ;
14 -> 18 ;
19 [label=<gini = 0.278<br/>samples = 6<br/>value = [5, 1]>, fillcolor="#e58139cc"] ;
18 -> 19 ;
20 [label=<gini = 0.49<br/>samples = 7<br/>value = [4, 3]>, fillcolor="#e5813940"] ;
18 -> 20 ;
21 [label=<gini = 0.0<br/>samples = 1<br/>value = [1, 0]>, fillcolor="#e58139ff"] ;
13 -> 21 ;
22 [label=<MARRIEDARITAL_SINGLETATUSINGLE &le; 1.5<br/>gini = 0.455<br/>samples = 20<br/>value = [13, 7]>, fillcolor="#e5813976"] ;
12 -> 22 ;
23 [label=<Salary &le; 3.0<br/>gini = 0.18<br/>samples = 10<br/>value = [9, 1]>, fillcolor="#e58139e3"] ;
22 -> 23 ;
24 [label=<gini = 0.0<br/>samples = 7<br/>value = [7, 0]>, fillcolor="#e58139ff"] ;
23 -> 24 ;
25 [label=<gini = 0.444<br/>samples = 3<br/>value = [2, 1]>, fillcolor="#e581397f"] ;
23 -> 25 ;
26 [label=<PHOTO_NON_PHOTOFLG &le; 1.0<br/>gini = 0.48<br/>samples = 10<br/>value = [4, 6]>, fillcolor="#399de555"] ;
22 -> 26 ;
27 [label=<gini = 0.5<br/>samples = 8<br/>value = [4, 4]>, fillcolor="#e5813900"] ;
26 -> 27 ;
28 [label=<gini = 0.0<br/>samples = 2<br/>value = [0, 2]>, fillcolor="#399de5ff"] ;
26 -> 28 ;
29 [label=<gini = 0.0<br/>samples = 1<br/>value = [0, 1]>, fillcolor="#399de5ff"] ;
9 -> 29 ;
30 [label=<BRANCH STATUS' &le; 0.5<br/>gini = 0.267<br/>samples = 63<br/>value = [53, 10]>, fillcolor="#e58139cf"] ;
8 -> 30 ;
31 [label=<SPOUSE WORKING' &le; 1.5<br/>gini = 0.49<br/>samples = 21<br/>value = [12, 9]>, fillcolor="#e5813940"] ;
30 -> 31 ;
32 [label=<Salary &le; 3.0<br/>gini = 0.496<br/>samples = 11<br/>value = [6, 5]>, fillcolor="#e581392a"] ;
31 -> 32 ;
33 [label=<gini = 0.32<br/>samples = 5<br/>value = [1, 4]>, fillcolor="#399de5bf"] ;
32 -> 33 ;
34 [label=<gini = 0.278<br/>samples = 6<br/>value = [5, 1]>, fillcolor="#e58139cc"] ;
32 -> 34 ;
35 [label=<saving ACC_OPEN_DATE' &le; 20026122.0<br/>gini = 0.48<br/>samples = 10<br/>value = [6, 4]>, fillcolor="#e5813955"] ;
31 -> 35 ;
36 [label=<gini = 0.49<br/>samples = 7<br/>value = [3, 4]>, fillcolor="#399de540"] ;
35 -> 36 ;
37 [label=<gini = 0.0<br/>samples = 3<br/>value = [3, 0]>, fillcolor="#e58139ff"] ;
35 -> 37 ;
38 [label=<BRANCH STATUS' &le; 2.5<br/>gini = 0.046<br/>samples = 42<br/>value = [41, 1]>, fillcolor="#e58139f9"] ;
30 -> 38 ;
39 [label=<Salary &le; 3.0<br/>gini = 0.105<br/>samples = 18<br/>value = [17, 1]>, fillcolor="#e58139f0"] ;
38 -> 39 ;
40 [label=<gini = 0.0<br/>samples = 9<br/>value = [9, 0]>, fillcolor="#e58139ff"] ;
39 -> 40 ;
41 [label=<gini = 0.198<br/>samples = 9<br/>value = [8, 1]>, fillcolor="#e58139df"] ;
39 -> 41 ;
42 [label=<gini = 0.0<br/>samples = 24<br/>value = [24, 0]>, fillcolor="#e58139ff"] ;
38 -> 42 ;
43 [label=<GENDER &le; 0.5<br/>gini = 0.5<br/>samples = 422<br/>value = [208, 214]>, fillcolor="#399de507"] ;
7 -> 43 ;
44 [label=<MARRIEDARITAL_SINGLETATUSINGLE &le; 1.5<br/>gini = 0.5<br/>samples = 47<br/>value = [24, 23]>, fillcolor="#e581390b"] ;
43 -> 44 ;
45 [label=<saving ACC_OPEN_DATE' &le; 20075519.0<br/>gini = 0.444<br/>samples = 24<br/>value = [16, 8]>, fillcolor="#e581397f"] ;
44 -> 45 ;
46 [label=<gini = 0.0<br/>samples = 7<br/>value = [7, 0]>, fillcolor="#e58139ff"] ;
45 -> 46 ;
47 [label=<PROFESSION &le; 26.5<br/>gini = 0.498<br/>samples = 17<br/>value = [9, 8]>, fillcolor="#e581391c"] ;
45 -> 47 ;
48 [label=<gini = 0.0<br/>samples = 5<br/>value = [5, 0]>, fillcolor="#e58139ff"] ;
47 -> 48 ;
49 [label=<NO_OF_DEPENDENTS &le; 1.5<br/>gini = 0.444<br/>samples = 12<br/>value = [4, 8]>, fillcolor="#399de57f"] ;
47 -> 49 ;
50 [label=<gini = 0.245<br/>samples = 7<br/>value = [1, 6]>, fillcolor="#399de5d4"] ;
49 -> 50 ;
51 [label=<gini = 0.48<br/>samples = 5<br/>value = [3, 2]>, fillcolor="#e5813955"] ;
49 -> 51 ;
52 [label=<saving ACC_OPEN_DATE' &le; 20110764.0<br/>gini = 0.454<br/>samples = 23<br/>value = [8, 15]>, fillcolor="#399de577"] ;
44 -> 52 ;
53 [label=<Salary &le; 7.0<br/>gini = 0.42<br/>samples = 20<br/>value = [6, 14]>, fillcolor="#399de592"] ;
52 -> 53 ;
54 [label=<NO_OF_DEPENDENTS &le; 1.5<br/>gini = 0.401<br/>samples = 18<br/>value = [5, 13]>, fillcolor="#399de59d"] ;
53 -> 54 ;
55 [label=<OCCUPATION &le; 9.5<br/>gini = 0.444<br/>samples = 15<br/>value = [5, 10]>, fillcolor="#399de57f"] ;
54 -> 55 ;
56 [label=<gini = 0.0<br/>samples = 1<br/>value = [0, 1]>, fillcolor="#399de5ff"] ;
55 -> 56 ;
57 [label=<Salary &le; 3.0<br/>gini = 0.459<br/>samples = 14<br/>value = [5, 9]>, fillcolor="#399de571"] ;
55 -> 57 ;
58 [label=<gini = 0.5<br/>samples = 4<br/>value = [2, 2]>, fillcolor="#e5813900"] ;
57 -> 58 ;
59 [label=<BOOKDUES_FOR_NPA/ NORMAL_AS_ON_310618' &le; 0.56<br/>gini = 0.42<br/>samples = 10<br/>value = [3, 7]>, fillcolor="#399de592"] ;
57 -> 59 ;
60 [label=<gini = 0.444<br/>samples = 3<br/>value = [2, 1]>, fillcolor="#e581397f"] ;
59 -> 60 ;
61 [label=<gini = 0.245<br/>samples = 7<br/>value = [1, 6]>, fillcolor="#399de5d4"] ;
59 -> 61 ;
62 [label=<gini = 0.0<br/>samples = 3<br/>value = [0, 3]>, fillcolor="#399de5ff"] ;
54 -> 62 ;
63 [label=<gini = 0.5<br/>samples = 2<br/>value = [1, 1]>, fillcolor="#e5813900"] ;
53 -> 63 ;
64 [label=<gini = 0.444<br/>samples = 3<br/>value = [2, 1]>, fillcolor="#e581397f"] ;
52 -> 64 ;
65 [label=<NO_OF_DEPENDENTS &le; 4.5<br/>gini = 0.5<br/>samples = 375<br/>value = [184, 191]>, fillcolor="#399de509"] ;
43 -> 65 ;
66 [label=<MBS &le; 0.5<br/>gini = 0.499<br/>samples = 365<br/>value = [175, 190]>, fillcolor="#399de514"] ;
65 -> 66 ;
67 [label=<Salary &le; 7.0<br/>gini = 0.499<br/>samples = 363<br/>value = [173, 190]>, fillcolor="#399de517"] ;
66 -> 67 ;
68 [label=<PHOTO_NON_PHOTOFLG &le; 1.0<br/>gini = 0.497<br/>samples = 321<br/>value = [148, 173]>, fillcolor="#399de525"] ;
67 -> 68 ;
69 [label=<BOOKDUES_FOR_NPA/ NORMAL_AS_ON_310618' &le; 0.2<br/>gini = 0.494<br/>samples = 164<br/>value = [91, 73]>, fillcolor="#e5813932"] ;
68 -> 69 ;
70 [label=<saving ACC_OPEN_DATE' &le; 20070674.0<br/>gini = 0.262<br/>samples = 71<br/>value = [60, 11]>, fillcolor="#e58139d0"] ;
69 -> 70 ;
71 [label=<saving ACC_OPEN_DATE' &le; 20055663.0<br/>gini = 0.498<br/>samples = 15<br/>value = [8, 7]>, fillcolor="#e5813920"] ;
70 -> 71 ;
72 [label=<gini = 0.0<br/>samples = 3<br/>value = [3, 0]>, fillcolor="#e58139ff"] ;
71 -> 72 ;
73 [label=<SPOUSE WORKING' &le; 1.5<br/>gini = 0.486<br/>samples = 12<br/>value = [5, 7]>, fillcolor="#399de549"] ;
71 -> 73 ;
74 [label=<gini = 0.32<br/>samples = 5<br/>value = [1, 4]>, fillcolor="#399de5bf"] ;
73 -> 74 ;
75 [label=<gini = 0.49<br/>samples = 7<br/>value = [4, 3]>, fillcolor="#e5813940"] ;
73 -> 75 ;
76 [label=<MARRIEDARITAL_SINGLETATUSINGLE &le; 1.5<br/>gini = 0.133<br/>samples = 56<br/>value = [52, 4]>, fillcolor="#e58139eb"] ;
70 -> 76 ;
77 [label=<LOAN ' &le; 1.0<br/>gini = 0.124<br/>samples = 30<br/>value = [28, 2]>, fillcolor="#e58139ed"] ;
76 -> 77 ;
78 [label=<BRANCH STATUS' &le; 0.5<br/>gini = 0.142<br/>samples = 26<br/>value = [24, 2]>, fillcolor="#e58139ea"] ;
77 -> 78 ;
79 [label=<PROFESSION &le; 20.0<br/>gini = 0.278<br/>samples = 12<br/>value = [10, 2]>, fillcolor="#e58139cc"] ;
78 -> 79 ;
80 [label=<gini = 0.375<br/>samples = 4<br/>value = [3, 1]>, fillcolor="#e58139aa"] ;
79 -> 80 ;
81 [label=<gini = 0.219<br/>samples = 8<br/>value = [7, 1]>, fillcolor="#e58139db"] ;
79 -> 81 ;
82 [label=<gini = 0.0<br/>samples = 14<br/>value = [14, 0]>, fillcolor="#e58139ff"] ;
78 -> 82 ;
83 [label=<gini = 0.0<br/>samples = 4<br/>value = [4, 0]>, fillcolor="#e58139ff"] ;
77 -> 83 ;
84 [label=<Salary &le; 3.0<br/>gini = 0.142<br/>samples = 26<br/>value = [24, 2]>, fillcolor="#e58139ea"] ;
76 -> 84 ;
85 [label=<OCCUPATION &le; 10.5<br/>gini = 0.117<br/>samples = 16<br/>value = [15, 1]>, fillcolor="#e58139ee"] ;
84 -> 85 ;
86 [label=<gini = 0.0<br/>samples = 5<br/>value = [5, 0]>, fillcolor="#e58139ff"] ;
85 -> 86 ;
87 [label=<LOAN ' &le; 1.0<br/>gini = 0.165<br/>samples = 11<br/>value = [10, 1]>, fillcolor="#e58139e6"] ;
85 -> 87 ;
88 [label=<AGE &le; 41.0<br/>gini = 0.18<br/>samples = 10<br/>value = [9, 1]>, fillcolor="#e58139e3"] ;
87 -> 88 ;
89 [label=<gini = 0.0<br/>samples = 8<br/>value = [8, 0]>, fillcolor="#e58139ff"] ;
88 -> 89 ;
90 [label=<gini = 0.5<br/>samples = 2<br/>value = [1, 1]>, fillcolor="#e5813900"] ;
88 -> 90 ;
91 [label=<gini = 0.0<br/>samples = 1<br/>value = [1, 0]>, fillcolor="#e58139ff"] ;
87 -> 91 ;
92 [label=<BRANCH STATUS' &le; 2.0<br/>gini = 0.18<br/>samples = 10<br/>value = [9, 1]>, fillcolor="#e58139e3"] ;
84 -> 92 ;
93 [label=<gini = 0.0<br/>samples = 5<br/>value = [5, 0]>, fillcolor="#e58139ff"] ;
92 -> 93 ;
94 [label=<gini = 0.32<br/>samples = 5<br/>value = [4, 1]>, fillcolor="#e58139bf"] ;
92 -> 94 ;
95 [label=<BRANCH STATUS' &le; 1.5<br/>gini = 0.444<br/>samples = 93<br/>value = [31, 62]>, fillcolor="#399de57f"] ;
69 -> 95 ;
96 [label=<BOOKDUES_FOR_NPA/ NORMAL_AS_ON_310618' &le; 32262.325<br/>gini = 0.417<br/>samples = 54<br/>value = [16, 38]>, fillcolor="#399de594"] ;
95 -> 96 ;
97 [label=<saving ACC_OPEN_DATE' &le; 20110320.0<br/>gini = 0.393<br/>samples = 52<br/>value = [14, 38]>, fillcolor="#399de5a1"] ;
96 -> 97 ;
98 [label=<BRANCH STATUS' &le; 0.5<br/>gini = 0.298<br/>samples = 44<br/>value = [8, 36]>, fillcolor="#399de5c6"] ;
97 -> 98 ;
99 [label=<BOOKDUES_FOR_NPA/ NORMAL_AS_ON_310618' &le; 14761.665<br/>gini = 0.291<br/>samples = 34<br/>value = [6, 28]>, fillcolor="#399de5c8"] ;
98 -> 99 ;
100 [label=<NO_OF_DEPENDENTS &le; 3.5<br/>gini = 0.355<br/>samples = 26<br/>value = [6, 20]>, fillcolor="#399de5b3"] ;
99 -> 100 ;
101 [label=<PROFESSION &le; 26.5<br/>gini = 0.386<br/>samples = 23<br/>value = [6, 17]>, fillcolor="#399de5a5"] ;
100 -> 101 ;
102 [label=<gini = 0.48<br/>samples = 5<br/>value = [3, 2]>, fillcolor="#e5813955"] ;
101 -> 102 ;
103 [label=<BOOKDUES_FOR_NPA/ NORMAL_AS_ON_310618' &le; 12867.75<br/>gini = 0.278<br/>samples = 18<br/>value = [3, 15]>, fillcolor="#399de5cc"] ;
101 -> 103 ;
104 [label=<AGE &le; 36.5<br/>gini = 0.117<br/>samples = 16<br/>value = [1, 15]>, fillcolor="#399de5ee"] ;
103 -> 104 ;
105 [label=<gini = 0.219<br/>samples = 8<br/>value = [1, 7]>, fillcolor="#399de5db"] ;
104 -> 105 ;
106 [label=<gini = 0.0<br/>samples = 8<br/>value = [0, 8]>, fillcolor="#399de5ff"] ;
104 -> 106 ;
107 [label=<gini = 0.0<br/>samples = 2<br/>value = [2, 0]>, fillcolor="#e58139ff"] ;
103 -> 107 ;
108 [label=<gini = 0.0<br/>samples = 3<br/>value = [0, 3]>, fillcolor="#399de5ff"] ;
100 -> 108 ;
109 [label=<gini = 0.0<br/>samples = 8<br/>value = [0, 8]>, fillcolor="#399de5ff"] ;
99 -> 109 ;
110 [label=<saving ACC_OPEN_DATE' &le; 20095568.0<br/>gini = 0.32<br/>samples = 10<br/>value = [2, 8]>, fillcolor="#399de5bf"] ;
98 -> 110 ;
111 [label=<gini = 0.444<br/>samples = 6<br/>value = [2, 4]>, fillcolor="#399de57f"] ;
110 -> 111 ;
112 [label=<gini = 0.0<br/>samples = 4<br/>value = [0, 4]>, fillcolor="#399de5ff"] ;
110 -> 112 ;
113 [label=<gini = 0.375<br/>samples = 8<br/>value = [6, 2]>, fillcolor="#e58139aa"] ;
97 -> 113 ;
114 [label=<gini = 0.0<br/>samples = 2<br/>value = [2, 0]>, fillcolor="#e58139ff"] ;
96 -> 114 ;
115 [label=<NO_OF_DEPENDENTS &le; 3.5<br/>gini = 0.473<br/>samples = 39<br/>value = [15, 24]>, fillcolor="#399de560"] ;
95 -> 115 ;
116 [label=<saving ACC_OPEN_DATE' &le; 20060625.0<br/>gini = 0.456<br/>samples = 37<br/>value = [13, 24]>, fillcolor="#399de575"] ;
115 -> 116 ;
117 [label=<gini = 0.0<br/>samples = 2<br/>value = [2, 0]>, fillcolor="#e58139ff"] ;
116 -> 117 ;
118 [label=<saving ACC_OPEN_DATE' &le; 20120658.0<br/>gini = 0.431<br/>samples = 35<br/>value = [11, 24]>, fillcolor="#399de58a"] ;
116 -> 118 ;
119 [label=<LOAN ' &le; 1.0<br/>gini = 0.397<br/>samples = 33<br/>value = [9, 24]>, fillcolor="#399de59f"] ;
118 -> 119 ;
120 [label=<MARRIEDARITAL_SINGLETATUSINGLE &le; 1.5<br/>gini = 0.337<br/>samples = 28<br/>value = [6, 22]>, fillcolor="#399de5b9"] ;
119 -> 120 ;
121 [label=<NO_OF_DEPENDENTS &le; 1.5<br/>gini = 0.278<br/>samples = 12<br/>value = [2, 10]>, fillcolor="#399de5cc"] ;
120 -> 121 ;
122 [label=<gini = 0.0<br/>samples = 6<br/>value = [0, 6]>, fillcolor="#399de5ff"] ;
121 -> 122 ;
123 [label=<gini = 0.444<br/>samples = 6<br/>value = [2, 4]>, fillcolor="#399de57f"] ;
121 -> 123 ;
124 [label=<OCCUPATION &le; 10.5<br/>gini = 0.375<br/>samples = 16<br/>value = [4, 12]>, fillcolor="#399de5aa"] ;
120 -> 124 ;
125 [label=<gini = 0.48<br/>samples = 5<br/>value = [2, 3]>, fillcolor="#399de555"] ;
124 -> 125 ;
126 [label=<AGE &le; 35.0<br/>gini = 0.298<br/>samples = 11<br/>value = [2, 9]>, fillcolor="#399de5c6"] ;
124 -> 126 ;
127 [label=<gini = 0.48<br/>samples = 5<br/>value = [2, 3]>, fillcolor="#399de555"] ;
126 -> 127 ;
128 [label=<gini = 0.0<br/>samples = 6<br/>value = [0, 6]>, fillcolor="#399de5ff"] ;
126 -> 128 ;
129 [label=<gini = 0.48<br/>samples = 5<br/>value = [3, 2]>, fillcolor="#e5813955"] ;
119 -> 129 ;
130 [label=<gini = 0.0<br/>samples = 2<br/>value = [2, 0]>, fillcolor="#e58139ff"] ;
118 -> 130 ;
131 [label=<gini = 0.0<br/>samples = 2<br/>value = [2, 0]>, fillcolor="#e58139ff"] ;
115 -> 131 ;
132 [label=<saving ACC_OPEN_DATE' &le; 20090207.0<br/>gini = 0.462<br/>samples = 157<br/>value = [57, 100]>, fillcolor="#399de56e"] ;
68 -> 132 ;
133 [label=<AGE &le; 29.0<br/>gini = 0.488<br/>samples = 90<br/>value = [38, 52]>, fillcolor="#399de545"] ;
132 -> 133 ;
134 [label=<gini = 0.0<br/>samples = 3<br/>value = [3, 0]>, fillcolor="#e58139ff"] ;
133 -> 134 ;
135 [label=<AGE &le; 61.5<br/>gini = 0.481<br/>samples = 87<br/>value = [35, 52]>, fillcolor="#399de553"] ;
133 -> 135 ;
136 [label=<BOOKDUES_FOR_NPA/ NORMAL_AS_ON_310618' &le; 8515.075<br/>gini = 0.475<br/>samples = 85<br/>value = [33, 52]>, fillcolor="#399de55d"] ;
135 -> 136 ;
137 [label=<OCCUPATION &le; 10.5<br/>gini = 0.5<br/>samples = 61<br/>value = [31, 30]>, fillcolor="#e5813908"] ;
136 -> 137 ;
138 [label=<BRANCH STATUS' &le; 2.5<br/>gini = 0.49<br/>samples = 28<br/>value = [12, 16]>, fillcolor="#399de540"] ;
137 -> 138 ;
139 [label=<AGE &le; 36.5<br/>gini = 0.499<br/>samples = 19<br/>value = [10, 9]>, fillcolor="#e5813919"] ;
138 -> 139 ;
140 [label=<gini = 0.408<br/>samples = 7<br/>value = [2, 5]>, fillcolor="#399de599"] ;
139 -> 140 ;
141 [label=<NO_OF_DEPENDENTS &le; 2.5<br/>gini = 0.444<br/>samples = 12<br/>value = [8, 4]>, fillcolor="#e581397f"] ;
139 -> 141 ;
142 [label=<gini = 0.0<br/>samples = 7<br/>value = [7, 0]>, fillcolor="#e58139ff"] ;
141 -> 142 ;
143 [label=<gini = 0.32<br/>samples = 5<br/>value = [1, 4]>, fillcolor="#399de5bf"] ;
141 -> 143 ;
144 [label=<gini = 0.346<br/>samples = 9<br/>value = [2, 7]>, fillcolor="#399de5b6"] ;
138 -> 144 ;
145 [label=<saving ACC_OPEN_DATE' &le; 20070513.0<br/>gini = 0.489<br/>samples = 33<br/>value = [19, 14]>, fillcolor="#e5813943"] ;
137 -> 145 ;
146 [label=<LOAN ' &le; 1.0<br/>gini = 0.408<br/>samples = 14<br/>value = [4, 10]>, fillcolor="#399de599"] ;
145 -> 146 ;
147 [label=<NO_OF_DEPENDENTS &le; 3.5<br/>gini = 0.355<br/>samples = 13<br/>value = [3, 10]>, fillcolor="#399de5b3"] ;
146 -> 147 ;
148 [label=<BRANCH STATUS' &le; 1.0<br/>gini = 0.278<br/>samples = 12<br/>value = [2, 10]>, fillcolor="#399de5cc"] ;
147 -> 148 ;
149 [label=<gini = 0.0<br/>samples = 7<br/>value = [0, 7]>, fillcolor="#399de5ff"] ;
148 -> 149 ;
150 [label=<gini = 0.48<br/>samples = 5<br/>value = [2, 3]>, fillcolor="#399de555"] ;
148 -> 150 ;
151 [label=<gini = 0.0<br/>samples = 1<br/>value = [1, 0]>, fillcolor="#e58139ff"] ;
147 -> 151 ;
152 [label=<gini = 0.0<br/>samples = 1<br/>value = [1, 0]>, fillcolor="#e58139ff"] ;
146 -> 152 ;
153 [label=<AGE &le; 58.5<br/>gini = 0.332<br/>samples = 19<br/>value = [15, 4]>, fillcolor="#e58139bb"] ;
145 -> 153 ;
154 [label=<BOOKDUES_FOR_NPA/ NORMAL_AS_ON_310618' &le; 5352.1<br/>gini = 0.278<br/>samples = 18<br/>value = [15, 3]>, fillcolor="#e58139cc"] ;
153 -> 154 ;
155 [label=<LOAN ' &le; 1.0<br/>gini = 0.208<br/>samples = 17<br/>value = [15, 2]>, fillcolor="#e58139dd"] ;
154 -> 155 ;
156 [label=<Salary &le; 3.0<br/>gini = 0.219<br/>samples = 16<br/>value = [14, 2]>, fillcolor="#e58139db"] ;
155 -> 156 ;
157 [label=<gini = 0.219<br/>samples = 8<br/>value = [7, 1]>, fillcolor="#e58139db"] ;
156 -> 157 ;
158 [label=<gini = 0.219<br/>samples = 8<br/>value = [7, 1]>, fillcolor="#e58139db"] ;
156 -> 158 ;
159 [label=<gini = 0.0<br/>samples = 1<br/>value = [1, 0]>, fillcolor="#e58139ff"] ;
155 -> 159 ;
160 [label=<gini = 0.0<br/>samples = 1<br/>value = [0, 1]>, fillcolor="#399de5ff"] ;
154 -> 160 ;
161 [label=<gini = 0.0<br/>samples = 1<br/>value = [0, 1]>, fillcolor="#399de5ff"] ;
153 -> 161 ;
162 [label=<AGE &le; 39.0<br/>gini = 0.153<br/>samples = 24<br/>value = [2, 22]>, fillcolor="#399de5e8"] ;
136 -> 162 ;
163 [label=<gini = 0.0<br/>samples = 14<br/>value = [0, 14]>, fillcolor="#399de5ff"] ;
162 -> 163 ;
164 [label=<Salary &le; 3.0<br/>gini = 0.32<br/>samples = 10<br/>value = [2, 8]>, fillcolor="#399de5bf"] ;
162 -> 164 ;
165 [label=<gini = 0.48<br/>samples = 5<br/>value = [2, 3]>, fillcolor="#399de555"] ;
164 -> 165 ;
166 [label=<gini = 0.0<br/>samples = 5<br/>value = [0, 5]>, fillcolor="#399de5ff"] ;
164 -> 166 ;
167 [label=<gini = 0.0<br/>samples = 2<br/>value = [2, 0]>, fillcolor="#e58139ff"] ;
135 -> 167 ;
168 [label=<PROFESSION &le; 11.5<br/>gini = 0.406<br/>samples = 67<br/>value = [19, 48]>, fillcolor="#399de59a"] ;
132 -> 168 ;
169 [label=<gini = 0.0<br/>samples = 5<br/>value = [0, 5]>, fillcolor="#399de5ff"] ;
168 -> 169 ;
170 [label=<saving ACC_OPEN_DATE' &le; 20110855.0<br/>gini = 0.425<br/>samples = 62<br/>value = [19, 43]>, fillcolor="#399de58e"] ;
168 -> 170 ;
171 [label=<BOOKDUES_FOR_NPA/ NORMAL_AS_ON_310618' &le; 47474.855<br/>gini = 0.384<br/>samples = 54<br/>value = [14, 40]>, fillcolor="#399de5a6"] ;
170 -> 171 ;
172 [label=<MARRIEDARITAL_SINGLETATUSINGLE &le; 1.5<br/>gini = 0.37<br/>samples = 53<br/>value = [13, 40]>, fillcolor="#399de5ac"] ;
171 -> 172 ;
173 [label=<AGE &le; 40.5<br/>gini = 0.435<br/>samples = 25<br/>value = [8, 17]>, fillcolor="#399de587"] ;
172 -> 173 ;
174 [label=<BRANCH STATUS' &le; 2.5<br/>gini = 0.153<br/>samples = 12<br/>value = [1, 11]>, fillcolor="#399de5e8"] ;
173 -> 174 ;
175 [label=<gini = 0.0<br/>samples = 8<br/>value = [0, 8]>, fillcolor="#399de5ff"] ;
174 -> 175 ;
176 [label=<gini = 0.375<br/>samples = 4<br/>value = [1, 3]>, fillcolor="#399de5aa"] ;
174 -> 176 ;
177 [label=<PROFESSION &le; 20.0<br/>gini = 0.497<br/>samples = 13<br/>value = [7, 6]>, fillcolor="#e5813924"] ;
173 -> 177 ;
178 [label=<gini = 0.32<br/>samples = 5<br/>value = [1, 4]>, fillcolor="#399de5bf"] ;
177 -> 178 ;
179 [label=<gini = 0.375<br/>samples = 8<br/>value = [6, 2]>, fillcolor="#e58139aa"] ;
177 -> 179 ;
180 [label=<PROFESSION &le; 26.5<br/>gini = 0.293<br/>samples = 28<br/>value = [5, 23]>, fillcolor="#399de5c8"] ;
172 -> 180 ;
181 [label=<gini = 0.219<br/>samples = 8<br/>value = [1, 7]>, fillcolor="#399de5db"] ;
180 -> 181 ;
182 [label=<NO_OF_DEPENDENTS &le; 0.5<br/>gini = 0.32<br/>samples = 20<br/>value = [4, 16]>, fillcolor="#399de5bf"] ;
180 -> 182 ;
183 [label=<gini = 0.0<br/>samples = 8<br/>value = [0, 8]>, fillcolor="#399de5ff"] ;
182 -> 183 ;
184 [label=<BRANCH STATUS' &le; 2.5<br/>gini = 0.444<br/>samples = 12<br/>value = [4, 8]>, fillcolor="#399de57f"] ;
182 -> 184 ;
185 [label=<gini = 0.346<br/>samples = 9<br/>value = [2, 7]>, fillcolor="#399de5b6"] ;
184 -> 185 ;
186 [label=<gini = 0.444<br/>samples = 3<br/>value = [2, 1]>, fillcolor="#e581397f"] ;
184 -> 186 ;
187 [label=<gini = 0.0<br/>samples = 1<br/>value = [1, 0]>, fillcolor="#e58139ff"] ;
171 -> 187 ;
188 [label=<gini = 0.469<br/>samples = 8<br/>value = [5, 3]>, fillcolor="#e5813966"] ;
170 -> 188 ;
189 [label=<SPOUSE WORKING' &le; 1.5<br/>gini = 0.482<br/>samples = 42<br/>value = [25, 17]>, fillcolor="#e5813952"] ;
67 -> 189 ;
190 [label=<PHOTO_NON_PHOTOFLG &le; 1.0<br/>gini = 0.488<br/>samples = 26<br/>value = [15, 11]>, fillcolor="#e5813944"] ;
189 -> 190 ;
191 [label=<saving ACC_OPEN_DATE' &le; 20070664.0<br/>gini = 0.5<br/>samples = 14<br/>value = [7, 7]>, fillcolor="#e5813900"] ;
190 -> 191 ;
192 [label=<gini = 0.0<br/>samples = 2<br/>value = [0, 2]>, fillcolor="#399de5ff"] ;
191 -> 192 ;
193 [label=<AGE &le; 40.5<br/>gini = 0.486<br/>samples = 12<br/>value = [7, 5]>, fillcolor="#e5813949"] ;
191 -> 193 ;
194 [label=<gini = 0.444<br/>samples = 9<br/>value = [6, 3]>, fillcolor="#e581397f"] ;
193 -> 194 ;
195 [label=<gini = 0.444<br/>samples = 3<br/>value = [1, 2]>, fillcolor="#399de57f"] ;
193 -> 195 ;
196 [label=<saving ACC_OPEN_DATE' &le; 20075563.0<br/>gini = 0.444<br/>samples = 12<br/>value = [8, 4]>, fillcolor="#e581397f"] ;
190 -> 196 ;
197 [label=<gini = 0.0<br/>samples = 2<br/>value = [2, 0]>, fillcolor="#e58139ff"] ;
196 -> 197 ;
198 [label=<NO_OF_DEPENDENTS &le; 0.5<br/>gini = 0.48<br/>samples = 10<br/>value = [6, 4]>, fillcolor="#e5813955"] ;
196 -> 198 ;
199 [label=<gini = 0.375<br/>samples = 4<br/>value = [1, 3]>, fillcolor="#399de5aa"] ;
198 -> 199 ;
200 [label=<gini = 0.278<br/>samples = 6<br/>value = [5, 1]>, fillcolor="#e58139cc"] ;
198 -> 200 ;
201 [label=<NO_OF_DEPENDENTS &le; 2.5<br/>gini = 0.469<br/>samples = 16<br/>value = [10, 6]>, fillcolor="#e5813966"] ;
189 -> 201 ;
202 [label=<gini = 0.5<br/>samples = 6<br/>value = [3, 3]>, fillcolor="#e5813900"] ;
201 -> 202 ;
203 [label=<OCCUPATION &le; 11.5<br/>gini = 0.42<br/>samples = 10<br/>value = [7, 3]>, fillcolor="#e5813992"] ;
201 -> 203 ;
204 [label=<gini = 0.49<br/>samples = 7<br/>value = [4, 3]>, fillcolor="#e5813940"] ;
203 -> 204 ;
205 [label=<gini = 0.0<br/>samples = 3<br/>value = [3, 0]>, fillcolor="#e58139ff"] ;
203 -> 205 ;
206 [label=<gini = 0.0<br/>samples = 2<br/>value = [2, 0]>, fillcolor="#e58139ff"] ;
66 -> 206 ;
207 [label=<MARRIEDARITAL_SINGLETATUSINGLE &le; 1.5<br/>gini = 0.18<br/>samples = 10<br/>value = [9, 1]>, fillcolor="#e58139e3"] ;
65 -> 207 ;
208 [label=<gini = 0.0<br/>samples = 6<br/>value = [6, 0]>, fillcolor="#e58139ff"] ;
207 -> 208 ;
209 [label=<gini = 0.375<br/>samples = 4<br/>value = [3, 1]>, fillcolor="#e58139aa"] ;
207 -> 209 ;
210 [label=<gini = 0.0<br/>samples = 17<br/>value = [17, 0]>, fillcolor="#e58139ff"] ;
6 -> 210 ;
211 [label=<PROFESSION &le; 26.5<br/>gini = 0.333<br/>samples = 1618<br/>value = [1277, 341]>, fillcolor="#e58139bb"] ;
5 -> 211 ;
212 [label=<AUTO_STATUS &le; 2.5<br/>gini = 0.249<br/>samples = 543<br/>value = [464, 79]>, fillcolor="#e58139d4"] ;
211 -> 212 ;
213 [label=<LOAN ' &le; 1.0<br/>gini = 0.269<br/>samples = 494<br/>value = [415, 79]>, fillcolor="#e58139ce"] ;
212 -> 213 ;
214 [label=<saving ACC_OPEN_DATE' &le; 20120958.0<br/>gini = 0.289<br/>samples = 394<br/>value = [325, 69]>, fillcolor="#e58139c9"] ;
213 -> 214 ;
215 [label=<PHOTO_NON_PHOTOFLG &le; 1.0<br/>gini = 0.284<br/>samples = 391<br/>value = [324, 67]>, fillcolor="#e58139ca"] ;
214 -> 215 ;
216 [label=<OCCUPATION &le; 9.5<br/>gini = 0.227<br/>samples = 222<br/>value = [193, 29]>, fillcolor="#e58139d9"] ;
215 -> 216 ;
217 [label=<Salary &le; 3.0<br/>gini = 0.164<br/>samples = 166<br/>value = [151, 15]>, fillcolor="#e58139e6"] ;
216 -> 217 ;
218 [label=<OCCUPATION &le; 6.0<br/>gini = 0.221<br/>samples = 71<br/>value = [62, 9]>, fillcolor="#e58139da"] ;
217 -> 218 ;
219 [label=<OCCUPATION &le; 2.5<br/>gini = 0.42<br/>samples = 20<br/>value = [14, 6]>, fillcolor="#e5813992"] ;
218 -> 219 ;
220 [label=<NO_OF_DEPENDENTS &le; 0.5<br/>gini = 0.388<br/>samples = 19<br/>value = [14, 5]>, fillcolor="#e58139a4"] ;
219 -> 220 ;
221 [label=<gini = 0.444<br/>samples = 6<br/>value = [2, 4]>, fillcolor="#399de57f"] ;
220 -> 221 ;
222 [label=<MARRIEDARITAL_SINGLETATUSINGLE &le; 1.5<br/>gini = 0.142<br/>samples = 13<br/>value = [12, 1]>, fillcolor="#e58139ea"] ;
220 -> 222 ;
223 [label=<gini = 0.0<br/>samples = 7<br/>value = [7, 0]>, fillcolor="#e58139ff"] ;
222 -> 223 ;
224 [label=<gini = 0.278<br/>samples = 6<br/>value = [5, 1]>, fillcolor="#e58139cc"] ;
222 -> 224 ;
225 [label=<gini = 0.0<br/>samples = 1<br/>value = [0, 1]>, fillcolor="#399de5ff"] ;
219 -> 225 ;
226 [label=<MARRIEDARITAL_SINGLETATUSINGLE &le; 1.5<br/>gini = 0.111<br/>samples = 51<br/>value = [48, 3]>, fillcolor="#e58139ef"] ;
218 -> 226 ;
227 [label=<gini = 0.0<br/>samples = 20<br/>value = [20, 0]>, fillcolor="#e58139ff"] ;
226 -> 227 ;
228 [label=<BRANCH STATUS' &le; 1.5<br/>gini = 0.175<br/>samples = 31<br/>value = [28, 3]>, fillcolor="#e58139e4"] ;
226 -> 228 ;
229 [label=<saving ACC_OPEN_DATE' &le; 20065921.0<br/>gini = 0.337<br/>samples = 14<br/>value = [11, 3]>, fillcolor="#e58139b9"] ;
228 -> 229 ;
230 [label=<gini = 0.5<br/>samples = 6<br/>value = [3, 3]>, fillcolor="#e5813900"] ;
229 -> 230 ;
231 [label=<gini = 0.0<br/>samples = 8<br/>value = [8, 0]>, fillcolor="#e58139ff"] ;
229 -> 231 ;
232 [label=<gini = 0.0<br/>samples = 17<br/>value = [17, 0]>, fillcolor="#e58139ff"] ;
228 -> 232 ;
233 [label=<saving ACC_OPEN_DATE' &le; 20100818.0<br/>gini = 0.118<br/>samples = 95<br/>value = [89, 6]>, fillcolor="#e58139ee"] ;
217 -> 233 ;
234 [label=<PROFESSION &le; 2.5<br/>gini = 0.159<br/>samples = 69<br/>value = [63, 6]>, fillcolor="#e58139e7"] ;
233 -> 234 ;
235 [label=<gini = 0.375<br/>samples = 8<br/>value = [6, 2]>, fillcolor="#e58139aa"] ;
234 -> 235 ;
236 [label=<AGE &le; 55.5<br/>gini = 0.123<br/>samples = 61<br/>value = [57, 4]>, fillcolor="#e58139ed"] ;
234 -> 236 ;
237 [label=<NO_OF_DEPENDENTS &le; 1.5<br/>gini = 0.07<br/>samples = 55<br/>value = [53, 2]>, fillcolor="#e58139f5"] ;
236 -> 237 ;
238 [label=<NO_OF_DEPENDENTS &le; 0.5<br/>gini = 0.208<br/>samples = 17<br/>value = [15, 2]>, fillcolor="#e58139dd"] ;
237 -> 238 ;
239 [label=<gini = 0.0<br/>samples = 10<br/>value = [10, 0]>, fillcolor="#e58139ff"] ;
238 -> 239 ;
240 [label=<gini = 0.408<br/>samples = 7<br/>value = [5, 2]>, fillcolor="#e5813999"] ;
238 -> 240 ;
241 [label=<gini = 0.0<br/>samples = 38<br/>value = [38, 0]>, fillcolor="#e58139ff"] ;
237 -> 241 ;
242 [label=<gini = 0.444<br/>samples = 6<br/>value = [4, 2]>, fillcolor="#e581397f"] ;
236 -> 242 ;
243 [label=<gini = 0.0<br/>samples = 26<br/>value = [26, 0]>, fillcolor="#e58139ff"] ;
233 -> 243 ;
244 [label=<MARRIEDARITAL_SINGLETATUSINGLE &le; 1.5<br/>gini = 0.375<br/>samples = 56<br/>value = [42, 14]>, fillcolor="#e58139aa"] ;
216 -> 244 ;
245 [label=<Salary &le; 3.0<br/>gini = 0.227<br/>samples = 23<br/>value = [20, 3]>, fillcolor="#e58139d9"] ;
244 -> 245 ;
246 [label=<OCCUPATION &le; 11.0<br/>gini = 0.298<br/>samples = 11<br/>value = [9, 2]>, fillcolor="#e58139c6"] ;
245 -> 246 ;
247 [label=<gini = 0.0<br/>samples = 3<br/>value = [3, 0]>, fillcolor="#e58139ff"] ;
246 -> 247 ;
248 [label=<gini = 0.375<br/>samples = 8<br/>value = [6, 2]>, fillcolor="#e58139aa"] ;
246 -> 248 ;
249 [label=<GENDER &le; 0.5<br/>gini = 0.153<br/>samples = 12<br/>value = [11, 1]>, fillcolor="#e58139e8"] ;
245 -> 249 ;
250 [label=<gini = 0.0<br/>samples = 1<br/>value = [1, 0]>, fillcolor="#e58139ff"] ;
249 -> 250 ;
251 [label=<saving ACC_OPEN_DATE' &le; 20100564.0<br/>gini = 0.165<br/>samples = 11<br/>value = [10, 1]>, fillcolor="#e58139e6"] ;
249 -> 251 ;
252 [label=<gini = 0.0<br/>samples = 6<br/>value = [6, 0]>, fillcolor="#e58139ff"] ;
251 -> 252 ;
253 [label=<gini = 0.32<br/>samples = 5<br/>value = [4, 1]>, fillcolor="#e58139bf"] ;
251 -> 253 ;
254 [label=<NO_OF_DEPENDENTS &le; 2.5<br/>gini = 0.444<br/>samples = 33<br/>value = [22, 11]>, fillcolor="#e581397f"] ;
244 -> 254 ;
255 [label=<OCCUPATION &le; 13.0<br/>gini = 0.417<br/>samples = 27<br/>value = [19, 8]>, fillcolor="#e5813994"] ;
254 -> 255 ;
256 [label=<saving ACC_OPEN_DATE' &le; 20115626.0<br/>gini = 0.435<br/>samples = 25<br/>value = [17, 8]>, fillcolor="#e5813987"] ;
255 -> 256 ;
257 [label=<OCCUPATION &le; 11.0<br/>gini = 0.375<br/>samples = 20<br/>value = [15, 5]>, fillcolor="#e58139aa"] ;
256 -> 257 ;
258 [label=<gini = 0.375<br/>samples = 4<br/>value = [3, 1]>, fillcolor="#e58139aa"] ;
257 -> 258 ;
259 [label=<MBS &le; 0.5<br/>gini = 0.375<br/>samples = 16<br/>value = [12, 4]>, fillcolor="#e58139aa"] ;
257 -> 259 ;
260 [label=<BRANCH STATUS' &le; 1.5<br/>gini = 0.397<br/>samples = 11<br/>value = [8, 3]>, fillcolor="#e581399f"] ;
259 -> 260 ;
261 [label=<gini = 0.0<br/>samples = 2<br/>value = [2, 0]>, fillcolor="#e58139ff"] ;
260 -> 261 ;
262 [label=<gini = 0.444<br/>samples = 9<br/>value = [6, 3]>, fillcolor="#e581397f"] ;
260 -> 262 ;
263 [label=<gini = 0.32<br/>samples = 5<br/>value = [4, 1]>, fillcolor="#e58139bf"] ;
259 -> 263 ;
264 [label=<gini = 0.48<br/>samples = 5<br/>value = [2, 3]>, fillcolor="#399de555"] ;
256 -> 264 ;
265 [label=<gini = 0.0<br/>samples = 2<br/>value = [2, 0]>, fillcolor="#e58139ff"] ;
255 -> 265 ;
266 [label=<gini = 0.5<br/>samples = 6<br/>value = [3, 3]>, fillcolor="#e5813900"] ;
254 -> 266 ;
267 [label=<PROFESSION &le; 19.5<br/>gini = 0.349<br/>samples = 169<br/>value = [131, 38]>, fillcolor="#e58139b5"] ;
215 -> 267 ;
268 [label=<BOOKDUES_FOR_NPA/ NORMAL_AS_ON_310618' &le; 7657.595<br/>gini = 0.366<br/>samples = 141<br/>value = [107, 34]>, fillcolor="#e58139ae"] ;
267 -> 268 ;
269 [label=<MBS &le; 0.5<br/>gini = 0.25<br/>samples = 109<br/>value = [93, 16]>, fillcolor="#e58139d3"] ;
268 -> 269 ;
270 [label=<GENDER &le; 0.5<br/>gini = 0.293<br/>samples = 73<br/>value = [60, 13]>, fillcolor="#e58139c8"] ;
269 -> 270 ;
271 [label=<gini = 0.0<br/>samples = 6<br/>value = [6, 0]>, fillcolor="#e58139ff"] ;
270 -> 271 ;
272 [label=<SPOUSE WORKING' &le; 1.5<br/>gini = 0.313<br/>samples = 67<br/>value = [54, 13]>, fillcolor="#e58139c2"] ;
270 -> 272 ;
273 [label=<Salary &le; 7.0<br/>gini = 0.346<br/>samples = 27<br/>value = [21, 6]>, fillcolor="#e58139b6"] ;
272 -> 273 ;
274 [label=<AGE &le; 43.5<br/>gini = 0.278<br/>samples = 24<br/>value = [20, 4]>, fillcolor="#e58139cc"] ;
273 -> 274 ;
275 [label=<BOOKDUES_FOR_NPA/ NORMAL_AS_ON_310618' &le; 236.5<br/>gini = 0.142<br/>samples = 13<br/>value = [12, 1]>, fillcolor="#e58139ea"] ;
274 -> 275 ;
276 [label=<gini = 0.198<br/>samples = 9<br/>value = [8, 1]>, fillcolor="#e58139df"] ;
275 -> 276 ;
277 [label=<gini = 0.0<br/>samples = 4<br/>value = [4, 0]>, fillcolor="#e58139ff"] ;
275 -> 277 ;
278 [label=<saving ACC_OPEN_DATE' &le; 20045271.0<br/>gini = 0.397<br/>samples = 11<br/>value = [8, 3]>, fillcolor="#e581399f"] ;
274 -> 278 ;
279 [label=<gini = 0.0<br/>samples = 6<br/>value = [6, 0]>, fillcolor="#e58139ff"] ;
278 -> 279 ;
280 [label=<gini = 0.48<br/>samples = 5<br/>value = [2, 3]>, fillcolor="#399de555"] ;
278 -> 280 ;
281 [label=<gini = 0.444<br/>samples = 3<br/>value = [1, 2]>, fillcolor="#399de57f"] ;
273 -> 281 ;
282 [label=<AGE &le; 52.0<br/>gini = 0.289<br/>samples = 40<br/>value = [33, 7]>, fillcolor="#e58139c9"] ;
272 -> 282 ;
283 [label=<AGE &le; 37.5<br/>gini = 0.175<br/>samples = 31<br/>value = [28, 3]>, fillcolor="#e58139e4"] ;
282 -> 283 ;
284 [label=<AGE &le; 35.5<br/>gini = 0.298<br/>samples = 11<br/>value = [9, 2]>, fillcolor="#e58139c6"] ;
283 -> 284 ;
285 [label=<gini = 0.0<br/>samples = 4<br/>value = [4, 0]>, fillcolor="#e58139ff"] ;
284 -> 285 ;
286 [label=<gini = 0.408<br/>samples = 7<br/>value = [5, 2]>, fillcolor="#e5813999"] ;
284 -> 286 ;
287 [label=<NO_OF_DEPENDENTS &le; 0.5<br/>gini = 0.095<br/>samples = 20<br/>value = [19, 1]>, fillcolor="#e58139f2"] ;
283 -> 287 ;
288 [label=<gini = 0.375<br/>samples = 4<br/>value = [3, 1]>, fillcolor="#e58139aa"] ;
287 -> 288 ;
289 [label=<gini = 0.0<br/>samples = 16<br/>value = [16, 0]>, fillcolor="#e58139ff"] ;
287 -> 289 ;
290 [label=<gini = 0.494<br/>samples = 9<br/>value = [5, 4]>, fillcolor="#e5813933"] ;
282 -> 290 ;
291 [label=<BOOKDUES_FOR_NPA/ NORMAL_AS_ON_310618' &le; 5724.0<br/>gini = 0.153<br/>samples = 36<br/>value = [33, 3]>, fillcolor="#e58139e8"] ;
269 -> 291 ;
292 [label=<GENDER &le; 0.5<br/>gini = 0.111<br/>samples = 34<br/>value = [32, 2]>, fillcolor="#e58139ef"] ;
291 -> 292 ;
293 [label=<gini = 0.0<br/>samples = 4<br/>value = [4, 0]>, fillcolor="#e58139ff"] ;
292 -> 293 ;
294 [label=<Salary &le; 7.0<br/>gini = 0.124<br/>samples = 30<br/>value = [28, 2]>, fillcolor="#e58139ed"] ;
292 -> 294 ;
295 [label=<AGE &le; 49.5<br/>gini = 0.137<br/>samples = 27<br/>value = [25, 2]>, fillcolor="#e58139eb"] ;
294 -> 295 ;
296 [label=<NO_OF_DEPENDENTS &le; 1.5<br/>gini = 0.083<br/>samples = 23<br/>value = [22, 1]>, fillcolor="#e58139f3"] ;
295 -> 296 ;
297 [label=<gini = 0.0<br/>samples = 9<br/>value = [9, 0]>, fillcolor="#e58139ff"] ;
296 -> 297 ;
298 [label=<OCCUPATION &le; 6.5<br/>gini = 0.133<br/>samples = 14<br/>value = [13, 1]>, fillcolor="#e58139eb"] ;
296 -> 298 ;
299 [label=<gini = 0.0<br/>samples = 2<br/>value = [2, 0]>, fillcolor="#e58139ff"] ;
298 -> 299 ;
300 [label=<NO_OF_DEPENDENTS &le; 2.5<br/>gini = 0.153<br/>samples = 12<br/>value = [11, 1]>, fillcolor="#e58139e8"] ;
298 -> 300 ;
301 [label=<gini = 0.375<br/>samples = 4<br/>value = [3, 1]>, fillcolor="#e58139aa"] ;
300 -> 301 ;
302 [label=<gini = 0.0<br/>samples = 8<br/>value = [8, 0]>, fillcolor="#e58139ff"] ;
300 -> 302 ;
303 [label=<gini = 0.375<br/>samples = 4<br/>value = [3, 1]>, fillcolor="#e58139aa"] ;
295 -> 303 ;
304 [label=<gini = 0.0<br/>samples = 3<br/>value = [3, 0]>, fillcolor="#e58139ff"] ;
294 -> 304 ;
305 [label=<gini = 0.5<br/>samples = 2<br/>value = [1, 1]>, fillcolor="#e5813900"] ;
291 -> 305 ;
306 [label=<OCCUPATION &le; 9.0<br/>gini = 0.492<br/>samples = 32<br/>value = [14, 18]>, fillcolor="#399de539"] ;
268 -> 306 ;
307 [label=<saving ACC_OPEN_DATE' &le; 20101010.0<br/>gini = 0.499<br/>samples = 29<br/>value = [14, 15]>, fillcolor="#399de511"] ;
306 -> 307 ;
308 [label=<saving ACC_OPEN_DATE' &le; 20090806.0<br/>gini = 0.476<br/>samples = 23<br/>value = [9, 14]>, fillcolor="#399de55b"] ;
307 -> 308 ;
309 [label=<PROFESSION &le; 2.5<br/>gini = 0.5<br/>samples = 18<br/>value = [9, 9]>, fillcolor="#e5813900"] ;
308 -> 309 ;
310 [label=<gini = 0.5<br/>samples = 2<br/>value = [1, 1]>, fillcolor="#e5813900"] ;
309 -> 310 ;
311 [label=<NO_OF_DEPENDENTS &le; 0.5<br/>gini = 0.5<br/>samples = 16<br/>value = [8, 8]>, fillcolor="#e5813900"] ;
309 -> 311 ;
312 [label=<gini = 0.49<br/>samples = 7<br/>value = [4, 3]>, fillcolor="#e5813940"] ;
311 -> 312 ;
313 [label=<gini = 0.494<br/>samples = 9<br/>value = [4, 5]>, fillcolor="#399de533"] ;
311 -> 313 ;
314 [label=<gini = 0.0<br/>samples = 5<br/>value = [0, 5]>, fillcolor="#399de5ff"] ;
308 -> 314 ;
315 [label=<gini = 0.278<br/>samples = 6<br/>value = [5, 1]>, fillcolor="#e58139cc"] ;
307 -> 315 ;
316 [label=<gini = 0.0<br/>samples = 3<br/>value = [0, 3]>, fillcolor="#399de5ff"] ;
306 -> 316 ;
317 [label=<BOOKDUES_FOR_NPA/ NORMAL_AS_ON_310618' &le; 5802.76<br/>gini = 0.245<br/>samples = 28<br/>value = [24, 4]>, fillcolor="#e58139d4"] ;
267 -> 317 ;
318 [label=<MARRIEDARITAL_SINGLETATUSINGLE &le; 1.5<br/>gini = 0.142<br/>samples = 26<br/>value = [24, 2]>, fillcolor="#e58139ea"] ;
317 -> 318 ;
319 [label=<BOOKDUES_FOR_NPA/ NORMAL_AS_ON_310618' &le; 107.49<br/>gini = 0.26<br/>samples = 13<br/>value = [11, 2]>, fillcolor="#e58139d1"] ;
318 -> 319 ;
320 [label=<AGE &le; 35.5<br/>gini = 0.18<br/>samples = 10<br/>value = [9, 1]>, fillcolor="#e58139e3"] ;
319 -> 320 ;
321 [label=<gini = 0.5<br/>samples = 2<br/>value = [1, 1]>, fillcolor="#e5813900"] ;
320 -> 321 ;
322 [label=<gini = 0.0<br/>samples = 8<br/>value = [8, 0]>, fillcolor="#e58139ff"] ;
320 -> 322 ;
323 [label=<gini = 0.444<br/>samples = 3<br/>value = [2, 1]>, fillcolor="#e581397f"] ;
319 -> 323 ;
324 [label=<gini = 0.0<br/>samples = 13<br/>value = [13, 0]>, fillcolor="#e58139ff"] ;
318 -> 324 ;
325 [label=<gini = 0.0<br/>samples = 2<br/>value = [0, 2]>, fillcolor="#399de5ff"] ;
317 -> 325 ;
326 [label=<gini = 0.444<br/>samples = 3<br/>value = [1, 2]>, fillcolor="#399de57f"] ;
214 -> 326 ;
327 [label=<PROFESSION &le; 9.0<br/>gini = 0.18<br/>samples = 100<br/>value = [90, 10]>, fillcolor="#e58139e3"] ;
213 -> 327 ;
328 [label=<BOOKDUES_FOR_NPA/ NORMAL_AS_ON_310618' &le; 2857.37<br/>gini = 0.252<br/>samples = 27<br/>value = [23, 4]>, fillcolor="#e58139d3"] ;
327 -> 328 ;
329 [label=<gini = 0.0<br/>samples = 18<br/>value = [18, 0]>, fillcolor="#e58139ff"] ;
328 -> 329 ;
330 [label=<gini = 0.494<br/>samples = 9<br/>value = [5, 4]>, fillcolor="#e5813933"] ;
328 -> 330 ;
331 [label=<PHOTO_NON_PHOTOFLG &le; 1.0<br/>gini = 0.151<br/>samples = 73<br/>value = [67, 6]>, fillcolor="#e58139e8"] ;
327 -> 331 ;
332 [label=<BRANCH STATUS' &le; 1.5<br/>gini = 0.081<br/>samples = 47<br/>value = [45, 2]>, fillcolor="#e58139f4"] ;
331 -> 332 ;
333 [label=<gini = 0.0<br/>samples = 17<br/>value = [17, 0]>, fillcolor="#e58139ff"] ;
332 -> 333 ;
334 [label=<MARRIEDARITAL_SINGLETATUSINGLE &le; 1.5<br/>gini = 0.124<br/>samples = 30<br/>value = [28, 2]>, fillcolor="#e58139ed"] ;
332 -> 334 ;
335 [label=<NO_OF_DEPENDENTS &le; 0.5<br/>gini = 0.1<br/>samples = 19<br/>value = [18, 1]>, fillcolor="#e58139f1"] ;
334 -> 335 ;
336 [label=<gini = 0.32<br/>samples = 5<br/>value = [4, 1]>, fillcolor="#e58139bf"] ;
335 -> 336 ;
337 [label=<gini = 0.0<br/>samples = 14<br/>value = [14, 0]>, fillcolor="#e58139ff"] ;
335 -> 337 ;
338 [label=<NO_OF_DEPENDENTS &le; 0.5<br/>gini = 0.165<br/>samples = 11<br/>value = [10, 1]>, fillcolor="#e58139e6"] ;
334 -> 338 ;
339 [label=<gini = 0.444<br/>samples = 3<br/>value = [2, 1]>, fillcolor="#e581397f"] ;
338 -> 339 ;
340 [label=<gini = 0.0<br/>samples = 8<br/>value = [8, 0]>, fillcolor="#e58139ff"] ;
338 -> 340 ;
341 [label=<BOOKDUES_FOR_NPA/ NORMAL_AS_ON_310618' &le; 9981.15<br/>gini = 0.26<br/>samples = 26<br/>value = [22, 4]>, fillcolor="#e58139d1"] ;
331 -> 341 ;
342 [label=<saving ACC_OPEN_DATE' &le; 20060563.0<br/>gini = 0.159<br/>samples = 23<br/>value = [21, 2]>, fillcolor="#e58139e7"] ;
341 -> 342 ;
343 [label=<gini = 0.0<br/>samples = 10<br/>value = [10, 0]>, fillcolor="#e58139ff"] ;
342 -> 343 ;
344 [label=<AGE &le; 41.0<br/>gini = 0.26<br/>samples = 13<br/>value = [11, 2]>, fillcolor="#e58139d1"] ;
342 -> 344 ;
345 [label=<gini = 0.0<br/>samples = 9<br/>value = [9, 0]>, fillcolor="#e58139ff"] ;
344 -> 345 ;
346 [label=<gini = 0.5<br/>samples = 4<br/>value = [2, 2]>, fillcolor="#e5813900"] ;
344 -> 346 ;
347 [label=<gini = 0.444<br/>samples = 3<br/>value = [1, 2]>, fillcolor="#399de57f"] ;
341 -> 347 ;
348 [label=<gini = 0.0<br/>samples = 49<br/>value = [49, 0]>, fillcolor="#e58139ff"] ;
212 -> 348 ;
349 [label=<AUTO_STATUS &le; 2.5<br/>gini = 0.369<br/>samples = 1075<br/>value = [813, 262]>, fillcolor="#e58139ad"] ;
211 -> 349 ;
350 [label=<BRANCH STATUS' &le; 0.5<br/>gini = 0.381<br/>samples = 1025<br/>value = [763, 262]>, fillcolor="#e58139a7"] ;
349 -> 350 ;
351 [label=<BOOKDUES_FOR_NPA/ NORMAL_AS_ON_310618' &le; 3225.78<br/>gini = 0.427<br/>samples = 531<br/>value = [367, 164]>, fillcolor="#e581398d"] ;
350 -> 351 ;
352 [label=<NO_OF_DEPENDENTS &le; 0.5<br/>gini = 0.231<br/>samples = 315<br/>value = [273, 42]>, fillcolor="#e58139d8"] ;
351 -> 352 ;
353 [label=<MBS &le; 0.5<br/>gini = 0.204<br/>samples = 104<br/>value = [92, 12]>, fillcolor="#e58139de"] ;
352 -> 353 ;
354 [label=<BOOKDUES_FOR_NPA/ NORMAL_AS_ON_310618' &le; 1732.93<br/>gini = 0.325<br/>samples = 44<br/>value = [35, 9]>, fillcolor="#e58139bd"] ;
353 -> 354 ;
355 [label=<AGE &le; 31.5<br/>gini = 0.308<br/>samples = 42<br/>value = [34, 8]>, fillcolor="#e58139c3"] ;
354 -> 355 ;
356 [label=<BOOKDUES_FOR_NPA/ NORMAL_AS_ON_310618' &le; 89.5<br/>gini = 0.415<br/>samples = 17<br/>value = [12, 5]>, fillcolor="#e5813995"] ;
355 -> 356 ;
357 [label=<GENDER &le; 0.5<br/>gini = 0.444<br/>samples = 15<br/>value = [10, 5]>, fillcolor="#e581397f"] ;
356 -> 357 ;
358 [label=<gini = 0.5<br/>samples = 2<br/>value = [1, 1]>, fillcolor="#e5813900"] ;
357 -> 358 ;
359 [label=<saving ACC_OPEN_DATE' &le; 20120358.0<br/>gini = 0.426<br/>samples = 13<br/>value = [9, 4]>, fillcolor="#e581398e"] ;
357 -> 359 ;
360 [label=<PHOTO_NON_PHOTOFLG &le; 1.0<br/>gini = 0.375<br/>samples = 12<br/>value = [9, 3]>, fillcolor="#e58139aa"] ;
359 -> 360 ;
361 [label=<gini = 0.375<br/>samples = 8<br/>value = [6, 2]>, fillcolor="#e58139aa"] ;
360 -> 361 ;
362 [label=<gini = 0.375<br/>samples = 4<br/>value = [3, 1]>, fillcolor="#e58139aa"] ;
360 -> 362 ;
363 [label=<gini = 0.0<br/>samples = 1<br/>value = [0, 1]>, fillcolor="#399de5ff"] ;
359 -> 363 ;
364 [label=<gini = 0.0<br/>samples = 2<br/>value = [2, 0]>, fillcolor="#e58139ff"] ;
356 -> 364 ;
365 [label=<BOOKDUES_FOR_NPA/ NORMAL_AS_ON_310618' &le; 123.56<br/>gini = 0.211<br/>samples = 25<br/>value = [22, 3]>, fillcolor="#e58139dc"] ;
355 -> 365 ;
366 [label=<saving ACC_OPEN_DATE' &le; 20090270.0<br/>gini = 0.266<br/>samples = 19<br/>value = [16, 3]>, fillcolor="#e58139cf"] ;
365 -> 366 ;
367 [label=<gini = 0.0<br/>samples = 9<br/>value = [9, 0]>, fillcolor="#e58139ff"] ;
366 -> 367 ;
368 [label=<Salary &le; 7.0<br/>gini = 0.42<br/>samples = 10<br/>value = [7, 3]>, fillcolor="#e5813992"] ;
366 -> 368 ;
369 [label=<gini = 0.49<br/>samples = 7<br/>value = [4, 3]>, fillcolor="#e5813940"] ;
368 -> 369 ;
370 [label=<gini = 0.0<br/>samples = 3<br/>value = [3, 0]>, fillcolor="#e58139ff"] ;
368 -> 370 ;
371 [label=<gini = 0.0<br/>samples = 6<br/>value = [6, 0]>, fillcolor="#e58139ff"] ;
365 -> 371 ;
372 [label=<gini = 0.5<br/>samples = 2<br/>value = [1, 1]>, fillcolor="#e5813900"] ;
354 -> 372 ;
373 [label=<BOOKDUES_FOR_NPA/ NORMAL_AS_ON_310618' &le; 2.56<br/>gini = 0.095<br/>samples = 60<br/>value = [57, 3]>, fillcolor="#e58139f2"] ;
353 -> 373 ;
374 [label=<AGE &le; 33.5<br/>gini = 0.038<br/>samples = 52<br/>value = [51, 1]>, fillcolor="#e58139fa"] ;
373 -> 374 ;
375 [label=<gini = 0.0<br/>samples = 27<br/>value = [27, 0]>, fillcolor="#e58139ff"] ;
374 -> 375 ;
376 [label=<SPOUSE WORKING' &le; 1.5<br/>gini = 0.077<br/>samples = 25<br/>value = [24, 1]>, fillcolor="#e58139f4"] ;
374 -> 376 ;
377 [label=<saving ACC_OPEN_DATE' &le; 20080666.0<br/>gini = 0.133<br/>samples = 14<br/>value = [13, 1]>, fillcolor="#e58139eb"] ;
376 -> 377 ;
378 [label=<gini = 0.375<br/>samples = 4<br/>value = [3, 1]>, fillcolor="#e58139aa"] ;
377 -> 378 ;
379 [label=<gini = 0.0<br/>samples = 10<br/>value = [10, 0]>, fillcolor="#e58139ff"] ;
377 -> 379 ;
380 [label=<gini = 0.0<br/>samples = 11<br/>value = [11, 0]>, fillcolor="#e58139ff"] ;
376 -> 380 ;
381 [label=<gini = 0.375<br/>samples = 8<br/>value = [6, 2]>, fillcolor="#e58139aa"] ;
373 -> 381 ;
382 [label=<BOOKDUES_FOR_NPA/ NORMAL_AS_ON_310618' &le; -952.675<br/>gini = 0.244<br/>samples = 211<br/>value = [181, 30]>, fillcolor="#e58139d5"] ;
352 -> 382 ;
383 [label=<gini = 0.0<br/>samples = 1<br/>value = [0, 1]>, fillcolor="#399de5ff"] ;
382 -> 383 ;
384 [label=<saving ACC_OPEN_DATE' &le; 20060705.0<br/>gini = 0.238<br/>samples = 210<br/>value = [181, 29]>, fillcolor="#e58139d6"] ;
382 -> 384 ;
385 [label=<gini = 0.0<br/>samples = 46<br/>value = [46, 0]>, fillcolor="#e58139ff"] ;
384 -> 385 ;
386 [label=<MARRIEDARITAL_SINGLETATUSINGLE &le; 1.5<br/>gini = 0.291<br/>samples = 164<br/>value = [135, 29]>, fillcolor="#e58139c8"] ;
384 -> 386 ;
387 [label=<BOOKDUES_FOR_NPA/ NORMAL_AS_ON_310618' &le; 1315.06<br/>gini = 0.275<br/>samples = 85<br/>value = [71, 14]>, fillcolor="#e58139cd"] ;
386 -> 387 ;
388 [label=<MBS &le; 0.5<br/>gini = 0.304<br/>samples = 75<br/>value = [61, 14]>, fillcolor="#e58139c4"] ;
387 -> 388 ;
389 [label=<NO_OF_DEPENDENTS &le; 2.5<br/>gini = 0.346<br/>samples = 36<br/>value = [28, 8]>, fillcolor="#e58139b6"] ;
388 -> 389 ;
390 [label=<NO_OF_DEPENDENTS &le; 1.5<br/>gini = 0.408<br/>samples = 21<br/>value = [15, 6]>, fillcolor="#e5813999"] ;
389 -> 390 ;
391 [label=<BOOKDUES_FOR_NPA/ NORMAL_AS_ON_310618' &le; 624.5<br/>gini = 0.298<br/>samples = 11<br/>value = [9, 2]>, fillcolor="#e58139c6"] ;
390 -> 391 ;
392 [label=<PHOTO_NON_PHOTOFLG &le; 1.0<br/>gini = 0.32<br/>samples = 10<br/>value = [8, 2]>, fillcolor="#e58139bf"] ;
391 -> 392 ;
393 [label=<gini = 0.0<br/>samples = 4<br/>value = [4, 0]>, fillcolor="#e58139ff"] ;
392 -> 393 ;
394 [label=<gini = 0.444<br/>samples = 6<br/>value = [4, 2]>, fillcolor="#e581397f"] ;
392 -> 394 ;
395 [label=<gini = 0.0<br/>samples = 1<br/>value = [1, 0]>, fillcolor="#e58139ff"] ;
391 -> 395 ;
396 [label=<saving ACC_OPEN_DATE' &le; 20101170.0<br/>gini = 0.48<br/>samples = 10<br/>value = [6, 4]>, fillcolor="#e5813955"] ;
390 -> 396 ;
397 [label=<gini = 0.444<br/>samples = 6<br/>value = [2, 4]>, fillcolor="#399de57f"] ;
396 -> 397 ;
398 [label=<gini = 0.0<br/>samples = 4<br/>value = [4, 0]>, fillcolor="#e58139ff"] ;
396 -> 398 ;
399 [label=<GENDER &le; 0.5<br/>gini = 0.231<br/>samples = 15<br/>value = [13, 2]>, fillcolor="#e58139d8"] ;
389 -> 399 ;
400 [label=<gini = 0.0<br/>samples = 1<br/>value = [0, 1]>, fillcolor="#399de5ff"] ;
399 -> 400 ;
401 [label=<BOOKDUES_FOR_NPA/ NORMAL_AS_ON_310618' &le; 386.0<br/>gini = 0.133<br/>samples = 14<br/>value = [13, 1]>, fillcolor="#e58139eb"] ;
399 -> 401 ;
402 [label=<PHOTO_NON_PHOTOFLG &le; 1.0<br/>gini = 0.142<br/>samples = 13<br/>value = [12, 1]>, fillcolor="#e58139ea"] ;
401 -> 402 ;
403 [label=<gini = 0.0<br/>samples = 7<br/>value = [7, 0]>, fillcolor="#e58139ff"] ;
402 -> 403 ;
404 [label=<gini = 0.278<br/>samples = 6<br/>value = [5, 1]>, fillcolor="#e58139cc"] ;
402 -> 404 ;
405 [label=<gini = 0.0<br/>samples = 1<br/>value = [1, 0]>, fillcolor="#e58139ff"] ;
401 -> 405 ;
406 [label=<NO_OF_DEPENDENTS &le; 2.5<br/>gini = 0.26<br/>samples = 39<br/>value = [33, 6]>, fillcolor="#e58139d1"] ;
388 -> 406 ;
407 [label=<saving ACC_OPEN_DATE' &le; 20115662.0<br/>gini = 0.204<br/>samples = 26<br/>value = [23, 3]>, fillcolor="#e58139de"] ;
406 -> 407 ;
408 [label=<BOOKDUES_FOR_NPA/ NORMAL_AS_ON_310618' &le; 2.535<br/>gini = 0.147<br/>samples = 25<br/>value = [23, 2]>, fillcolor="#e58139e9"] ;
407 -> 408 ;
409 [label=<saving ACC_OPEN_DATE' &le; 20085902.0<br/>gini = 0.087<br/>samples = 22<br/>value = [21, 1]>, fillcolor="#e58139f3"] ;
408 -> 409 ;
410 [label=<gini = 0.278<br/>samples = 6<br/>value = [5, 1]>, fillcolor="#e58139cc"] ;
409 -> 410 ;
411 [label=<gini = 0.0<br/>samples = 16<br/>value = [16, 0]>, fillcolor="#e58139ff"] ;
409 -> 411 ;
412 [label=<gini = 0.444<br/>samples = 3<br/>value = [2, 1]>, fillcolor="#e581397f"] ;
408 -> 412 ;
413 [label=<gini = 0.0<br/>samples = 1<br/>value = [0, 1]>, fillcolor="#399de5ff"] ;
407 -> 413 ;
414 [label=<AGE &le; 32.5<br/>gini = 0.355<br/>samples = 13<br/>value = [10, 3]>, fillcolor="#e58139b3"] ;
406 -> 414 ;
415 [label=<gini = 0.0<br/>samples = 3<br/>value = [3, 0]>, fillcolor="#e58139ff"] ;
414 -> 415 ;
416 [label=<NO_OF_DEPENDENTS &le; 3.5<br/>gini = 0.42<br/>samples = 10<br/>value = [7, 3]>, fillcolor="#e5813992"] ;
414 -> 416 ;
417 [label=<gini = 0.375<br/>samples = 8<br/>value = [6, 2]>, fillcolor="#e58139aa"] ;
416 -> 417 ;
418 [label=<gini = 0.5<br/>samples = 2<br/>value = [1, 1]>, fillcolor="#e5813900"] ;
416 -> 418 ;
419 [label=<gini = 0.0<br/>samples = 10<br/>value = [10, 0]>, fillcolor="#e58139ff"] ;
387 -> 419 ;
420 [label=<MBS &le; 0.5<br/>gini = 0.308<br/>samples = 79<br/>value = [64, 15]>, fillcolor="#e58139c3"] ;
386 -> 420 ;
421 [label=<LOAN ' &le; 1.0<br/>gini = 0.418<br/>samples = 37<br/>value = [26, 11]>, fillcolor="#e5813993"] ;
420 -> 421 ;
422 [label=<saving ACC_OPEN_DATE' &le; 20111011.0<br/>gini = 0.415<br/>samples = 34<br/>value = [24, 10]>, fillcolor="#e5813995"] ;
421 -> 422 ;
423 [label=<saving ACC_OPEN_DATE' &le; 20110626.0<br/>gini = 0.452<br/>samples = 29<br/>value = [19, 10]>, fillcolor="#e5813979"] ;
422 -> 423 ;
424 [label=<Salary &le; 3.0<br/>gini = 0.417<br/>samples = 27<br/>value = [19, 8]>, fillcolor="#e5813994"] ;
423 -> 424 ;
425 [label=<gini = 0.5<br/>samples = 8<br/>value = [4, 4]>, fillcolor="#e5813900"] ;
424 -> 425 ;
426 [label=<Salary &le; 7.0<br/>gini = 0.332<br/>samples = 19<br/>value = [15, 4]>, fillcolor="#e58139bb"] ;
424 -> 426 ;
427 [label=<BOOKDUES_FOR_NPA/ NORMAL_AS_ON_310618' &le; 812.455<br/>gini = 0.391<br/>samples = 15<br/>value = [11, 4]>, fillcolor="#e58139a2"] ;
426 -> 427 ;
428 [label=<saving ACC_OPEN_DATE' &le; 20085763.0<br/>gini = 0.337<br/>samples = 14<br/>value = [11, 3]>, fillcolor="#e58139b9"] ;
427 -> 428 ;
429 [label=<gini = 0.0<br/>samples = 5<br/>value = [5, 0]>, fillcolor="#e58139ff"] ;
428 -> 429 ;
430 [label=<gini = 0.444<br/>samples = 9<br/>value = [6, 3]>, fillcolor="#e581397f"] ;
428 -> 430 ;
431 [label=<gini = 0.0<br/>samples = 1<br/>value = [0, 1]>, fillcolor="#399de5ff"] ;
427 -> 431 ;
432 [label=<gini = 0.0<br/>samples = 4<br/>value = [4, 0]>, fillcolor="#e58139ff"] ;
426 -> 432 ;
433 [label=<gini = 0.0<br/>samples = 2<br/>value = [0, 2]>, fillcolor="#399de5ff"] ;
423 -> 433 ;
434 [label=<gini = 0.0<br/>samples = 5<br/>value = [5, 0]>, fillcolor="#e58139ff"] ;
422 -> 434 ;
435 [label=<gini = 0.444<br/>samples = 3<br/>value = [2, 1]>, fillcolor="#e581397f"] ;
421 -> 435 ;
436 [label=<PHOTO_NON_PHOTOFLG &le; 1.0<br/>gini = 0.172<br/>samples = 42<br/>value = [38, 4]>, fillcolor="#e58139e4"] ;
420 -> 436 ;
437 [label=<AGE &le; 46.5<br/>gini = 0.211<br/>samples = 25<br/>value = [22, 3]>, fillcolor="#e58139dc"] ;
436 -> 437 ;
438 [label=<NO_OF_DEPENDENTS &le; 3.5<br/>gini = 0.153<br/>samples = 24<br/>value = [22, 2]>, fillcolor="#e58139e8"] ;
437 -> 438 ;
439 [label=<AGE &le; 32.5<br/>gini = 0.091<br/>samples = 21<br/>value = [20, 1]>, fillcolor="#e58139f2"] ;
438 -> 439 ;
440 [label=<GENDER &le; 0.5<br/>gini = 0.165<br/>samples = 11<br/>value = [10, 1]>, fillcolor="#e58139e6"] ;
439 -> 440 ;
441 [label=<gini = 0.5<br/>samples = 2<br/>value = [1, 1]>, fillcolor="#e5813900"] ;
440 -> 441 ;
442 [label=<gini = 0.0<br/>samples = 9<br/>value = [9, 0]>, fillcolor="#e58139ff"] ;
440 -> 442 ;
443 [label=<gini = 0.0<br/>samples = 10<br/>value = [10, 0]>, fillcolor="#e58139ff"] ;
439 -> 443 ;
444 [label=<gini = 0.444<br/>samples = 3<br/>value = [2, 1]>, fillcolor="#e581397f"] ;
438 -> 444 ;
445 [label=<gini = 0.0<br/>samples = 1<br/>value = [0, 1]>, fillcolor="#399de5ff"] ;
437 -> 445 ;
446 [label=<Salary &le; 3.0<br/>gini = 0.111<br/>samples = 17<br/>value = [16, 1]>, fillcolor="#e58139ef"] ;
436 -> 446 ;
447 [label=<gini = 0.278<br/>samples = 6<br/>value = [5, 1]>, fillcolor="#e58139cc"] ;
446 -> 447 ;
448 [label=<gini = 0.0<br/>samples = 11<br/>value = [11, 0]>, fillcolor="#e58139ff"] ;
446 -> 448 ;
449 [label=<BOOKDUES_FOR_NPA/ NORMAL_AS_ON_310618' &le; 29968.085<br/>gini = 0.492<br/>samples = 216<br/>value = [94, 122]>, fillcolor="#399de53b"] ;
351 -> 449 ;
450 [label=<Salary &le; 7.0<br/>gini = 0.472<br/>samples = 191<br/>value = [73, 118]>, fillcolor="#399de561"] ;
449 -> 450 ;
451 [label=<AGE &le; 57.0<br/>gini = 0.487<br/>samples = 153<br/>value = [64, 89]>, fillcolor="#399de548"] ;
450 -> 451 ;
452 [label=<NO_OF_DEPENDENTS &le; 2.5<br/>gini = 0.489<br/>samples = 150<br/>value = [64, 86]>, fillcolor="#399de541"] ;
451 -> 452 ;
453 [label=<MARRIEDARITAL_SINGLETATUSINGLE &le; 1.5<br/>gini = 0.491<br/>samples = 122<br/>value = [53, 69]>, fillcolor="#399de53b"] ;
452 -> 453 ;
454 [label=<Salary &le; 3.0<br/>gini = 0.498<br/>samples = 43<br/>value = [20, 23]>, fillcolor="#399de521"] ;
453 -> 454 ;
455 [label=<MBS &le; 0.5<br/>gini = 0.444<br/>samples = 24<br/>value = [8, 16]>, fillcolor="#399de57f"] ;
454 -> 455 ;
456 [label=<gini = 0.5<br/>samples = 8<br/>value = [4, 4]>, fillcolor="#e5813900"] ;
455 -> 456 ;
457 [label=<saving ACC_OPEN_DATE' &le; 20035815.0<br/>gini = 0.375<br/>samples = 16<br/>value = [4, 12]>, fillcolor="#399de5aa"] ;
455 -> 457 ;
458 [label=<gini = 0.0<br/>samples = 1<br/>value = [1, 0]>, fillcolor="#e58139ff"] ;
457 -> 458 ;
459 [label=<AGE &le; 53.5<br/>gini = 0.32<br/>samples = 15<br/>value = [3, 12]>, fillcolor="#399de5bf"] ;
457 -> 459 ;
460 [label=<PHOTO_NON_PHOTOFLG &le; 1.0<br/>gini = 0.245<br/>samples = 14<br/>value = [2, 12]>, fillcolor="#399de5d4"] ;
459 -> 460 ;
461 [label=<gini = 0.32<br/>samples = 5<br/>value = [1, 4]>, fillcolor="#399de5bf"] ;
460 -> 461 ;
462 [label=<gini = 0.198<br/>samples = 9<br/>value = [1, 8]>, fillcolor="#399de5df"] ;
460 -> 462 ;
463 [label=<gini = 0.0<br/>samples = 1<br/>value = [1, 0]>, fillcolor="#e58139ff"] ;
459 -> 463 ;
464 [label=<AGE &le; 38.5<br/>gini = 0.465<br/>samples = 19<br/>value = [12, 7]>, fillcolor="#e581396a"] ;
454 -> 464 ;
465 [label=<saving ACC_OPEN_DATE' &le; 20095865.0<br/>gini = 0.32<br/>samples = 10<br/>value = [8, 2]>, fillcolor="#e58139bf"] ;
464 -> 465 ;
466 [label=<gini = 0.0<br/>samples = 4<br/>value = [4, 0]>, fillcolor="#e58139ff"] ;
465 -> 466 ;
467 [label=<gini = 0.444<br/>samples = 6<br/>value = [4, 2]>, fillcolor="#e581397f"] ;
465 -> 467 ;
468 [label=<gini = 0.494<br/>samples = 9<br/>value = [4, 5]>, fillcolor="#399de533"] ;
464 -> 468 ;
469 [label=<LOAN ' &le; 1.0<br/>gini = 0.486<br/>samples = 79<br/>value = [33, 46]>, fillcolor="#399de548"] ;
453 -> 469 ;
470 [label=<saving ACC_OPEN_DATE' &le; 20110916.0<br/>gini = 0.47<br/>samples = 74<br/>value = [28, 46]>, fillcolor="#399de564"] ;
469 -> 470 ;
471 [label=<NO_OF_DEPENDENTS &le; 1.5<br/>gini = 0.43<br/>samples = 64<br/>value = [20, 44]>, fillcolor="#399de58b"] ;
470 -> 471 ;
472 [label=<GENDER &le; 0.5<br/>gini = 0.454<br/>samples = 43<br/>value = [15, 28]>, fillcolor="#399de576"] ;
471 -> 472 ;
473 [label=<gini = 0.444<br/>samples = 3<br/>value = [1, 2]>, fillcolor="#399de57f"] ;
472 -> 473 ;
474 [label=<MBS &le; 0.5<br/>gini = 0.455<br/>samples = 40<br/>value = [14, 26]>, fillcolor="#399de576"] ;
472 -> 474 ;
475 [label=<NO_OF_DEPENDENTS &le; 0.5<br/>gini = 0.208<br/>samples = 17<br/>value = [2, 15]>, fillcolor="#399de5dd"] ;
474 -> 475 ;
476 [label=<BOOKDUES_FOR_NPA/ NORMAL_AS_ON_310618' &le; 9086.38<br/>gini = 0.298<br/>samples = 11<br/>value = [2, 9]>, fillcolor="#399de5c6"] ;
475 -> 476 ;
477 [label=<gini = 0.444<br/>samples = 3<br/>value = [1, 2]>, fillcolor="#399de57f"] ;
476 -> 477 ;
478 [label=<gini = 0.219<br/>samples = 8<br/>value = [1, 7]>, fillcolor="#399de5db"] ;
476 -> 478 ;
479 [label=<gini = 0.0<br/>samples = 6<br/>value = [0, 6]>, fillcolor="#399de5ff"] ;
475 -> 479 ;
480 [label=<BOOKDUES_FOR_NPA/ NORMAL_AS_ON_310618' &le; 11491.935<br/>gini = 0.499<br/>samples = 23<br/>value = [12, 11]>, fillcolor="#e5813915"] ;
474 -> 480 ;
481 [label=<NO_OF_DEPENDENTS &le; 0.5<br/>gini = 0.469<br/>samples = 16<br/>value = [6, 10]>, fillcolor="#399de566"] ;
480 -> 481 ;
482 [label=<Salary &le; 3.0<br/>gini = 0.496<br/>samples = 11<br/>value = [5, 6]>, fillcolor="#399de52a"] ;
481 -> 482 ;
483 [label=<gini = 0.0<br/>samples = 4<br/>value = [4, 0]>, fillcolor="#e58139ff"] ;
482 -> 483 ;
484 [label=<gini = 0.245<br/>samples = 7<br/>value = [1, 6]>, fillcolor="#399de5d4"] ;
482 -> 484 ;
485 [label=<gini = 0.32<br/>samples = 5<br/>value = [1, 4]>, fillcolor="#399de5bf"] ;
481 -> 485 ;
486 [label=<gini = 0.245<br/>samples = 7<br/>value = [6, 1]>, fillcolor="#e58139d4"] ;
480 -> 486 ;
487 [label=<saving ACC_OPEN_DATE' &le; 20065828.0<br/>gini = 0.363<br/>samples = 21<br/>value = [5, 16]>, fillcolor="#399de5af"] ;
471 -> 487 ;
488 [label=<gini = 0.0<br/>samples = 1<br/>value = [1, 0]>, fillcolor="#e58139ff"] ;
487 -> 488 ;
489 [label=<GENDER &le; 0.5<br/>gini = 0.32<br/>samples = 20<br/>value = [4, 16]>, fillcolor="#399de5bf"] ;
487 -> 489 ;
490 [label=<gini = 0.0<br/>samples = 2<br/>value = [0, 2]>, fillcolor="#399de5ff"] ;
489 -> 490 ;
491 [label=<BOOKDUES_FOR_NPA/ NORMAL_AS_ON_310618' &le; 18758.14<br/>gini = 0.346<br/>samples = 18<br/>value = [4, 14]>, fillcolor="#399de5b6"] ;
489 -> 491 ;
492 [label=<PHOTO_NON_PHOTOFLG &le; 1.0<br/>gini = 0.48<br/>samples = 10<br/>value = [4, 6]>, fillcolor="#399de555"] ;
491 -> 492 ;
493 [label=<gini = 0.49<br/>samples = 7<br/>value = [3, 4]>, fillcolor="#399de540"] ;
492 -> 493 ;
494 [label=<gini = 0.444<br/>samples = 3<br/>value = [1, 2]>, fillcolor="#399de57f"] ;
492 -> 494 ;
495 [label=<gini = 0.0<br/>samples = 8<br/>value = [0, 8]>, fillcolor="#399de5ff"] ;
491 -> 495 ;
496 [label=<AGE &le; 30.5<br/>gini = 0.32<br/>samples = 10<br/>value = [8, 2]>, fillcolor="#e58139bf"] ;
470 -> 496 ;
497 [label=<gini = 0.444<br/>samples = 3<br/>value = [1, 2]>, fillcolor="#399de57f"] ;
496 -> 497 ;
498 [label=<gini = 0.0<br/>samples = 7<br/>value = [7, 0]>, fillcolor="#e58139ff"] ;
496 -> 498 ;
499 [label=<gini = 0.0<br/>samples = 5<br/>value = [5, 0]>, fillcolor="#e58139ff"] ;
469 -> 499 ;
500 [label=<SPOUSE WORKING' &le; 1.5<br/>gini = 0.477<br/>samples = 28<br/>value = [11, 17]>, fillcolor="#399de55a"] ;
452 -> 500 ;
501 [label=<BOOKDUES_FOR_NPA/ NORMAL_AS_ON_310618' &le; 5100.16<br/>gini = 0.444<br/>samples = 15<br/>value = [5, 10]>, fillcolor="#399de57f"] ;
500 -> 501 ;
502 [label=<gini = 0.0<br/>samples = 1<br/>value = [1, 0]>, fillcolor="#e58139ff"] ;
501 -> 502 ;
503 [label=<saving ACC_OPEN_DATE' &le; 20095964.0<br/>gini = 0.408<br/>samples = 14<br/>value = [4, 10]>, fillcolor="#399de599"] ;
501 -> 503 ;
504 [label=<gini = 0.219<br/>samples = 8<br/>value = [1, 7]>, fillcolor="#399de5db"] ;
503 -> 504 ;
505 [label=<gini = 0.5<br/>samples = 6<br/>value = [3, 3]>, fillcolor="#e5813900"] ;
503 -> 505 ;
506 [label=<Salary &le; 3.0<br/>gini = 0.497<br/>samples = 13<br/>value = [6, 7]>, fillcolor="#399de524"] ;
500 -> 506 ;
507 [label=<gini = 0.408<br/>samples = 7<br/>value = [2, 5]>, fillcolor="#399de599"] ;
506 -> 507 ;
508 [label=<gini = 0.444<br/>samples = 6<br/>value = [4, 2]>, fillcolor="#e581397f"] ;
506 -> 508 ;
509 [label=<gini = 0.0<br/>samples = 3<br/>value = [0, 3]>, fillcolor="#399de5ff"] ;
451 -> 509 ;
510 [label=<MARRIEDARITAL_SINGLETATUSINGLE &le; 1.5<br/>gini = 0.361<br/>samples = 38<br/>value = [9, 29]>, fillcolor="#399de5b0"] ;
450 -> 510 ;
511 [label=<GENDER &le; 0.5<br/>gini = 0.498<br/>samples = 17<br/>value = [8, 9]>, fillcolor="#399de51c"] ;
510 -> 511 ;
512 [label=<gini = 0.0<br/>samples = 1<br/>value = [1, 0]>, fillcolor="#e58139ff"] ;
511 -> 512 ;
513 [label=<PHOTO_NON_PHOTOFLG &le; 1.0<br/>gini = 0.492<br/>samples = 16<br/>value = [7, 9]>, fillcolor="#399de539"] ;
511 -> 513 ;
514 [label=<gini = 0.444<br/>samples = 9<br/>value = [6, 3]>, fillcolor="#e581397f"] ;
513 -> 514 ;
515 [label=<gini = 0.245<br/>samples = 7<br/>value = [1, 6]>, fillcolor="#399de5d4"] ;
513 -> 515 ;
516 [label=<MBS &le; 0.5<br/>gini = 0.091<br/>samples = 21<br/>value = [1, 20]>, fillcolor="#399de5f2"] ;
510 -> 516 ;
517 [label=<GENDER &le; 0.5<br/>gini = 0.153<br/>samples = 12<br/>value = [1, 11]>, fillcolor="#399de5e8"] ;
516 -> 517 ;
518 [label=<gini = 0.0<br/>samples = 2<br/>value = [0, 2]>, fillcolor="#399de5ff"] ;
517 -> 518 ;
519 [label=<BOOKDUES_FOR_NPA/ NORMAL_AS_ON_310618' &le; 9568.47<br/>gini = 0.18<br/>samples = 10<br/>value = [1, 9]>, fillcolor="#399de5e3"] ;
517 -> 519 ;
520 [label=<gini = 0.0<br/>samples = 5<br/>value = [0, 5]>, fillcolor="#399de5ff"] ;
519 -> 520 ;
521 [label=<gini = 0.32<br/>samples = 5<br/>value = [1, 4]>, fillcolor="#399de5bf"] ;
519 -> 521 ;
522 [label=<gini = 0.0<br/>samples = 9<br/>value = [0, 9]>, fillcolor="#399de5ff"] ;
516 -> 522 ;
523 [label=<MBS &le; 0.5<br/>gini = 0.269<br/>samples = 25<br/>value = [21, 4]>, fillcolor="#e58139ce"] ;
449 -> 523 ;
524 [label=<GENDER &le; 0.5<br/>gini = 0.337<br/>samples = 14<br/>value = [11, 3]>, fillcolor="#e58139b9"] ;
523 -> 524 ;
525 [label=<gini = 0.444<br/>samples = 3<br/>value = [2, 1]>, fillcolor="#e581397f"] ;
524 -> 525 ;
526 [label=<MARRIEDARITAL_SINGLETATUSINGLE &le; 1.5<br/>gini = 0.298<br/>samples = 11<br/>value = [9, 2]>, fillcolor="#e58139c6"] ;
524 -> 526 ;
527 [label=<gini = 0.444<br/>samples = 6<br/>value = [4, 2]>, fillcolor="#e581397f"] ;
526 -> 527 ;
528 [label=<gini = 0.0<br/>samples = 5<br/>value = [5, 0]>, fillcolor="#e58139ff"] ;
526 -> 528 ;
529 [label=<AGE &le; 36.5<br/>gini = 0.165<br/>samples = 11<br/>value = [10, 1]>, fillcolor="#e58139e6"] ;
523 -> 529 ;
530 [label=<gini = 0.32<br/>samples = 5<br/>value = [4, 1]>, fillcolor="#e58139bf"] ;
529 -> 530 ;
531 [label=<gini = 0.0<br/>samples = 6<br/>value = [6, 0]>, fillcolor="#e58139ff"] ;
529 -> 531 ;
532 [label=<BOOKDUES_FOR_NPA/ NORMAL_AS_ON_310618' &le; 6446.34<br/>gini = 0.318<br/>samples = 494<br/>value = [396, 98]>, fillcolor="#e58139c0"] ;
350 -> 532 ;
533 [label=<saving ACC_OPEN_DATE' &le; 20090706.0<br/>gini = 0.198<br/>samples = 368<br/>value = [327, 41]>, fillcolor="#e58139df"] ;
532 -> 533 ;
534 [label=<BRANCH STATUS' &le; 2.5<br/>gini = 0.235<br/>samples = 191<br/>value = [165, 26]>, fillcolor="#e58139d7"] ;
533 -> 534 ;
535 [label=<Salary &le; 3.0<br/>gini = 0.147<br/>samples = 75<br/>value = [69, 6]>, fillcolor="#e58139e9"] ;
534 -> 535 ;
536 [label=<LOAN ' &le; 1.0<br/>gini = 0.219<br/>samples = 40<br/>value = [35, 5]>, fillcolor="#e58139db"] ;
535 -> 536 ;
537 [label=<SPOUSE WORKING' &le; 1.5<br/>gini = 0.271<br/>samples = 31<br/>value = [26, 5]>, fillcolor="#e58139ce"] ;
536 -> 537 ;
538 [label=<MBS &le; 0.5<br/>gini = 0.305<br/>samples = 16<br/>value = [13, 3]>, fillcolor="#e58139c4"] ;
537 -> 538 ;
539 [label=<gini = 0.198<br/>samples = 9<br/>value = [8, 1]>, fillcolor="#e58139df"] ;
538 -> 539 ;
540 [label=<gini = 0.408<br/>samples = 7<br/>value = [5, 2]>, fillcolor="#e5813999"] ;
538 -> 540 ;
541 [label=<BOOKDUES_FOR_NPA/ NORMAL_AS_ON_310618' &le; 0.47<br/>gini = 0.231<br/>samples = 15<br/>value = [13, 2]>, fillcolor="#e58139d8"] ;
537 -> 541 ;
542 [label=<saving ACC_OPEN_DATE' &le; 20080363.0<br/>gini = 0.142<br/>samples = 13<br/>value = [12, 1]>, fillcolor="#e58139ea"] ;
541 -> 542 ;
543 [label=<gini = 0.0<br/>samples = 8<br/>value = [8, 0]>, fillcolor="#e58139ff"] ;
542 -> 543 ;
544 [label=<gini = 0.32<br/>samples = 5<br/>value = [4, 1]>, fillcolor="#e58139bf"] ;
542 -> 544 ;
545 [label=<gini = 0.5<br/>samples = 2<br/>value = [1, 1]>, fillcolor="#e5813900"] ;
541 -> 545 ;
546 [label=<gini = 0.0<br/>samples = 9<br/>value = [9, 0]>, fillcolor="#e58139ff"] ;
536 -> 546 ;
547 [label=<AGE &le; 33.5<br/>gini = 0.056<br/>samples = 35<br/>value = [34, 1]>, fillcolor="#e58139f8"] ;
535 -> 547 ;
548 [label=<gini = 0.375<br/>samples = 4<br/>value = [3, 1]>, fillcolor="#e58139aa"] ;
547 -> 548 ;
549 [label=<gini = 0.0<br/>samples = 31<br/>value = [31, 0]>, fillcolor="#e58139ff"] ;
547 -> 549 ;
550 [label=<Salary &le; 7.0<br/>gini = 0.285<br/>samples = 116<br/>value = [96, 20]>, fillcolor="#e58139ca"] ;
534 -> 550 ;
551 [label=<SPOUSE WORKING' &le; 1.5<br/>gini = 0.249<br/>samples = 103<br/>value = [88, 15]>, fillcolor="#e58139d4"] ;
550 -> 551 ;
552 [label=<BOOKDUES_FOR_NPA/ NORMAL_AS_ON_310618' &le; 0.425<br/>gini = 0.301<br/>samples = 65<br/>value = [53, 12]>, fillcolor="#e58139c5"] ;
551 -> 552 ;
553 [label=<Salary &le; 3.0<br/>gini = 0.162<br/>samples = 45<br/>value = [41, 4]>, fillcolor="#e58139e6"] ;
552 -> 553 ;
554 [label=<NO_OF_DEPENDENTS &le; 0.5<br/>gini = 0.227<br/>samples = 23<br/>value = [20, 3]>, fillcolor="#e58139d9"] ;
553 -> 554 ;
555 [label=<gini = 0.48<br/>samples = 5<br/>value = [3, 2]>, fillcolor="#e5813955"] ;
554 -> 555 ;
556 [label=<saving ACC_OPEN_DATE' &le; 20071068.0<br/>gini = 0.105<br/>samples = 18<br/>value = [17, 1]>, fillcolor="#e58139f0"] ;
554 -> 556 ;
557 [label=<gini = 0.0<br/>samples = 16<br/>value = [16, 0]>, fillcolor="#e58139ff"] ;
556 -> 557 ;
558 [label=<gini = 0.5<br/>samples = 2<br/>value = [1, 1]>, fillcolor="#e5813900"] ;
556 -> 558 ;
559 [label=<MBS &le; 0.5<br/>gini = 0.087<br/>samples = 22<br/>value = [21, 1]>, fillcolor="#e58139f3"] ;
553 -> 559 ;
560 [label=<PHOTO_NON_PHOTOFLG &le; 1.0<br/>gini = 0.153<br/>samples = 12<br/>value = [11, 1]>, fillcolor="#e58139e8"] ;
559 -> 560 ;
561 [label=<gini = 0.0<br/>samples = 2<br/>value = [2, 0]>, fillcolor="#e58139ff"] ;
560 -> 561 ;
562 [label=<LOAN ' &le; 1.0<br/>gini = 0.18<br/>samples = 10<br/>value = [9, 1]>, fillcolor="#e58139e3"] ;
560 -> 562 ;
563 [label=<gini = 0.0<br/>samples = 9<br/>value = [9, 0]>, fillcolor="#e58139ff"] ;
562 -> 563 ;
564 [label=<gini = 0.0<br/>samples = 1<br/>value = [0, 1]>, fillcolor="#399de5ff"] ;
562 -> 564 ;
565 [label=<gini = 0.0<br/>samples = 10<br/>value = [10, 0]>, fillcolor="#e58139ff"] ;
559 -> 565 ;
566 [label=<AGE &le; 31.5<br/>gini = 0.48<br/>samples = 20<br/>value = [12, 8]>, fillcolor="#e5813955"] ;
552 -> 566 ;
567 [label=<gini = 0.0<br/>samples = 2<br/>value = [2, 0]>, fillcolor="#e58139ff"] ;
566 -> 567 ;
568 [label=<Salary &le; 3.0<br/>gini = 0.494<br/>samples = 18<br/>value = [10, 8]>, fillcolor="#e5813933"] ;
566 -> 568 ;
569 [label=<saving ACC_OPEN_DATE' &le; 20015564.0<br/>gini = 0.463<br/>samples = 11<br/>value = [7, 4]>, fillcolor="#e581396d"] ;
568 -> 569 ;
570 [label=<gini = 0.0<br/>samples = 2<br/>value = [2, 0]>, fillcolor="#e58139ff"] ;
569 -> 570 ;
571 [label=<gini = 0.494<br/>samples = 9<br/>value = [5, 4]>, fillcolor="#e5813933"] ;
569 -> 571 ;
572 [label=<gini = 0.49<br/>samples = 7<br/>value = [3, 4]>, fillcolor="#399de540"] ;
568 -> 572 ;
573 [label=<MBS &le; 0.5<br/>gini = 0.145<br/>samples = 38<br/>value = [35, 3]>, fillcolor="#e58139e9"] ;
551 -> 573 ;
574 [label=<gini = 0.0<br/>samples = 13<br/>value = [13, 0]>, fillcolor="#e58139ff"] ;
573 -> 574 ;
575 [label=<GENDER &le; 0.5<br/>gini = 0.211<br/>samples = 25<br/>value = [22, 3]>, fillcolor="#e58139dc"] ;
573 -> 575 ;
576 [label=<gini = 0.0<br/>samples = 1<br/>value = [1, 0]>, fillcolor="#e58139ff"] ;
575 -> 576 ;
577 [label=<BOOKDUES_FOR_NPA/ NORMAL_AS_ON_310618' &le; 105.68<br/>gini = 0.219<br/>samples = 24<br/>value = [21, 3]>, fillcolor="#e58139db"] ;
575 -> 577 ;
578 [label=<BOOKDUES_FOR_NPA/ NORMAL_AS_ON_310618' &le; 0.165<br/>gini = 0.337<br/>samples = 14<br/>value = [11, 3]>, fillcolor="#e58139b9"] ;
577 -> 578 ;
579 [label=<AGE &le; 44.5<br/>gini = 0.153<br/>samples = 12<br/>value = [11, 1]>, fillcolor="#e58139e8"] ;
578 -> 579 ;
580 [label=<gini = 0.0<br/>samples = 6<br/>value = [6, 0]>, fillcolor="#e58139ff"] ;
579 -> 580 ;
581 [label=<gini = 0.278<br/>samples = 6<br/>value = [5, 1]>, fillcolor="#e58139cc"] ;
579 -> 581 ;
582 [label=<gini = 0.0<br/>samples = 2<br/>value = [0, 2]>, fillcolor="#399de5ff"] ;
578 -> 582 ;
583 [label=<gini = 0.0<br/>samples = 10<br/>value = [10, 0]>, fillcolor="#e58139ff"] ;
577 -> 583 ;
584 [label=<BOOKDUES_FOR_NPA/ NORMAL_AS_ON_310618' &le; 258.06<br/>gini = 0.473<br/>samples = 13<br/>value = [8, 5]>, fillcolor="#e5813960"] ;
550 -> 584 ;
585 [label=<gini = 0.494<br/>samples = 9<br/>value = [4, 5]>, fillcolor="#399de533"] ;
584 -> 585 ;
586 [label=<gini = 0.0<br/>samples = 4<br/>value = [4, 0]>, fillcolor="#e58139ff"] ;
584 -> 586 ;
587 [label=<GENDER &le; 0.5<br/>gini = 0.155<br/>samples = 177<br/>value = [162, 15]>, fillcolor="#e58139e7"] ;
533 -> 587 ;
588 [label=<saving ACC_OPEN_DATE' &le; 20100958.0<br/>gini = 0.278<br/>samples = 12<br/>value = [10, 2]>, fillcolor="#e58139cc"] ;
587 -> 588 ;
589 [label=<gini = 0.0<br/>samples = 6<br/>value = [6, 0]>, fillcolor="#e58139ff"] ;
588 -> 589 ;
590 [label=<gini = 0.444<br/>samples = 6<br/>value = [4, 2]>, fillcolor="#e581397f"] ;
588 -> 590 ;
591 [label=<MBS &le; 0.5<br/>gini = 0.145<br/>samples = 165<br/>value = [152, 13]>, fillcolor="#e58139e9"] ;
587 -> 591 ;
592 [label=<MARRIEDARITAL_SINGLETATUSINGLE &le; 1.5<br/>gini = 0.229<br/>samples = 76<br/>value = [66, 10]>, fillcolor="#e58139d8"] ;
591 -> 592 ;
593 [label=<Salary &le; 7.0<br/>gini = 0.213<br/>samples = 33<br/>value = [29, 4]>, fillcolor="#e58139dc"] ;
592 -> 593 ;
594 [label=<BRANCH STATUS' &le; 1.5<br/>gini = 0.236<br/>samples = 22<br/>value = [19, 3]>, fillcolor="#e58139d7"] ;
593 -> 594 ;
595 [label=<gini = 0.0<br/>samples = 2<br/>value = [2, 0]>, fillcolor="#e58139ff"] ;
594 -> 595 ;
596 [label=<AGE &le; 37.5<br/>gini = 0.255<br/>samples = 20<br/>value = [17, 3]>, fillcolor="#e58139d2"] ;
594 -> 596 ;
597 [label=<gini = 0.0<br/>samples = 8<br/>value = [8, 0]>, fillcolor="#e58139ff"] ;
596 -> 597 ;
598 [label=<NO_OF_DEPENDENTS &le; 1.5<br/>gini = 0.375<br/>samples = 12<br/>value = [9, 3]>, fillcolor="#e58139aa"] ;
596 -> 598 ;
599 [label=<gini = 0.48<br/>samples = 5<br/>value = [3, 2]>, fillcolor="#e5813955"] ;
598 -> 599 ;
600 [label=<gini = 0.245<br/>samples = 7<br/>value = [6, 1]>, fillcolor="#e58139d4"] ;
598 -> 600 ;
601 [label=<BRANCH STATUS' &le; 2.5<br/>gini = 0.165<br/>samples = 11<br/>value = [10, 1]>, fillcolor="#e58139e6"] ;
593 -> 601 ;
602 [label=<gini = 0.0<br/>samples = 4<br/>value = [4, 0]>, fillcolor="#e58139ff"] ;
601 -> 602 ;
603 [label=<gini = 0.245<br/>samples = 7<br/>value = [6, 1]>, fillcolor="#e58139d4"] ;
601 -> 603 ;
604 [label=<BRANCH STATUS' &le; 1.5<br/>gini = 0.24<br/>samples = 43<br/>value = [37, 6]>, fillcolor="#e58139d6"] ;
592 -> 604 ;
605 [label=<gini = 0.0<br/>samples = 6<br/>value = [6, 0]>, fillcolor="#e58139ff"] ;
604 -> 605 ;
606 [label=<saving ACC_OPEN_DATE' &le; 20100864.0<br/>gini = 0.272<br/>samples = 37<br/>value = [31, 6]>, fillcolor="#e58139ce"] ;
604 -> 606 ;
607 [label=<gini = 0.0<br/>samples = 12<br/>value = [12, 0]>, fillcolor="#e58139ff"] ;
606 -> 607 ;
608 [label=<BOOKDUES_FOR_NPA/ NORMAL_AS_ON_310618' &le; -0.355<br/>gini = 0.365<br/>samples = 25<br/>value = [19, 6]>, fillcolor="#e58139ae"] ;
606 -> 608 ;
609 [label=<gini = 0.0<br/>samples = 2<br/>value = [0, 2]>, fillcolor="#399de5ff"] ;
608 -> 609 ;
610 [label=<BOOKDUES_FOR_NPA/ NORMAL_AS_ON_310618' &le; 3046.4<br/>gini = 0.287<br/>samples = 23<br/>value = [19, 4]>, fillcolor="#e58139c9"] ;
608 -> 610 ;
611 [label=<BRANCH STATUS' &le; 2.5<br/>gini = 0.236<br/>samples = 22<br/>value = [19, 3]>, fillcolor="#e58139d7"] ;
610 -> 611 ;
612 [label=<gini = 0.0<br/>samples = 7<br/>value = [7, 0]>, fillcolor="#e58139ff"] ;
611 -> 612 ;
613 [label=<saving ACC_OPEN_DATE' &le; 20120654.0<br/>gini = 0.32<br/>samples = 15<br/>value = [12, 3]>, fillcolor="#e58139bf"] ;
611 -> 613 ;
614 [label=<NO_OF_DEPENDENTS &le; 2.5<br/>gini = 0.26<br/>samples = 13<br/>value = [11, 2]>, fillcolor="#e58139d1"] ;
613 -> 614 ;
615 [label=<AGE &le; 31.5<br/>gini = 0.165<br/>samples = 11<br/>value = [10, 1]>, fillcolor="#e58139e6"] ;
614 -> 615 ;
616 [label=<gini = 0.375<br/>samples = 4<br/>value = [3, 1]>, fillcolor="#e58139aa"] ;
615 -> 616 ;
617 [label=<gini = 0.0<br/>samples = 7<br/>value = [7, 0]>, fillcolor="#e58139ff"] ;
615 -> 617 ;
618 [label=<gini = 0.5<br/>samples = 2<br/>value = [1, 1]>, fillcolor="#e5813900"] ;
614 -> 618 ;
619 [label=<gini = 0.5<br/>samples = 2<br/>value = [1, 1]>, fillcolor="#e5813900"] ;
613 -> 619 ;
620 [label=<gini = 0.0<br/>samples = 1<br/>value = [0, 1]>, fillcolor="#399de5ff"] ;
610 -> 620 ;
621 [label=<BOOKDUES_FOR_NPA/ NORMAL_AS_ON_310618' &le; 0.56<br/>gini = 0.065<br/>samples = 89<br/>value = [86, 3]>, fillcolor="#e58139f6"] ;
591 -> 621 ;
622 [label=<gini = 0.0<br/>samples = 61<br/>value = [61, 0]>, fillcolor="#e58139ff"] ;
621 -> 622 ;
623 [label=<LOAN ' &le; 1.0<br/>gini = 0.191<br/>samples = 28<br/>value = [25, 3]>, fillcolor="#e58139e0"] ;
621 -> 623 ;
624 [label=<AGE &le; 54.5<br/>gini = 0.142<br/>samples = 26<br/>value = [24, 2]>, fillcolor="#e58139ea"] ;
623 -> 624 ;
625 [label=<Salary &le; 7.0<br/>gini = 0.077<br/>samples = 25<br/>value = [24, 1]>, fillcolor="#e58139f4"] ;
624 -> 625 ;
626 [label=<gini = 0.0<br/>samples = 21<br/>value = [21, 0]>, fillcolor="#e58139ff"] ;
625 -> 626 ;
627 [label=<gini = 0.375<br/>samples = 4<br/>value = [3, 1]>, fillcolor="#e58139aa"] ;
625 -> 627 ;
628 [label=<gini = 0.0<br/>samples = 1<br/>value = [0, 1]>, fillcolor="#399de5ff"] ;
624 -> 628 ;
629 [label=<gini = 0.5<br/>samples = 2<br/>value = [1, 1]>, fillcolor="#e5813900"] ;
623 -> 629 ;
630 [label=<MBS &le; 0.5<br/>gini = 0.495<br/>samples = 126<br/>value = [69, 57]>, fillcolor="#e581392c"] ;
532 -> 630 ;
631 [label=<LOAN ' &le; 1.0<br/>gini = 0.499<br/>samples = 74<br/>value = [35, 39]>, fillcolor="#399de51a"] ;
630 -> 631 ;
632 [label=<GENDER &le; 0.5<br/>gini = 0.496<br/>samples = 68<br/>value = [31, 37]>, fillcolor="#399de529"] ;
631 -> 632 ;
633 [label=<gini = 0.278<br/>samples = 6<br/>value = [1, 5]>, fillcolor="#399de5cc"] ;
632 -> 633 ;
634 [label=<BRANCH STATUS' &le; 2.5<br/>gini = 0.499<br/>samples = 62<br/>value = [30, 32]>, fillcolor="#399de510"] ;
632 -> 634 ;
635 [label=<saving ACC_OPEN_DATE' &le; 20115512.0<br/>gini = 0.5<br/>samples = 24<br/>value = [12, 12]>, fillcolor="#e5813900"] ;
634 -> 635 ;
636 [label=<saving ACC_OPEN_DATE' &le; 20100617.0<br/>gini = 0.49<br/>samples = 21<br/>value = [12, 9]>, fillcolor="#e5813940"] ;
635 -> 636 ;
637 [label=<saving ACC_OPEN_DATE' &le; 20030815.0<br/>gini = 0.498<br/>samples = 17<br/>value = [8, 9]>, fillcolor="#399de51c"] ;
636 -> 637 ;
638 [label=<gini = 0.0<br/>samples = 2<br/>value = [2, 0]>, fillcolor="#e58139ff"] ;
637 -> 638 ;
639 [label=<AGE &le; 36.5<br/>gini = 0.48<br/>samples = 15<br/>value = [6, 9]>, fillcolor="#399de555"] ;
637 -> 639 ;
640 [label=<gini = 0.444<br/>samples = 9<br/>value = [6, 3]>, fillcolor="#e581397f"] ;
639 -> 640 ;
641 [label=<gini = 0.0<br/>samples = 6<br/>value = [0, 6]>, fillcolor="#399de5ff"] ;
639 -> 641 ;
642 [label=<gini = 0.0<br/>samples = 4<br/>value = [4, 0]>, fillcolor="#e58139ff"] ;
636 -> 642 ;
643 [label=<gini = 0.0<br/>samples = 3<br/>value = [0, 3]>, fillcolor="#399de5ff"] ;
635 -> 643 ;
644 [label=<AGE &le; 30.5<br/>gini = 0.499<br/>samples = 38<br/>value = [18, 20]>, fillcolor="#399de519"] ;
634 -> 644 ;
645 [label=<gini = 0.245<br/>samples = 7<br/>value = [6, 1]>, fillcolor="#e58139d4"] ;
644 -> 645 ;
646 [label=<SPOUSE WORKING' &le; 1.5<br/>gini = 0.475<br/>samples = 31<br/>value = [12, 19]>, fillcolor="#399de55e"] ;
644 -> 646 ;
647 [label=<Salary &le; 7.0<br/>gini = 0.346<br/>samples = 18<br/>value = [4, 14]>, fillcolor="#399de5b6"] ;
646 -> 647 ;
648 [label=<saving ACC_OPEN_DATE' &le; 20095110.0<br/>gini = 0.231<br/>samples = 15<br/>value = [2, 13]>, fillcolor="#399de5d8"] ;
647 -> 648 ;
649 [label=<gini = 0.48<br/>samples = 5<br/>value = [2, 3]>, fillcolor="#399de555"] ;
648 -> 649 ;
650 [label=<gini = 0.0<br/>samples = 10<br/>value = [0, 10]>, fillcolor="#399de5ff"] ;
648 -> 650 ;
651 [label=<gini = 0.444<br/>samples = 3<br/>value = [2, 1]>, fillcolor="#e581397f"] ;
647 -> 651 ;
652 [label=<BOOKDUES_FOR_NPA/ NORMAL_AS_ON_310618' &le; 30554.825<br/>gini = 0.473<br/>samples = 13<br/>value = [8, 5]>, fillcolor="#e5813960"] ;
646 -> 652 ;
653 [label=<NO_OF_DEPENDENTS &le; 0.5<br/>gini = 0.5<br/>samples = 10<br/>value = [5, 5]>, fillcolor="#e5813900"] ;
652 -> 653 ;
654 [label=<gini = 0.0<br/>samples = 2<br/>value = [0, 2]>, fillcolor="#399de5ff"] ;
653 -> 654 ;
655 [label=<gini = 0.469<br/>samples = 8<br/>value = [5, 3]>, fillcolor="#e5813966"] ;
653 -> 655 ;
656 [label=<gini = 0.0<br/>samples = 3<br/>value = [3, 0]>, fillcolor="#e58139ff"] ;
652 -> 656 ;
657 [label=<gini = 0.444<br/>samples = 6<br/>value = [4, 2]>, fillcolor="#e581397f"] ;
631 -> 657 ;
658 [label=<AGE &le; 27.0<br/>gini = 0.453<br/>samples = 52<br/>value = [34, 18]>, fillcolor="#e5813978"] ;
630 -> 658 ;
659 [label=<gini = 0.0<br/>samples = 1<br/>value = [0, 1]>, fillcolor="#399de5ff"] ;
658 -> 659 ;
660 [label=<SPOUSE WORKING' &le; 1.5<br/>gini = 0.444<br/>samples = 51<br/>value = [34, 17]>, fillcolor="#e581397f"] ;
658 -> 660 ;
661 [label=<BRANCH STATUS' &le; 2.5<br/>gini = 0.444<br/>samples = 33<br/>value = [22, 11]>, fillcolor="#e581397f"] ;
660 -> 661 ;
662 [label=<NO_OF_DEPENDENTS &le; 1.5<br/>gini = 0.32<br/>samples = 10<br/>value = [8, 2]>, fillcolor="#e58139bf"] ;
661 -> 662 ;
663 [label=<gini = 0.0<br/>samples = 5<br/>value = [5, 0]>, fillcolor="#e58139ff"] ;
662 -> 663 ;
664 [label=<gini = 0.48<br/>samples = 5<br/>value = [3, 2]>, fillcolor="#e5813955"] ;
662 -> 664 ;
665 [label=<PHOTO_NON_PHOTOFLG &le; 1.0<br/>gini = 0.476<br/>samples = 23<br/>value = [14, 9]>, fillcolor="#e581395b"] ;
661 -> 665 ;
666 [label=<AGE &le; 33.5<br/>gini = 0.49<br/>samples = 14<br/>value = [6, 8]>, fillcolor="#399de540"] ;
665 -> 666 ;
667 [label=<gini = 0.32<br/>samples = 5<br/>value = [1, 4]>, fillcolor="#399de5bf"] ;
666 -> 667 ;
668 [label=<gini = 0.494<br/>samples = 9<br/>value = [5, 4]>, fillcolor="#e5813933"] ;
666 -> 668 ;
669 [label=<gini = 0.198<br/>samples = 9<br/>value = [8, 1]>, fillcolor="#e58139df"] ;
665 -> 669 ;
670 [label=<saving ACC_OPEN_DATE' &le; 20075664.0<br/>gini = 0.444<br/>samples = 18<br/>value = [12, 6]>, fillcolor="#e581397f"] ;
660 -> 670 ;
671 [label=<gini = 0.469<br/>samples = 8<br/>value = [3, 5]>, fillcolor="#399de566"] ;
670 -> 671 ;
672 [label=<BRANCH STATUS' &le; 1.5<br/>gini = 0.18<br/>samples = 10<br/>value = [9, 1]>, fillcolor="#e58139e3"] ;
670 -> 672 ;
673 [label=<gini = 0.5<br/>samples = 2<br/>value = [1, 1]>, fillcolor="#e5813900"] ;
672 -> 673 ;
674 [label=<gini = 0.0<br/>samples = 8<br/>value = [8, 0]>, fillcolor="#e58139ff"] ;
672 -> 674 ;
675 [label=<gini = 0.0<br/>samples = 50<br/>value = [50, 0]>, fillcolor="#e58139ff"] ;
349 -> 675 ;
676 [label=<IBS &le; 0.5<br/>gini = 0.018<br/>samples = 108<br/>value = [107, 1]>, fillcolor="#e58139fd"] ;
4 -> 676 ;
677 [label=<BOOKDUES_FOR_NPA/ NORMAL_AS_ON_310618' &le; 6444.5<br/>gini = 0.1<br/>samples = 19<br/>value = [18, 1]>, fillcolor="#e58139f1"] ;
676 -> 677 ;
678 [label=<gini = 0.0<br/>samples = 17<br/>value = [17, 0]>, fillcolor="#e58139ff"] ;
677 -> 678 ;
679 [label=<gini = 0.5<br/>samples = 2<br/>value = [1, 1]>, fillcolor="#e5813900"] ;
677 -> 679 ;
680 [label=<gini = 0.0<br/>samples = 89<br/>value = [89, 0]>, fillcolor="#e58139ff"] ;
676 -> 680 ;
681 [label=<gini = 0.0<br/>samples = 293<br/>value = [0, 293]>, fillcolor="#399de5ff"] ;
3 -> 681 ;
682 [label=<CARD_TYPE<SUB>0</SUB> &le; 0.5<br/>gini = 0.218<br/>samples = 449<br/>value = [393, 56]>, fillcolor="#e58139db"] ;
2 -> 682 ;
683 [label=<AUTO_STATUS &le; 2.5<br/>gini = 0.184<br/>samples = 438<br/>value = [393, 45]>, fillcolor="#e58139e2"] ;
682 -> 683 ;
684 [label=<PREFERRED_COMMUNICATION_ADD &le; 1.5<br/>gini = 0.224<br/>samples = 350<br/>value = [305, 45]>, fillcolor="#e58139d9"] ;
683 -> 684 ;
685 [label=<PRE_APPROVED_STAFF_FD &le; 0.5<br/>gini = 0.249<br/>samples = 309<br/>value = [264, 45]>, fillcolor="#e58139d4"] ;
684 -> 685 ;
686 [label=<gini = 0.0<br/>samples = 1<br/>value = [0, 1]>, fillcolor="#399de5ff"] ;
685 -> 686 ;
687 [label=<saving ACC_OPEN_DATE' &le; 20150611.0<br/>gini = 0.245<br/>samples = 308<br/>value = [264, 44]>, fillcolor="#e58139d4"] ;
685 -> 687 ;
688 [label=<BOOKDUES_FOR_NPA/ NORMAL_AS_ON_310618' &le; 4725.32<br/>gini = 0.227<br/>samples = 276<br/>value = [240, 36]>, fillcolor="#e58139d9"] ;
687 -> 688 ;
689 [label=<MBS &le; 0.5<br/>gini = 0.053<br/>samples = 182<br/>value = [177, 5]>, fillcolor="#e58139f8"] ;
688 -> 689 ;
690 [label=<BOOKDUES_FOR_NPA/ NORMAL_AS_ON_310618' &le; 1854.52<br/>gini = 0.092<br/>samples = 83<br/>value = [79, 4]>, fillcolor="#e58139f2"] ;
689 -> 690 ;
691 [label=<BOOKDUES_FOR_NPA/ NORMAL_AS_ON_310618' &le; 48.04<br/>gini = 0.051<br/>samples = 76<br/>value = [74, 2]>, fillcolor="#e58139f8"] ;
690 -> 691 ;
692 [label=<saving ACC_OPEN_DATE' &le; 20140204.0<br/>gini = 0.03<br/>samples = 65<br/>value = [64, 1]>, fillcolor="#e58139fb"] ;
691 -> 692 ;
693 [label=<gini = 0.0<br/>samples = 46<br/>value = [46, 0]>, fillcolor="#e58139ff"] ;
692 -> 693 ;
694 [label=<NO_OF_DEPENDENTS &le; 0.5<br/>gini = 0.1<br/>samples = 19<br/>value = [18, 1]>, fillcolor="#e58139f1"] ;
692 -> 694 ;
695 [label=<BRANCH STATUS' &le; 2.5<br/>gini = 0.153<br/>samples = 12<br/>value = [11, 1]>, fillcolor="#e58139e8"] ;
694 -> 695 ;
696 [label=<gini = 0.0<br/>samples = 6<br/>value = [6, 0]>, fillcolor="#e58139ff"] ;
695 -> 696 ;
697 [label=<gini = 0.278<br/>samples = 6<br/>value = [5, 1]>, fillcolor="#e58139cc"] ;
695 -> 697 ;
698 [label=<gini = 0.0<br/>samples = 7<br/>value = [7, 0]>, fillcolor="#e58139ff"] ;
694 -> 698 ;
699 [label=<BRANCH STATUS' &le; 2.0<br/>gini = 0.165<br/>samples = 11<br/>value = [10, 1]>, fillcolor="#e58139e6"] ;
691 -> 699 ;
700 [label=<gini = 0.0<br/>samples = 9<br/>value = [9, 0]>, fillcolor="#e58139ff"] ;
699 -> 700 ;
701 [label=<gini = 0.5<br/>samples = 2<br/>value = [1, 1]>, fillcolor="#e5813900"] ;
699 -> 701 ;
702 [label=<gini = 0.408<br/>samples = 7<br/>value = [5, 2]>, fillcolor="#e5813999"] ;
690 -> 702 ;
703 [label=<SPOUSE WORKING' &le; 1.5<br/>gini = 0.02<br/>samples = 99<br/>value = [98, 1]>, fillcolor="#e58139fc"] ;
689 -> 703 ;
704 [label=<BOOKDUES_FOR_NPA/ NORMAL_AS_ON_310618' &le; 0.005<br/>gini = 0.032<br/>samples = 61<br/>value = [60, 1]>, fillcolor="#e58139fb"] ;
703 -> 704 ;
705 [label=<gini = 0.0<br/>samples = 46<br/>value = [46, 0]>, fillcolor="#e58139ff"] ;
704 -> 705 ;
706 [label=<AGE &le; 30.5<br/>gini = 0.124<br/>samples = 15<br/>value = [14, 1]>, fillcolor="#e58139ed"] ;
704 -> 706 ;
707 [label=<gini = 0.0<br/>samples = 7<br/>value = [7, 0]>, fillcolor="#e58139ff"] ;
706 -> 707 ;
708 [label=<gini = 0.219<br/>samples = 8<br/>value = [7, 1]>, fillcolor="#e58139db"] ;
706 -> 708 ;
709 [label=<gini = 0.0<br/>samples = 38<br/>value = [38, 0]>, fillcolor="#e58139ff"] ;
703 -> 709 ;
710 [label=<BOOKDUES_FOR_NPA/ NORMAL_AS_ON_310618' &le; 29557.765<br/>gini = 0.442<br/>samples = 94<br/>value = [63, 31]>, fillcolor="#e5813982"] ;
688 -> 710 ;
711 [label=<CREDIT_CARD_SCORE &le; 5.0<br/>gini = 0.481<br/>samples = 72<br/>value = [43, 29]>, fillcolor="#e5813953"] ;
710 -> 711 ;
712 [label=<PHOTO_NON_PHOTOFLG &le; 1.0<br/>gini = 0.489<br/>samples = 68<br/>value = [39, 29]>, fillcolor="#e5813941"] ;
711 -> 712 ;
713 [label=<Salary &le; 3.0<br/>gini = 0.477<br/>samples = 56<br/>value = [34, 22]>, fillcolor="#e581395a"] ;
712 -> 713 ;
714 [label=<GENDER &le; 0.5<br/>gini = 0.498<br/>samples = 43<br/>value = [23, 20]>, fillcolor="#e5813921"] ;
713 -> 714 ;
715 [label=<gini = 0.0<br/>samples = 1<br/>value = [1, 0]>, fillcolor="#e58139ff"] ;
714 -> 715 ;
716 [label=<AGE &le; 33.5<br/>gini = 0.499<br/>samples = 42<br/>value = [22, 20]>, fillcolor="#e5813917"] ;
714 -> 716 ;
717 [label=<saving ACC_OPEN_DATE' &le; 20130864.0<br/>gini = 0.455<br/>samples = 20<br/>value = [13, 7]>, fillcolor="#e5813976"] ;
716 -> 717 ;
718 [label=<BOOKDUES_FOR_NPA/ NORMAL_AS_ON_310618' &le; 10470.85<br/>gini = 0.298<br/>samples = 11<br/>value = [9, 2]>, fillcolor="#e58139c6"] ;
717 -> 718 ;
719 [label=<gini = 0.48<br/>samples = 5<br/>value = [3, 2]>, fillcolor="#e5813955"] ;
718 -> 719 ;
720 [label=<gini = 0.0<br/>samples = 6<br/>value = [6, 0]>, fillcolor="#e58139ff"] ;
718 -> 720 ;
721 [label=<gini = 0.494<br/>samples = 9<br/>value = [4, 5]>, fillcolor="#399de533"] ;
717 -> 721 ;
722 [label=<AGE &le; 35.5<br/>gini = 0.483<br/>samples = 22<br/>value = [9, 13]>, fillcolor="#399de54e"] ;
716 -> 722 ;
723 [label=<gini = 0.278<br/>samples = 6<br/>value = [1, 5]>, fillcolor="#399de5cc"] ;
722 -> 723 ;
724 [label=<MBS &le; 0.5<br/>gini = 0.5<br/>samples = 16<br/>value = [8, 8]>, fillcolor="#e5813900"] ;
722 -> 724 ;
725 [label=<gini = 0.408<br/>samples = 7<br/>value = [5, 2]>, fillcolor="#e5813999"] ;
724 -> 725 ;
726 [label=<gini = 0.444<br/>samples = 9<br/>value = [3, 6]>, fillcolor="#399de57f"] ;
724 -> 726 ;
727 [label=<MBS &le; 0.5<br/>gini = 0.26<br/>samples = 13<br/>value = [11, 2]>, fillcolor="#e58139d1"] ;
713 -> 727 ;
728 [label=<gini = 0.0<br/>samples = 3<br/>value = [3, 0]>, fillcolor="#e58139ff"] ;
727 -> 728 ;
729 [label=<LOAN ' &le; 1.0<br/>gini = 0.32<br/>samples = 10<br/>value = [8, 2]>, fillcolor="#e58139bf"] ;
727 -> 729 ;
730 [label=<gini = 0.375<br/>samples = 8<br/>value = [6, 2]>, fillcolor="#e58139aa"] ;
729 -> 730 ;
731 [label=<gini = 0.0<br/>samples = 2<br/>value = [2, 0]>, fillcolor="#e58139ff"] ;
729 -> 731 ;
732 [label=<MARRIEDARITAL_SINGLETATUSINGLE &le; 1.5<br/>gini = 0.486<br/>samples = 12<br/>value = [5, 7]>, fillcolor="#399de549"] ;
712 -> 732 ;
733 [label=<gini = 0.0<br/>samples = 1<br/>value = [1, 0]>, fillcolor="#e58139ff"] ;
732 -> 733 ;
734 [label=<saving ACC_OPEN_DATE' &le; 20130166.0<br/>gini = 0.463<br/>samples = 11<br/>value = [4, 7]>, fillcolor="#399de56d"] ;
732 -> 734 ;
735 [label=<gini = 0.0<br/>samples = 2<br/>value = [2, 0]>, fillcolor="#e58139ff"] ;
734 -> 735 ;
736 [label=<gini = 0.346<br/>samples = 9<br/>value = [2, 7]>, fillcolor="#399de5b6"] ;
734 -> 736 ;
737 [label=<gini = 0.0<br/>samples = 4<br/>value = [4, 0]>, fillcolor="#e58139ff"] ;
711 -> 737 ;
738 [label=<IBS &le; 0.5<br/>gini = 0.165<br/>samples = 22<br/>value = [20, 2]>, fillcolor="#e58139e6"] ;
710 -> 738 ;
739 [label=<gini = 0.444<br/>samples = 3<br/>value = [2, 1]>, fillcolor="#e581397f"] ;
738 -> 739 ;
740 [label=<CIBIL_SCORE &le; 0.5<br/>gini = 0.1<br/>samples = 19<br/>value = [18, 1]>, fillcolor="#e58139f1"] ;
738 -> 740 ;
741 [label=<gini = 0.0<br/>samples = 1<br/>value = [0, 1]>, fillcolor="#399de5ff"] ;
740 -> 741 ;
742 [label=<gini = 0.0<br/>samples = 18<br/>value = [18, 0]>, fillcolor="#e58139ff"] ;
740 -> 742 ;
743 [label=<saving ACC_OPEN_DATE' &le; 20150668.0<br/>gini = 0.375<br/>samples = 32<br/>value = [24, 8]>, fillcolor="#e58139aa"] ;
687 -> 743 ;
744 [label=<gini = 0.0<br/>samples = 2<br/>value = [0, 2]>, fillcolor="#399de5ff"] ;
743 -> 744 ;
745 [label=<BOOKDUES_FOR_NPA/ NORMAL_AS_ON_310618' &le; 3253.78<br/>gini = 0.32<br/>samples = 30<br/>value = [24, 6]>, fillcolor="#e58139bf"] ;
743 -> 745 ;
746 [label=<BOOKDUES_FOR_NPA/ NORMAL_AS_ON_310618' &le; -2047.16<br/>gini = 0.083<br/>samples = 23<br/>value = [22, 1]>, fillcolor="#e58139f3"] ;
745 -> 746 ;
747 [label=<gini = 0.0<br/>samples = 1<br/>value = [0, 1]>, fillcolor="#399de5ff"] ;
746 -> 747 ;
748 [label=<gini = 0.0<br/>samples = 22<br/>value = [22, 0]>, fillcolor="#e58139ff"] ;
746 -> 748 ;
749 [label=<gini = 0.408<br/>samples = 7<br/>value = [2, 5]>, fillcolor="#399de599"] ;
745 -> 749 ;
750 [label=<gini = 0.0<br/>samples = 41<br/>value = [41, 0]>, fillcolor="#e58139ff"] ;
684 -> 750 ;
751 [label=<gini = 0.0<br/>samples = 88<br/>value = [88, 0]>, fillcolor="#e58139ff"] ;
683 -> 751 ;
752 [label=<gini = 0.0<br/>samples = 11<br/>value = [0, 11]>, fillcolor="#399de5ff"] ;
682 -> 752 ;
753 [label=<CREDIT_CARD_SCORE &le; 4.0<br/>gini = 0.484<br/>samples = 7154<br/>value = [4212, 2942]>, fillcolor="#e581394d"] ;
1 -> 753 ;
754 [label=<IBS &le; 0.5<br/>gini = 0.49<br/>samples = 6826<br/>value = [3894, 2932]>, fillcolor="#e581393f"] ;
753 -> 754 ;
755 [label=<Salary &le; 6.5<br/>gini = 0.471<br/>samples = 2608<br/>value = [988, 1620]>, fillcolor="#399de563"] ;
754 -> 755 ;
756 [label=<LOAN ' &le; 1.0<br/>gini = 0.499<br/>samples = 1860<br/>value = [883, 977]>, fillcolor="#399de519"] ;
755 -> 756 ;
757 [label=<PHOTO_NON_PHOTOFLG &le; 1.0<br/>gini = 0.495<br/>samples = 1677<br/>value = [756, 921]>, fillcolor="#399de52e"] ;
756 -> 757 ;
758 [label=<BOOKDUES_FOR_NPA/ NORMAL_AS_ON_310618' &le; 3890.61<br/>gini = 0.496<br/>samples = 896<br/>value = [488, 408]>, fillcolor="#e581392a"] ;
757 -> 758 ;
759 [label=<AGE &le; 35.5<br/>gini = 0.407<br/>samples = 492<br/>value = [352, 140]>, fillcolor="#e581399a"] ;
758 -> 759 ;
760 [label=<NO_OF_DEPENDENTS &le; 0.5<br/>gini = 0.302<br/>samples = 167<br/>value = [136, 31]>, fillcolor="#e58139c5"] ;
759 -> 760 ;
761 [label=<AUTO_STATUS &le; 2.5<br/>gini = 0.411<br/>samples = 76<br/>value = [54, 22]>, fillcolor="#e5813997"] ;
760 -> 761 ;
762 [label=<AGE &le; 32.5<br/>gini = 0.421<br/>samples = 73<br/>value = [51, 22]>, fillcolor="#e5813991"] ;
761 -> 762 ;
763 [label=<AGE &le; 27.5<br/>gini = 0.33<br/>samples = 48<br/>value = [38, 10]>, fillcolor="#e58139bc"] ;
762 -> 763 ;
764 [label=<gini = 0.0<br/>samples = 9<br/>value = [9, 0]>, fillcolor="#e58139ff"] ;
763 -> 764 ;
765 [label=<Salary &le; 3.0<br/>gini = 0.381<br/>samples = 39<br/>value = [29, 10]>, fillcolor="#e58139a7"] ;
763 -> 765 ;
766 [label=<BOOKDUES_FOR_NPA/ NORMAL_AS_ON_310618' &le; -1810.495<br/>gini = 0.334<br/>samples = 33<br/>value = [26, 7]>, fillcolor="#e58139ba"] ;
765 -> 766 ;
767 [label=<gini = 0.0<br/>samples = 1<br/>value = [0, 1]>, fillcolor="#399de5ff"] ;
766 -> 767 ;
768 [label=<saving ACC_OPEN_DATE' &le; 20080320.0<br/>gini = 0.305<br/>samples = 32<br/>value = [26, 6]>, fillcolor="#e58139c4"] ;
766 -> 768 ;
769 [label=<gini = 0.0<br/>samples = 14<br/>value = [14, 0]>, fillcolor="#e58139ff"] ;
768 -> 769 ;
770 [label=<BRANCH STATUS' &le; 0.5<br/>gini = 0.444<br/>samples = 18<br/>value = [12, 6]>, fillcolor="#e581397f"] ;
768 -> 770 ;
771 [label=<gini = 0.48<br/>samples = 5<br/>value = [2, 3]>, fillcolor="#399de555"] ;
770 -> 771 ;
772 [label=<GENDER &le; 0.5<br/>gini = 0.355<br/>samples = 13<br/>value = [10, 3]>, fillcolor="#e58139b3"] ;
770 -> 772 ;
773 [label=<gini = 0.0<br/>samples = 2<br/>value = [2, 0]>, fillcolor="#e58139ff"] ;
772 -> 773 ;
774 [label=<BOOKDUES_FOR_NPA/ NORMAL_AS_ON_310618' &le; 30.63<br/>gini = 0.397<br/>samples = 11<br/>value = [8, 3]>, fillcolor="#e581399f"] ;
772 -> 774 ;
775 [label=<gini = 0.245<br/>samples = 7<br/>value = [6, 1]>, fillcolor="#e58139d4"] ;
774 -> 775 ;
776 [label=<gini = 0.5<br/>samples = 4<br/>value = [2, 2]>, fillcolor="#e5813900"] ;
774 -> 776 ;
777 [label=<gini = 0.5<br/>samples = 6<br/>value = [3, 3]>, fillcolor="#e5813900"] ;
765 -> 777 ;
778 [label=<AGE &le; 34.5<br/>gini = 0.499<br/>samples = 25<br/>value = [13, 12]>, fillcolor="#e5813914"] ;
762 -> 778 ;
779 [label=<GENDER &le; 0.5<br/>gini = 0.495<br/>samples = 20<br/>value = [11, 9]>, fillcolor="#e581392e"] ;
778 -> 779 ;
780 [label=<gini = 0.0<br/>samples = 2<br/>value = [0, 2]>, fillcolor="#399de5ff"] ;
779 -> 780 ;
781 [label=<OCCUPATION &le; 25.5<br/>gini = 0.475<br/>samples = 18<br/>value = [11, 7]>, fillcolor="#e581395d"] ;
779 -> 781 ;
782 [label=<SPOUSE WORKING' &le; 1.5<br/>gini = 0.408<br/>samples = 14<br/>value = [10, 4]>, fillcolor="#e5813999"] ;
781 -> 782 ;
783 [label=<saving ACC_OPEN_DATE' &le; 20120877.0<br/>gini = 0.463<br/>samples = 11<br/>value = [7, 4]>, fillcolor="#e581396d"] ;
782 -> 783 ;
784 [label=<gini = 0.494<br/>samples = 9<br/>value = [5, 4]>, fillcolor="#e5813933"] ;
783 -> 784 ;
785 [label=<gini = 0.0<br/>samples = 2<br/>value = [2, 0]>, fillcolor="#e58139ff"] ;
783 -> 785 ;
786 [label=<gini = 0.0<br/>samples = 3<br/>value = [3, 0]>, fillcolor="#e58139ff"] ;
782 -> 786 ;
787 [label=<gini = 0.375<br/>samples = 4<br/>value = [1, 3]>, fillcolor="#399de5aa"] ;
781 -> 787 ;
788 [label=<gini = 0.48<br/>samples = 5<br/>value = [2, 3]>, fillcolor="#399de555"] ;
778 -> 788 ;
789 [label=<gini = 0.0<br/>samples = 3<br/>value = [3, 0]>, fillcolor="#e58139ff"] ;
761 -> 789 ;
790 [label=<NO_OF_DEPENDENTS &le; 2.5<br/>gini = 0.178<br/>samples = 91<br/>value = [82, 9]>, fillcolor="#e58139e3"] ;
760 -> 790 ;
791 [label=<AUTO_STATUS &le; 2.5<br/>gini = 0.234<br/>samples = 59<br/>value = [51, 8]>, fillcolor="#e58139d7"] ;
790 -> 791 ;
792 [label=<GENDER &le; 0.5<br/>gini = 0.238<br/>samples = 58<br/>value = [50, 8]>, fillcolor="#e58139d6"] ;
791 -> 792 ;
793 [label=<gini = 0.375<br/>samples = 4<br/>value = [3, 1]>, fillcolor="#e58139aa"] ;
792 -> 793 ;
794 [label=<PROFESSION &le; 29.5<br/>gini = 0.226<br/>samples = 54<br/>value = [47, 7]>, fillcolor="#e58139d9"] ;
792 -> 794 ;
795 [label=<PROFESSION &le; 26.5<br/>gini = 0.263<br/>samples = 45<br/>value = [38, 7]>, fillcolor="#e58139d0"] ;
794 -> 795 ;
796 [label=<PROFESSION &le; 19.0<br/>gini = 0.224<br/>samples = 39<br/>value = [34, 5]>, fillcolor="#e58139da"] ;
795 -> 796 ;
797 [label=<gini = 0.0<br/>samples = 2<br/>value = [2, 0]>, fillcolor="#e58139ff"] ;
796 -> 797 ;
798 [label=<BOOKDUES_FOR_NPA/ NORMAL_AS_ON_310618' &le; 2141.905<br/>gini = 0.234<br/>samples = 37<br/>value = [32, 5]>, fillcolor="#e58139d7"] ;
796 -> 798 ;
799 [label=<OCCUPATION &le; 25.5<br/>gini = 0.202<br/>samples = 35<br/>value = [31, 4]>, fillcolor="#e58139de"] ;
798 -> 799 ;
800 [label=<Salary &le; 3.0<br/>gini = 0.213<br/>samples = 33<br/>value = [29, 4]>, fillcolor="#e58139dc"] ;
799 -> 800 ;
801 [label=<NO_OF_DEPENDENTS &le; 1.5<br/>gini = 0.188<br/>samples = 19<br/>value = [17, 2]>, fillcolor="#e58139e1"] ;
800 -> 801 ;
802 [label=<gini = 0.198<br/>samples = 9<br/>value = [8, 1]>, fillcolor="#e58139df"] ;
801 -> 802 ;
803 [label=<BRANCH STATUS' &le; 1.5<br/>gini = 0.18<br/>samples = 10<br/>value = [9, 1]>, fillcolor="#e58139e3"] ;
801 -> 803 ;
804 [label=<gini = 0.278<br/>samples = 6<br/>value = [5, 1]>, fillcolor="#e58139cc"] ;
803 -> 804 ;
805 [label=<gini = 0.0<br/>samples = 4<br/>value = [4, 0]>, fillcolor="#e58139ff"] ;
803 -> 805 ;
806 [label=<BRANCH STATUS' &le; 2.5<br/>gini = 0.245<br/>samples = 14<br/>value = [12, 2]>, fillcolor="#e58139d4"] ;
800 -> 806 ;
807 [label=<gini = 0.0<br/>samples = 9<br/>value = [9, 0]>, fillcolor="#e58139ff"] ;
806 -> 807 ;
808 [label=<gini = 0.48<br/>samples = 5<br/>value = [3, 2]>, fillcolor="#e5813955"] ;
806 -> 808 ;
809 [label=<gini = 0.0<br/>samples = 2<br/>value = [2, 0]>, fillcolor="#e58139ff"] ;
799 -> 809 ;
810 [label=<gini = 0.5<br/>samples = 2<br/>value = [1, 1]>, fillcolor="#e5813900"] ;
798 -> 810 ;
811 [label=<gini = 0.444<br/>samples = 6<br/>value = [4, 2]>, fillcolor="#e581397f"] ;
795 -> 811 ;
812 [label=<gini = 0.0<br/>samples = 9<br/>value = [9, 0]>, fillcolor="#e58139ff"] ;
794 -> 812 ;
813 [label=<gini = 0.0<br/>samples = 1<br/>value = [1, 0]>, fillcolor="#e58139ff"] ;
791 -> 813 ;
814 [label=<OCCUPATION &le; 19.5<br/>gini = 0.061<br/>samples = 32<br/>value = [31, 1]>, fillcolor="#e58139f7"] ;
790 -> 814 ;
815 [label=<gini = 0.5<br/>samples = 2<br/>value = [1, 1]>, fillcolor="#e5813900"] ;
814 -> 815 ;
816 [label=<gini = 0.0<br/>samples = 30<br/>value = [30, 0]>, fillcolor="#e58139ff"] ;
814 -> 816 ;
817 [label=<OCCUPATION &le; 24.0<br/>gini = 0.446<br/>samples = 325<br/>value = [216, 109]>, fillcolor="#e581397e"] ;
759 -> 817 ;
818 [label=<BOOKDUES_FOR_NPA/ NORMAL_AS_ON_310618' &le; 0.56<br/>gini = 0.382<br/>samples = 35<br/>value = [26, 9]>, fillcolor="#e58139a7"] ;
817 -> 818 ;
819 [label=<PROFESSION &le; 28.5<br/>gini = 0.337<br/>samples = 28<br/>value = [22, 6]>, fillcolor="#e58139b9"] ;
818 -> 819 ;
820 [label=<Salary &le; 3.0<br/>gini = 0.269<br/>samples = 25<br/>value = [21, 4]>, fillcolor="#e58139ce"] ;
819 -> 820 ;
821 [label=<NO_OF_DEPENDENTS &le; 2.5<br/>gini = 0.355<br/>samples = 13<br/>value = [10, 3]>, fillcolor="#e58139b3"] ;
820 -> 821 ;
822 [label=<gini = 0.444<br/>samples = 9<br/>value = [6, 3]>, fillcolor="#e581397f"] ;
821 -> 822 ;
823 [label=<gini = 0.0<br/>samples = 4<br/>value = [4, 0]>, fillcolor="#e58139ff"] ;
821 -> 823 ;
824 [label=<BRANCH STATUS' &le; 0.5<br/>gini = 0.153<br/>samples = 12<br/>value = [11, 1]>, fillcolor="#e58139e8"] ;
820 -> 824 ;
825 [label=<gini = 0.375<br/>samples = 4<br/>value = [3, 1]>, fillcolor="#e58139aa"] ;
824 -> 825 ;
826 [label=<gini = 0.0<br/>samples = 8<br/>value = [8, 0]>, fillcolor="#e58139ff"] ;
824 -> 826 ;
827 [label=<gini = 0.444<br/>samples = 3<br/>value = [1, 2]>, fillcolor="#399de57f"] ;
819 -> 827 ;
828 [label=<gini = 0.49<br/>samples = 7<br/>value = [4, 3]>, fillcolor="#e5813940"] ;
818 -> 828 ;
829 [label=<SPOUSE WORKING' &le; 1.5<br/>gini = 0.452<br/>samples = 290<br/>value = [190, 100]>, fillcolor="#e5813979"] ;
817 -> 829 ;
830 [label=<OCCUPATION &le; 33.5<br/>gini = 0.468<br/>samples = 158<br/>value = [99, 59]>, fillcolor="#e5813967"] ;
829 -> 830 ;
831 [label=<AGE &le; 37.5<br/>gini = 0.477<br/>samples = 122<br/>value = [74, 48]>, fillcolor="#e581395a"] ;
830 -> 831 ;
832 [label=<NO_OF_DEPENDENTS &le; 1.5<br/>gini = 0.488<br/>samples = 19<br/>value = [8, 11]>, fillcolor="#399de546"] ;
831 -> 832 ;
833 [label=<saving ACC_OPEN_DATE' &le; 20095609.0<br/>gini = 0.486<br/>samples = 12<br/>value = [7, 5]>, fillcolor="#e5813949"] ;
832 -> 833 ;
834 [label=<gini = 0.469<br/>samples = 8<br/>value = [3, 5]>, fillcolor="#399de566"] ;
833 -> 834 ;
835 [label=<gini = 0.0<br/>samples = 4<br/>value = [4, 0]>, fillcolor="#e58139ff"] ;
833 -> 835 ;
836 [label=<gini = 0.245<br/>samples = 7<br/>value = [1, 6]>, fillcolor="#399de5d4"] ;
832 -> 836 ;
837 [label=<BOOKDUES_FOR_NPA/ NORMAL_AS_ON_310618' &le; 0.275<br/>gini = 0.46<br/>samples = 103<br/>value = [66, 37]>, fillcolor="#e5813970"] ;
831 -> 837 ;
838 [label=<PROFESSION &le; 27.5<br/>gini = 0.414<br/>samples = 65<br/>value = [46, 19]>, fillcolor="#e5813996"] ;
837 -> 838 ;
839 [label=<AGE &le; 64.5<br/>gini = 0.398<br/>samples = 62<br/>value = [45, 17]>, fillcolor="#e581399f"] ;
838 -> 839 ;
840 [label=<PROFESSION &le; 24.0<br/>gini = 0.387<br/>samples = 61<br/>value = [45, 16]>, fillcolor="#e58139a4"] ;
839 -> 840 ;
841 [label=<GENDER &le; 0.5<br/>gini = 0.391<br/>samples = 60<br/>value = [44, 16]>, fillcolor="#e58139a2"] ;
840 -> 841 ;
842 [label=<gini = 0.278<br/>samples = 6<br/>value = [5, 1]>, fillcolor="#e58139cc"] ;
841 -> 842 ;
843 [label=<NO_OF_DEPENDENTS &le; 1.5<br/>gini = 0.401<br/>samples = 54<br/>value = [39, 15]>, fillcolor="#e581399d"] ;
841 -> 843 ;
844 [label=<Salary &le; 3.0<br/>gini = 0.497<br/>samples = 13<br/>value = [7, 6]>, fillcolor="#e5813924"] ;
843 -> 844 ;
845 [label=<gini = 0.49<br/>samples = 7<br/>value = [4, 3]>, fillcolor="#e5813940"] ;
844 -> 845 ;
846 [label=<gini = 0.5<br/>samples = 6<br/>value = [3, 3]>, fillcolor="#e5813900"] ;
844 -> 846 ;
847 [label=<BOOKDUES_FOR_NPA/ NORMAL_AS_ON_310618' &le; -0.005<br/>gini = 0.343<br/>samples = 41<br/>value = [32, 9]>, fillcolor="#e58139b7"] ;
843 -> 847 ;
848 [label=<gini = 0.0<br/>samples = 1<br/>value = [0, 1]>, fillcolor="#399de5ff"] ;
847 -> 848 ;
849 [label=<AGE &le; 61.5<br/>gini = 0.32<br/>samples = 40<br/>value = [32, 8]>, fillcolor="#e58139bf"] ;
847 -> 849 ;
850 [label=<AUTO_STATUS &le; 2.5<br/>gini = 0.301<br/>samples = 38<br/>value = [31, 7]>, fillcolor="#e58139c5"] ;
849 -> 850 ;
851 [label=<BRANCH STATUS' &le; 1.5<br/>gini = 0.307<br/>samples = 37<br/>value = [30, 7]>, fillcolor="#e58139c4"] ;
850 -> 851 ;
852 [label=<AGE &le; 39.5<br/>gini = 0.375<br/>samples = 20<br/>value = [15, 5]>, fillcolor="#e58139aa"] ;
851 -> 852 ;
853 [label=<gini = 0.0<br/>samples = 3<br/>value = [3, 0]>, fillcolor="#e58139ff"] ;
852 -> 853 ;
854 [label=<NO_OF_DEPENDENTS &le; 2.5<br/>gini = 0.415<br/>samples = 17<br/>value = [12, 5]>, fillcolor="#e5813995"] ;
852 -> 854 ;
855 [label=<gini = 0.49<br/>samples = 7<br/>value = [3, 4]>, fillcolor="#399de540"] ;
854 -> 855 ;
856 [label=<BRANCH STATUS' &le; 0.5<br/>gini = 0.18<br/>samples = 10<br/>value = [9, 1]>, fillcolor="#e58139e3"] ;
854 -> 856 ;
857 [label=<gini = 0.219<br/>samples = 8<br/>value = [7, 1]>, fillcolor="#e58139db"] ;
856 -> 857 ;
