digraph Tree {
node [shape=box, style="filled, rounded", color="black", fontname=helvetica] ;
edge [fontname=helvetica] ;
0 [label=<BOOKDUES_FOR_NPA/ NORMAL_AS_ON_310618' &le; 6540.91<br/>gini = 0.446<br/>samples = 12000<br/>value = [7965, 4035]>, fillcolor="#e581397e"] ;
1 [label=<CARD_TYPE<SUB>0</SUB> &le; 0.5<br/>gini = 0.32<br/>samples = 8060<br/>value = [6446, 1614]>, fillcolor="#e58139bf"] ;
0 -> 1 [labeldistance=2.5, labelangle=45, headlabel="True"] ;
2 [label=<saving ACC_OPEN_DATE' &le; 20100710.0<br/>gini = 0.251<br/>samples = 7560<br/>value = [6446, 1114]>, fillcolor="#e58139d3"] ;
1 -> 2 ;
3 [label=<MBS &le; 0.5<br/>gini = 0.318<br/>samples = 4921<br/>value = [3943, 978]>, fillcolor="#e58139c0"] ;
2 -> 3 ;
4 [label=<FDRD &le; 1.5<br/>gini = 0.385<br/>samples = 3314<br/>value = [2453, 861]>, fillcolor="#e58139a5"] ;
3 -> 4 ;
5 [label=<saving ACC_OPEN_DATE' &le; 20060727.0<br/>gini = 0.421<br/>samples = 2771<br/>value = [1935, 836]>, fillcolor="#e5813991"] ;
4 -> 5 ;
6 [label=<IBS &le; 0.5<br/>gini = 0.325<br/>samples = 980<br/>value = [780, 200]>, fillcolor="#e58139be"] ;
5 -> 6 ;
7 [label=<AUTO_STATUS &le; 2.5<br/>gini = 0.435<br/>samples = 460<br/>value = [313, 147]>, fillcolor="#e5813987"] ;
6 -> 7 ;
8 [label=<LOAN ' &le; 1.0<br/>gini = 0.441<br/>samples = 447<br/>value = [300, 147]>, fillcolor="#e5813982"] ;
7 -> 8 ;
9 [label=<OCCUPATION &le; 9.0<br/>gini = 0.466<br/>samples = 387<br/>value = [244, 143]>, fillcolor="#e581396a"] ;
8 -> 9 ;
10 [label=<AGE &le; 42.5<br/>gini = 0.355<br/>samples = 39<br/>value = [30, 9]>, fillcolor="#e58139b3"] ;
9 -> 10 ;
11 [label=<PHOTO_NON_PHOTOFLG &le; 1.0<br/>gini = 0.497<br/>samples = 13<br/>value = [7, 6]>, fillcolor="#e5813924"] ;
10 -> 11 ;
12 [label=<gini = 0.444<br/>samples = 9<br/>value = [6, 3]>, fillcolor="#e581397f"] ;
11 -> 12 ;
13 [label=<gini = 0.375<br/>samples = 4<br/>value = [1, 3]>, fillcolor="#399de5aa"] ;
11 -> 13 ;
14 [label=<BOOKDUES_FOR_NPA/ NORMAL_AS_ON_310618' &le; 4251.675<br/>gini = 0.204<br/>samples = 26<br/>value = [23, 3]>, fillcolor="#e58139de"] ;
10 -> 14 ;
15 [label=<BOOKDUES_FOR_NPA/ NORMAL_AS_ON_310618' &le; 0.125<br/>gini = 0.147<br/>samples = 25<br/>value = [23, 2]>, fillcolor="#e58139e9"] ;
14 -> 15 ;
16 [label=<saving ACC_OPEN_DATE' &le; 19960804.0<br/>gini = 0.095<br/>samples = 20<br/>value = [19, 1]>, fillcolor="#e58139f2"] ;
15 -> 16 ;
17 [label=<gini = 0.32<br/>samples = 5<br/>value = [4, 1]>, fillcolor="#e58139bf"] ;
16 -> 17 ;
18 [label=<gini = 0.0<br/>samples = 15<br/>value = [15, 0]>, fillcolor="#e58139ff"] ;
16 -> 18 ;
19 [label=<gini = 0.32<br/>samples = 5<br/>value = [4, 1]>, fillcolor="#e58139bf"] ;
15 -> 19 ;
20 [label=<gini = 0.0<br/>samples = 1<br/>value = [0, 1]>, fillcolor="#399de5ff"] ;
14 -> 20 ;
21 [label=<BOOKDUES_FOR_NPA/ NORMAL_AS_ON_310618' &le; 3213.525<br/>gini = 0.474<br/>samples = 348<br/>value = [214, 134]>, fillcolor="#e581395f"] ;
9 -> 21 ;
22 [label=<BRANCH STATUS' &le; 0.5<br/>gini = 0.458<br/>samples = 319<br/>value = [206, 113]>, fillcolor="#e5813973"] ;
21 -> 22 ;
23 [label=<OCCUPATION &le; 13.5<br/>gini = 0.491<br/>samples = 169<br/>value = [96, 73]>, fillcolor="#e581393d"] ;
22 -> 23 ;
24 [label=<BOOKDUES_FOR_NPA/ NORMAL_AS_ON_310618' &le; 540.0<br/>gini = 0.488<br/>samples = 26<br/>value = [11, 15]>, fillcolor="#399de544"] ;
23 -> 24 ;
25 [label=<saving ACC_OPEN_DATE' &le; 20045708.0<br/>gini = 0.476<br/>samples = 23<br/>value = [9, 14]>, fillcolor="#399de55b"] ;
24 -> 25 ;
26 [label=<PROFESSION &le; 26.5<br/>gini = 0.498<br/>samples = 15<br/>value = [8, 7]>, fillcolor="#e5813920"] ;
25 -> 26 ;
27 [label=<gini = 0.0<br/>samples = 2<br/>value = [0, 2]>, fillcolor="#399de5ff"] ;
26 -> 27 ;
28 [label=<SPOUSE WORKING' &le; 1.5<br/>gini = 0.473<br/>samples = 13<br/>value = [8, 5]>, fillcolor="#e5813960"] ;
26 -> 28 ;
29 [label=<gini = 0.5<br/>samples = 8<br/>value = [4, 4]>, fillcolor="#e5813900"] ;
28 -> 29 ;
30 [label=<gini = 0.32<br/>samples = 5<br/>value = [4, 1]>, fillcolor="#e58139bf"] ;
28 -> 30 ;
31 [label=<gini = 0.219<br/>samples = 8<br/>value = [1, 7]>, fillcolor="#399de5db"] ;
25 -> 31 ;
32 [label=<gini = 0.444<br/>samples = 3<br/>value = [2, 1]>, fillcolor="#e581397f"] ;
24 -> 32 ;
33 [label=<AGE &le; 59.5<br/>gini = 0.482<br/>samples = 143<br/>value = [85, 58]>, fillcolor="#e5813951"] ;
23 -> 33 ;
34 [label=<PROFESSION &le; 10.5<br/>gini = 0.493<br/>samples = 127<br/>value = [71, 56]>, fillcolor="#e5813936"] ;
33 -> 34 ;
35 [label=<gini = 0.0<br/>samples = 3<br/>value = [0, 3]>, fillcolor="#399de5ff"] ;
34 -> 35 ;
36 [label=<saving ACC_OPEN_DATE' &le; 20051168.0<br/>gini = 0.489<br/>samples = 124<br/>value = [71, 53]>, fillcolor="#e5813941"] ;
34 -> 36 ;
37 [label=<PHOTO_NON_PHOTOFLG &le; 1.0<br/>gini = 0.464<br/>samples = 101<br/>value = [64, 37]>, fillcolor="#e581396c"] ;
36 -> 37 ;
38 [label=<PROFESSION &le; 29.5<br/>gini = 0.393<br/>samples = 52<br/>value = [38, 14]>, fillcolor="#e58139a1"] ;
37 -> 38 ;
39 [label=<MARRIEDARITAL_SINGLETATUSINGLE &le; 1.5<br/>gini = 0.402<br/>samples = 43<br/>value = [31, 12]>, fillcolor="#e581399c"] ;
38 -> 39 ;
40 [label=<NO_OF_DEPENDENTS &le; 0.5<br/>gini = 0.375<br/>samples = 16<br/>value = [12, 4]>, fillcolor="#e58139aa"] ;
39 -> 40 ;
41 [label=<gini = 0.0<br/>samples = 3<br/>value = [3, 0]>, fillcolor="#e58139ff"] ;
40 -> 41 ;
42 [label=<Salary &le; 3.0<br/>gini = 0.426<br/>samples = 13<br/>value = [9, 4]>, fillcolor="#e581398e"] ;
40 -> 42 ;
43 [label=<gini = 0.278<br/>samples = 6<br/>value = [5, 1]>, fillcolor="#e58139cc"] ;
42 -> 43 ;
44 [label=<gini = 0.49<br/>samples = 7<br/>value = [4, 3]>, fillcolor="#e5813940"] ;
42 -> 44 ;
45 [label=<BOOKDUES_FOR_NPA/ NORMAL_AS_ON_310618' &le; 439.455<br/>gini = 0.417<br/>samples = 27<br/>value = [19, 8]>, fillcolor="#e5813994"] ;
39 -> 45 ;
46 [label=<NO_OF_DEPENDENTS &le; 3.5<br/>gini = 0.463<br/>samples = 22<br/>value = [14, 8]>, fillcolor="#e581396d"] ;
45 -> 46 ;
47 [label=<BOOKDUES_FOR_NPA/ NORMAL_AS_ON_310618' &le; -0.005<br/>gini = 0.432<br/>samples = 19<br/>value = [13, 6]>, fillcolor="#e5813989"] ;
46 -> 47 ;
48 [label=<gini = 0.0<br/>samples = 1<br/>value = [0, 1]>, fillcolor="#399de5ff"] ;
47 -> 48 ;
49 [label=<AGE &le; 34.0<br/>gini = 0.401<br/>samples = 18<br/>value = [13, 5]>, fillcolor="#e581399d"] ;
47 -> 49 ;
50 [label=<gini = 0.0<br/>samples = 3<br/>value = [3, 0]>, fillcolor="#e58139ff"] ;
49 -> 50 ;
51 [label=<NO_OF_DEPENDENTS &le; 2.5<br/>gini = 0.444<br/>samples = 15<br/>value = [10, 5]>, fillcolor="#e581397f"] ;
49 -> 51 ;
52 [label=<GENDER &le; 0.5<br/>gini = 0.496<br/>samples = 11<br/>value = [6, 5]>, fillcolor="#e581392a"] ;
51 -> 52 ;
53 [label=<gini = 0.0<br/>samples = 2<br/>value = [2, 0]>, fillcolor="#e58139ff"] ;
52 -> 53 ;
54 [label=<gini = 0.494<br/>samples = 9<br/>value = [4, 5]>, fillcolor="#399de533"] ;
52 -> 54 ;
55 [label=<gini = 0.0<br/>samples = 4<br/>value = [4, 0]>, fillcolor="#e58139ff"] ;
51 -> 55 ;
56 [label=<gini = 0.444<br/>samples = 3<br/>value = [1, 2]>, fillcolor="#399de57f"] ;
46 -> 56 ;
57 [label=<gini = 0.0<br/>samples = 5<br/>value = [5, 0]>, fillcolor="#e58139ff"] ;
45 -> 57 ;
58 [label=<gini = 0.346<br/>samples = 9<br/>value = [7, 2]>, fillcolor="#e58139b6"] ;
38 -> 58 ;
59 [label=<PROFESSION &le; 25.5<br/>gini = 0.498<br/>samples = 49<br/>value = [26, 23]>, fillcolor="#e581391d"] ;
37 -> 59 ;
60 [label=<BOOKDUES_FOR_NPA/ NORMAL_AS_ON_310618' &le; 201.11<br/>gini = 0.5<br/>samples = 35<br/>value = [17, 18]>, fillcolor="#399de50e"] ;
59 -> 60 ;
61 [label=<NO_OF_DEPENDENTS &le; 3.5<br/>gini = 0.495<br/>samples = 31<br/>value = [14, 17]>, fillcolor="#399de52d"] ;
60 -> 61 ;
62 [label=<BOOKDUES_FOR_NPA/ NORMAL_AS_ON_310618' &le; 0.56<br/>gini = 0.483<br/>samples = 27<br/>value = [11, 16]>, fillcolor="#399de550"] ;
61 -> 62 ;
63 [label=<MARRIEDARITAL_SINGLETATUSINGLE &le; 1.5<br/>gini = 0.493<br/>samples = 25<br/>value = [11, 14]>, fillcolor="#399de537"] ;
62 -> 63 ;
64 [label=<AGE &le; 50.5<br/>gini = 0.444<br/>samples = 12<br/>value = [8, 4]>, fillcolor="#e581397f"] ;
63 -> 64 ;
65 [label=<NO_OF_DEPENDENTS &le; 2.5<br/>gini = 0.32<br/>samples = 10<br/>value = [8, 2]>, fillcolor="#e58139bf"] ;
64 -> 65 ;
66 [label=<gini = 0.0<br/>samples = 7<br/>value = [7, 0]>, fillcolor="#e58139ff"] ;
65 -> 66 ;
67 [label=<gini = 0.444<br/>samples = 3<br/>value = [1, 2]>, fillcolor="#399de57f"] ;
65 -> 67 ;
68 [label=<gini = 0.0<br/>samples = 2<br/>value = [0, 2]>, fillcolor="#399de5ff"] ;
64 -> 68 ;
69 [label=<NO_OF_DEPENDENTS &le; 2.5<br/>gini = 0.355<br/>samples = 13<br/>value = [3, 10]>, fillcolor="#399de5b3"] ;
63 -> 69 ;
70 [label=<PROFESSION &le; 18.0<br/>gini = 0.397<br/>samples = 11<br/>value = [3, 8]>, fillcolor="#399de59f"] ;
69 -> 70 ;
71 [label=<gini = 0.0<br/>samples = 1<br/>value = [1, 0]>, fillcolor="#e58139ff"] ;
70 -> 71 ;
72 [label=<Salary &le; 3.0<br/>gini = 0.32<br/>samples = 10<br/>value = [2, 8]>, fillcolor="#399de5bf"] ;
70 -> 72 ;
73 [label=<gini = 0.48<br/>samples = 5<br/>value = [2, 3]>, fillcolor="#399de555"] ;
72 -> 73 ;
74 [label=<gini = 0.0<br/>samples = 5<br/>value = [0, 5]>, fillcolor="#399de5ff"] ;
72 -> 74 ;
75 [label=<gini = 0.0<br/>samples = 2<br/>value = [0, 2]>, fillcolor="#399de5ff"] ;
69 -> 75 ;
76 [label=<gini = 0.0<br/>samples = 2<br/>value = [0, 2]>, fillcolor="#399de5ff"] ;
62 -> 76 ;
77 [label=<gini = 0.375<br/>samples = 4<br/>value = [3, 1]>, fillcolor="#e58139aa"] ;
61 -> 77 ;
78 [label=<gini = 0.375<br/>samples = 4<br/>value = [3, 1]>, fillcolor="#e58139aa"] ;
60 -> 78 ;
79 [label=<BOOKDUES_FOR_NPA/ NORMAL_AS_ON_310618' &le; 124.5<br/>gini = 0.459<br/>samples = 14<br/>value = [9, 5]>, fillcolor="#e5813971"] ;
59 -> 79 ;
80 [label=<MARRIEDARITAL_SINGLETATUSINGLE &le; 1.5<br/>gini = 0.496<br/>samples = 11<br/>value = [6, 5]>, fillcolor="#e581392a"] ;
79 -> 80 ;
81 [label=<gini = 0.444<br/>samples = 6<br/>value = [2, 4]>, fillcolor="#399de57f"] ;
80 -> 81 ;
82 [label=<gini = 0.32<br/>samples = 5<br/>value = [4, 1]>, fillcolor="#e58139bf"] ;
80 -> 82 ;
83 [label=<gini = 0.0<br/>samples = 3<br/>value = [3, 0]>, fillcolor="#e58139ff"] ;
79 -> 83 ;
84 [label=<PHOTO_NON_PHOTOFLG &le; 1.0<br/>gini = 0.423<br/>samples = 23<br/>value = [7, 16]>, fillcolor="#399de58f"] ;
36 -> 84 ;
85 [label=<gini = 0.494<br/>samples = 9<br/>value = [4, 5]>, fillcolor="#399de533"] ;
84 -> 85 ;
86 [label=<AGE &le; 45.5<br/>gini = 0.337<br/>samples = 14<br/>value = [3, 11]>, fillcolor="#399de5b9"] ;
84 -> 86 ;
87 [label=<Salary &le; 3.0<br/>gini = 0.26<br/>samples = 13<br/>value = [2, 11]>, fillcolor="#399de5d1"] ;
86 -> 87 ;
88 [label=<gini = 0.0<br/>samples = 7<br/>value = [0, 7]>, fillcolor="#399de5ff"] ;
87 -> 88 ;
89 [label=<gini = 0.444<br/>samples = 6<br/>value = [2, 4]>, fillcolor="#399de57f"] ;
87 -> 89 ;
90 [label=<gini = 0.0<br/>samples = 1<br/>value = [1, 0]>, fillcolor="#e58139ff"] ;
86 -> 90 ;
91 [label=<NO_OF_DEPENDENTS &le; 3.5<br/>gini = 0.219<br/>samples = 16<br/>value = [14, 2]>, fillcolor="#e58139db"] ;
33 -> 91 ;
92 [label=<AGE &le; 64.5<br/>gini = 0.142<br/>samples = 13<br/>value = [12, 1]>, fillcolor="#e58139ea"] ;
91 -> 92 ;
93 [label=<gini = 0.278<br/>samples = 6<br/>value = [5, 1]>, fillcolor="#e58139cc"] ;
92 -> 93 ;
94 [label=<gini = 0.0<br/>samples = 7<br/>value = [7, 0]>, fillcolor="#e58139ff"] ;
92 -> 94 ;
95 [label=<gini = 0.444<br/>samples = 3<br/>value = [2, 1]>, fillcolor="#e581397f"] ;
91 -> 95 ;
96 [label=<PROFESSION &le; 8.5<br/>gini = 0.391<br/>samples = 150<br/>value = [110, 40]>, fillcolor="#e58139a2"] ;
22 -> 96 ;
97 [label=<gini = 0.0<br/>samples = 1<br/>value = [0, 1]>, fillcolor="#399de5ff"] ;
96 -> 97 ;
98 [label=<BRANCH STATUS' &le; 1.5<br/>gini = 0.386<br/>samples = 149<br/>value = [110, 39]>, fillcolor="#e58139a5"] ;
96 -> 98 ;
99 [label=<Salary &le; 3.0<br/>gini = 0.231<br/>samples = 15<br/>value = [13, 2]>, fillcolor="#e58139d8"] ;
98 -> 99 ;
100 [label=<gini = 0.375<br/>samples = 8<br/>value = [6, 2]>, fillcolor="#e58139aa"] ;
99 -> 100 ;
101 [label=<gini = 0.0<br/>samples = 7<br/>value = [7, 0]>, fillcolor="#e58139ff"] ;
99 -> 101 ;
102 [label=<NO_OF_DEPENDENTS &le; 1.5<br/>gini = 0.4<br/>samples = 134<br/>value = [97, 37]>, fillcolor="#e581399e"] ;
98 -> 102 ;
103 [label=<SPOUSE WORKING' &le; 1.5<br/>gini = 0.487<br/>samples = 43<br/>value = [25, 18]>, fillcolor="#e5813947"] ;
102 -> 103 ;
104 [label=<saving ACC_OPEN_DATE' &le; 20010102.0<br/>gini = 0.5<br/>samples = 32<br/>value = [16, 16]>, fillcolor="#e5813900"] ;
103 -> 104 ;
105 [label=<PROFESSION &le; 24.5<br/>gini = 0.426<br/>samples = 13<br/>value = [4, 9]>, fillcolor="#399de58e"] ;
104 -> 105 ;
106 [label=<gini = 0.494<br/>samples = 9<br/>value = [4, 5]>, fillcolor="#399de533"] ;
105 -> 106 ;
107 [label=<gini = 0.0<br/>samples = 4<br/>value = [0, 4]>, fillcolor="#399de5ff"] ;
105 -> 107 ;
108 [label=<BRANCH STATUS' &le; 2.5<br/>gini = 0.465<br/>samples = 19<br/>value = [12, 7]>, fillcolor="#e581396a"] ;
104 -> 108 ;
109 [label=<gini = 0.245<br/>samples = 7<br/>value = [6, 1]>, fillcolor="#e58139d4"] ;
108 -> 109 ;
110 [label=<BOOKDUES_FOR_NPA/ NORMAL_AS_ON_310618' &le; 0.11<br/>gini = 0.5<br/>samples = 12<br/>value = [6, 6]>, fillcolor="#e5813900"] ;
108 -> 110 ;
111 [label=<gini = 0.444<br/>samples = 9<br/>value = [6, 3]>, fillcolor="#e581397f"] ;
110 -> 111 ;
112 [label=<gini = 0.0<br/>samples = 3<br/>value = [0, 3]>, fillcolor="#399de5ff"] ;
110 -> 112 ;
113 [label=<Salary &le; 7.5<br/>gini = 0.298<br/>samples = 11<br/>value = [9, 2]>, fillcolor="#e58139c6"] ;
103 -> 113 ;
114 [label=<PHOTO_NON_PHOTOFLG &le; 1.0<br/>gini = 0.32<br/>samples = 10<br/>value = [8, 2]>, fillcolor="#e58139bf"] ;
113 -> 114 ;
115 [label=<gini = 0.444<br/>samples = 3<br/>value = [2, 1]>, fillcolor="#e581397f"] ;
114 -> 115 ;
116 [label=<gini = 0.245<br/>samples = 7<br/>value = [6, 1]>, fillcolor="#e58139d4"] ;
114 -> 116 ;
117 [label=<gini = 0.0<br/>samples = 1<br/>value = [1, 0]>, fillcolor="#e58139ff"] ;
113 -> 117 ;
118 [label=<GENDER &le; 0.5<br/>gini = 0.33<br/>samples = 91<br/>value = [72, 19]>, fillcolor="#e58139bc"] ;
102 -> 118 ;
119 [label=<gini = 0.0<br/>samples = 6<br/>value = [6, 0]>, fillcolor="#e58139ff"] ;
118 -> 119 ;
120 [label=<OCCUPATION &le; 24.0<br/>gini = 0.347<br/>samples = 85<br/>value = [66, 19]>, fillcolor="#e58139b6"] ;
118 -> 120 ;
121 [label=<saving ACC_OPEN_DATE' &le; 19990512.0<br/>gini = 0.444<br/>samples = 21<br/>value = [14, 7]>, fillcolor="#e581397f"] ;
120 -> 121 ;
122 [label=<gini = 0.0<br/>samples = 4<br/>value = [4, 0]>, fillcolor="#e58139ff"] ;
121 -> 122 ;
123 [label=<AGE &le; 36.5<br/>gini = 0.484<br/>samples = 17<br/>value = [10, 7]>, fillcolor="#e581394d"] ;
121 -> 123 ;
124 [label=<gini = 0.0<br/>samples = 3<br/>value = [3, 0]>, fillcolor="#e58139ff"] ;
123 -> 124 ;
125 [label=<OCCUPATION &le; 17.5<br/>gini = 0.5<br/>samples = 14<br/>value = [7, 7]>, fillcolor="#e5813900"] ;
123 -> 125 ;
126 [label=<gini = 0.444<br/>samples = 9<br/>value = [6, 3]>, fillcolor="#e581397f"] ;
125 -> 126 ;
127 [label=<gini = 0.32<br/>samples = 5<br/>value = [1, 4]>, fillcolor="#399de5bf"] ;
125 -> 127 ;
128 [label=<CIBIL_SCORE &le; 0.5<br/>gini = 0.305<br/>samples = 64<br/>value = [52, 12]>, fillcolor="#e58139c4"] ;
120 -> 128 ;
129 [label=<gini = 0.0<br/>samples = 1<br/>value = [1, 0]>, fillcolor="#e58139ff"] ;
128 -> 129 ;
130 [label=<AGE &le; 45.5<br/>gini = 0.308<br/>samples = 63<br/>value = [51, 12]>, fillcolor="#e58139c3"] ;
128 -> 130 ;
131 [label=<OCCUPATION &le; 33.5<br/>gini = 0.422<br/>samples = 33<br/>value = [23, 10]>, fillcolor="#e5813990"] ;
130 -> 131 ;
132 [label=<PROFESSION &le; 25.5<br/>gini = 0.34<br/>samples = 23<br/>value = [18, 5]>, fillcolor="#e58139b8"] ;
131 -> 132 ;
133 [label=<PHOTO_NON_PHOTOFLG &le; 1.0<br/>gini = 0.388<br/>samples = 19<br/>value = [14, 5]>, fillcolor="#e58139a4"] ;
132 -> 133 ;
134 [label=<saving ACC_OPEN_DATE' &le; 20060265.0<br/>gini = 0.32<br/>samples = 15<br/>value = [12, 3]>, fillcolor="#e58139bf"] ;
133 -> 134 ;
135 [label=<AGE &le; 43.5<br/>gini = 0.142<br/>samples = 13<br/>value = [12, 1]>, fillcolor="#e58139ea"] ;
134 -> 135 ;
136 [label=<gini = 0.0<br/>samples = 11<br/>value = [11, 0]>, fillcolor="#e58139ff"] ;
135 -> 136 ;
137 [label=<gini = 0.5<br/>samples = 2<br/>value = [1, 1]>, fillcolor="#e5813900"] ;
135 -> 137 ;
138 [label=<gini = 0.0<br/>samples = 2<br/>value = [0, 2]>, fillcolor="#399de5ff"] ;
134 -> 138 ;
139 [label=<gini = 0.5<br/>samples = 4<br/>value = [2, 2]>, fillcolor="#e5813900"] ;
133 -> 139 ;
140 [label=<gini = 0.0<br/>samples = 4<br/>value = [4, 0]>, fillcolor="#e58139ff"] ;
132 -> 140 ;
141 [label=<BOOKDUES_FOR_NPA/ NORMAL_AS_ON_310618' &le; 0.56<br/>gini = 0.5<br/>samples = 10<br/>value = [5, 5]>, fillcolor="#e5813900"] ;
131 -> 141 ;
142 [label=<gini = 0.494<br/>samples = 9<br/>value = [5, 4]>, fillcolor="#e5813933"] ;
141 -> 142 ;
143 [label=<gini = 0.0<br/>samples = 1<br/>value = [0, 1]>, fillcolor="#399de5ff"] ;
141 -> 143 ;
144 [label=<MARRIEDARITAL_SINGLETATUSINGLE &le; 1.5<br/>gini = 0.124<br/>samples = 30<br/>value = [28, 2]>, fillcolor="#e58139ed"] ;
130 -> 144 ;
145 [label=<gini = 0.245<br/>samples = 7<br/>value = [6, 1]>, fillcolor="#e58139d4"] ;
144 -> 145 ;
146 [label=<NO_OF_DEPENDENTS &le; 2.5<br/>gini = 0.083<br/>samples = 23<br/>value = [22, 1]>, fillcolor="#e58139f3"] ;
144 -> 146 ;
147 [label=<gini = 0.245<br/>samples = 7<br/>value = [6, 1]>, fillcolor="#e58139d4"] ;
146 -> 147 ;
148 [label=<gini = 0.0<br/>samples = 16<br/>value = [16, 0]>, fillcolor="#e58139ff"] ;
146 -> 148 ;
149 [label=<BOOKDUES_FOR_NPA/ NORMAL_AS_ON_310618' &le; 6127.715<br/>gini = 0.4<br/>samples = 29<br/>value = [8, 21]>, fillcolor="#399de59e"] ;
21 -> 149 ;
150 [label=<OCCUPATION &le; 13.0<br/>gini = 0.269<br/>samples = 25<br/>value = [4, 21]>, fillcolor="#399de5ce"] ;
149 -> 150 ;
151 [label=<gini = 0.5<br/>samples = 4<br/>value = [2, 2]>, fillcolor="#e5813900"] ;
150 -> 151 ;
152 [label=<GENDER &le; 0.5<br/>gini = 0.172<br/>samples = 21<br/>value = [2, 19]>, fillcolor="#399de5e4"] ;
150 -> 152 ;
153 [label=<gini = 0.444<br/>samples = 3<br/>value = [1, 2]>, fillcolor="#399de57f"] ;
152 -> 153 ;
154 [label=<NO_OF_DEPENDENTS &le; 2.5<br/>gini = 0.105<br/>samples = 18<br/>value = [1, 17]>, fillcolor="#399de5f0"] ;
152 -> 154 ;
155 [label=<gini = 0.198<br/>samples = 9<br/>value = [1, 8]>, fillcolor="#399de5df"] ;
154 -> 155 ;
156 [label=<gini = 0.0<br/>samples = 9<br/>value = [0, 9]>, fillcolor="#399de5ff"] ;
154 -> 156 ;
157 [label=<gini = 0.0<br/>samples = 4<br/>value = [4, 0]>, fillcolor="#e58139ff"] ;
149 -> 157 ;
158 [label=<BOOKDUES_FOR_NPA/ NORMAL_AS_ON_310618' &le; -2500.0<br/>gini = 0.124<br/>samples = 60<br/>value = [56, 4]>, fillcolor="#e58139ed"] ;
8 -> 158 ;
159 [label=<gini = 0.0<br/>samples = 1<br/>value = [0, 1]>, fillcolor="#399de5ff"] ;
158 -> 159 ;
160 [label=<OCCUPATION &le; 9.0<br/>gini = 0.097<br/>samples = 59<br/>value = [56, 3]>, fillcolor="#e58139f1"] ;
158 -> 160 ;
161 [label=<gini = 0.32<br/>samples = 5<br/>value = [4, 1]>, fillcolor="#e58139bf"] ;
160 -> 161 ;
162 [label=<PHOTO_NON_PHOTOFLG &le; 1.0<br/>gini = 0.071<br/>samples = 54<br/>value = [52, 2]>, fillcolor="#e58139f5"] ;
160 -> 162 ;
163 [label=<Salary &le; 3.0<br/>gini = 0.054<br/>samples = 36<br/>value = [35, 1]>, fillcolor="#e58139f8"] ;
162 -> 163 ;
164 [label=<BOOKDUES_FOR_NPA/ NORMAL_AS_ON_310618' &le; 3500.795<br/>gini = 0.1<br/>samples = 19<br/>value = [18, 1]>, fillcolor="#e58139f1"] ;
163 -> 164 ;
165 [label=<gini = 0.0<br/>samples = 18<br/>value = [18, 0]>, fillcolor="#e58139ff"] ;
164 -> 165 ;
166 [label=<gini = 0.0<br/>samples = 1<br/>value = [0, 1]>, fillcolor="#399de5ff"] ;
164 -> 166 ;
167 [label=<gini = 0.0<br/>samples = 17<br/>value = [17, 0]>, fillcolor="#e58139ff"] ;
163 -> 167 ;
168 [label=<NO_OF_YRS_AT_RES &le; 3.5<br/>gini = 0.105<br/>samples = 18<br/>value = [17, 1]>, fillcolor="#e58139f0"] ;
162 -> 168 ;
169 [label=<saving ACC_OPEN_DATE' &le; 20000573.0<br/>gini = 0.111<br/>samples = 17<br/>value = [16, 1]>, fillcolor="#e58139ef"] ;
168 -> 169 ;
170 [label=<gini = 0.245<br/>samples = 7<br/>value = [6, 1]>, fillcolor="#e58139d4"] ;
169 -> 170 ;
171 [label=<gini = 0.0<br/>samples = 10<br/>value = [10, 0]>, fillcolor="#e58139ff"] ;
169 -> 171 ;
172 [label=<gini = 0.0<br/>samples = 1<br/>value = [1, 0]>, fillcolor="#e58139ff"] ;
168 -> 172 ;
173 [label=<gini = 0.0<br/>samples = 13<br/>value = [13, 0]>, fillcolor="#e58139ff"] ;
7 -> 173 ;
174 [label=<NO_OF_DEPENDENTS &le; 2.5<br/>gini = 0.183<br/>samples = 520<br/>value = [467, 53]>, fillcolor="#e58139e2"] ;
6 -> 174 ;
175 [label=<saving ACC_OPEN_DATE' &le; 20050923.0<br/>gini = 0.223<br/>samples = 352<br/>value = [307, 45]>, fillcolor="#e58139da"] ;
174 -> 175 ;
176 [label=<NO_OF_YRS_AT_RES &le; 4.0<br/>gini = 0.265<br/>samples = 248<br/>value = [209, 39]>, fillcolor="#e58139cf"] ;
175 -> 176 ;
177 [label=<BRANCH STATUS' &le; 0.5<br/>gini = 0.269<br/>samples = 244<br/>value = [205, 39]>, fillcolor="#e58139ce"] ;
176 -> 177 ;
178 [label=<AGE &le; 40.5<br/>gini = 0.305<br/>samples = 117<br/>value = [95, 22]>, fillcolor="#e58139c4"] ;
177 -> 178 ;
179 [label=<LOAN ' &le; 1.0<br/>gini = 0.419<br/>samples = 57<br/>value = [40, 17]>, fillcolor="#e5813993"] ;
178 -> 179 ;
180 [label=<SPOUSE WORKING' &le; 1.5<br/>gini = 0.423<br/>samples = 56<br/>value = [39, 17]>, fillcolor="#e5813990"] ;
179 -> 180 ;
181 [label=<NO_OF_DEPENDENTS &le; 1.5<br/>gini = 0.427<br/>samples = 42<br/>value = [29, 13]>, fillcolor="#e581398d"] ;
180 -> 181 ;
182 [label=<GENDER &le; 0.5<br/>gini = 0.475<br/>samples = 31<br/>value = [19, 12]>, fillcolor="#e581395e"] ;
181 -> 182 ;
183 [label=<gini = 0.375<br/>samples = 4<br/>value = [3, 1]>, fillcolor="#e58139aa"] ;
182 -> 183 ;
184 [label=<OCCUPATION &le; 18.0<br/>gini = 0.483<br/>samples = 27<br/>value = [16, 11]>, fillcolor="#e5813950"] ;
182 -> 184 ;
185 [label=<gini = 0.0<br/>samples = 1<br/>value = [0, 1]>, fillcolor="#399de5ff"] ;
184 -> 185 ;
186 [label=<OCCUPATION &le; 33.5<br/>gini = 0.473<br/>samples = 26<br/>value = [16, 10]>, fillcolor="#e5813960"] ;
184 -> 186 ;
187 [label=<AGE &le; 34.5<br/>gini = 0.461<br/>samples = 25<br/>value = [16, 9]>, fillcolor="#e5813970"] ;
186 -> 187 ;
188 [label=<NO_OF_DEPENDENTS &le; 0.5<br/>gini = 0.49<br/>samples = 14<br/>value = [8, 6]>, fillcolor="#e5813940"] ;
187 -> 188 ;
189 [label=<AGE &le; 32.5<br/>gini = 0.486<br/>samples = 12<br/>value = [7, 5]>, fillcolor="#e5813949"] ;
188 -> 189 ;
190 [label=<gini = 0.408<br/>samples = 7<br/>value = [5, 2]>, fillcolor="#e5813999"] ;
189 -> 190 ;
191 [label=<gini = 0.48<br/>samples = 5<br/>value = [2, 3]>, fillcolor="#399de555"] ;
189 -> 191 ;
192 [label=<gini = 0.5<br/>samples = 2<br/>value = [1, 1]>, fillcolor="#e5813900"] ;
188 -> 192 ;
193 [label=<AGE &le; 38.5<br/>gini = 0.397<br/>samples = 11<br/>value = [8, 3]>, fillcolor="#e581399f"] ;
187 -> 193 ;
194 [label=<PHOTO_NON_PHOTOFLG &le; 1.0<br/>gini = 0.42<br/>samples = 10<br/>value = [7, 3]>, fillcolor="#e5813992"] ;
193 -> 194 ;
195 [label=<gini = 0.32<br/>samples = 5<br/>value = [4, 1]>, fillcolor="#e58139bf"] ;
194 -> 195 ;
196 [label=<gini = 0.48<br/>samples = 5<br/>value = [3, 2]>, fillcolor="#e5813955"] ;
194 -> 196 ;
197 [label=<gini = 0.0<br/>samples = 1<br/>value = [1, 0]>, fillcolor="#e58139ff"] ;
193 -> 197 ;
198 [label=<gini = 0.0<br/>samples = 1<br/>value = [0, 1]>, fillcolor="#399de5ff"] ;
186 -> 198 ;
199 [label=<BOOKDUES_FOR_NPA/ NORMAL_AS_ON_310618' &le; 365.5<br/>gini = 0.165<br/>samples = 11<br/>value = [10, 1]>, fillcolor="#e58139e6"] ;
181 -> 199 ;
200 [label=<gini = 0.219<br/>samples = 8<br/>value = [7, 1]>, fillcolor="#e58139db"] ;
199 -> 200 ;
201 [label=<gini = 0.0<br/>samples = 3<br/>value = [3, 0]>, fillcolor="#e58139ff"] ;
199 -> 201 ;
202 [label=<AGE &le; 36.5<br/>gini = 0.408<br/>samples = 14<br/>value = [10, 4]>, fillcolor="#e5813999"] ;
180 -> 202 ;
203 [label=<gini = 0.0<br/>samples = 6<br/>value = [6, 0]>, fillcolor="#e58139ff"] ;
202 -> 203 ;
204 [label=<gini = 0.5<br/>samples = 8<br/>value = [4, 4]>, fillcolor="#e5813900"] ;
202 -> 204 ;
205 [label=<gini = 0.0<br/>samples = 1<br/>value = [1, 0]>, fillcolor="#e58139ff"] ;
179 -> 205 ;
206 [label=<NO_OF_DEPENDENTS &le; 1.5<br/>gini = 0.153<br/>samples = 60<br/>value = [55, 5]>, fillcolor="#e58139e8"] ;
178 -> 206 ;
207 [label=<BOOKDUES_FOR_NPA/ NORMAL_AS_ON_310618' &le; 511.07<br/>gini = 0.08<br/>samples = 24<br/>value = [23, 1]>, fillcolor="#e58139f4"] ;
206 -> 207 ;
208 [label=<gini = 0.0<br/>samples = 18<br/>value = [18, 0]>, fillcolor="#e58139ff"] ;
207 -> 208 ;
209 [label=<gini = 0.278<br/>samples = 6<br/>value = [5, 1]>, fillcolor="#e58139cc"] ;
207 -> 209 ;
210 [label=<GENDER &le; 0.5<br/>gini = 0.198<br/>samples = 36<br/>value = [32, 4]>, fillcolor="#e58139df"] ;
206 -> 210 ;
211 [label=<gini = 0.219<br/>samples = 8<br/>value = [7, 1]>, fillcolor="#e58139db"] ;
210 -> 211 ;
212 [label=<OCCUPATION &le; 29.5<br/>gini = 0.191<br/>samples = 28<br/>value = [25, 3]>, fillcolor="#e58139e0"] ;
210 -> 212 ;
213 [label=<PROFESSION &le; 24.0<br/>gini = 0.142<br/>samples = 26<br/>value = [24, 2]>, fillcolor="#e58139ea"] ;
212 -> 213 ;
214 [label=<AGE &le; 47.0<br/>gini = 0.165<br/>samples = 22<br/>value = [20, 2]>, fillcolor="#e58139e6"] ;
213 -> 214 ;
215 [label=<gini = 0.0<br/>samples = 12<br/>value = [12, 0]>, fillcolor="#e58139ff"] ;
214 -> 215 ;
216 [label=<SPOUSE WORKING' &le; 1.5<br/>gini = 0.32<br/>samples = 10<br/>value = [8, 2]>, fillcolor="#e58139bf"] ;
214 -> 216 ;
217 [label=<gini = 0.375<br/>samples = 4<br/>value = [3, 1]>, fillcolor="#e58139aa"] ;
216 -> 217 ;
218 [label=<gini = 0.278<br/>samples = 6<br/>value = [5, 1]>, fillcolor="#e58139cc"] ;
216 -> 218 ;
219 [label=<gini = 0.0<br/>samples = 4<br/>value = [4, 0]>, fillcolor="#e58139ff"] ;
213 -> 219 ;
220 [label=<gini = 0.5<br/>samples = 2<br/>value = [1, 1]>, fillcolor="#e5813900"] ;
212 -> 220 ;
221 [label=<PHOTO_NON_PHOTOFLG &le; 1.0<br/>gini = 0.232<br/>samples = 127<br/>value = [110, 17]>, fillcolor="#e58139d8"] ;
177 -> 221 ;
222 [label=<NO_OF_DEPENDENTS &le; 0.5<br/>gini = 0.142<br/>samples = 65<br/>value = [60, 5]>, fillcolor="#e58139ea"] ;
221 -> 222 ;
223 [label=<BOOKDUES_FOR_NPA/ NORMAL_AS_ON_310618' &le; 184.095<br/>gini = 0.278<br/>samples = 18<br/>value = [15, 3]>, fillcolor="#e58139cc"] ;
222 -> 223 ;
224 [label=<SPOUSE WORKING' &le; 1.5<br/>gini = 0.165<br/>samples = 11<br/>value = [10, 1]>, fillcolor="#e58139e6"] ;
223 -> 224 ;
225 [label=<gini = 0.0<br/>samples = 10<br/>value = [10, 0]>, fillcolor="#e58139ff"] ;
224 -> 225 ;
226 [label=<gini = 0.0<br/>samples = 1<br/>value = [0, 1]>, fillcolor="#399de5ff"] ;
224 -> 226 ;
227 [label=<gini = 0.408<br/>samples = 7<br/>value = [5, 2]>, fillcolor="#e5813999"] ;
223 -> 227 ;
228 [label=<BOOKDUES_FOR_NPA/ NORMAL_AS_ON_310618' &le; 6386.83<br/>gini = 0.081<br/>samples = 47<br/>value = [45, 2]>, fillcolor="#e58139f4"] ;
222 -> 228 ;
229 [label=<PROFESSION &le; 24.5<br/>gini = 0.043<br/>samples = 46<br/>value = [45, 1]>, fillcolor="#e58139f9"] ;
228 -> 229 ;
230 [label=<BOOKDUES_FOR_NPA/ NORMAL_AS_ON_310618' &le; 4596.805<br/>gini = 0.074<br/>samples = 26<br/>value = [25, 1]>, fillcolor="#e58139f5"] ;
229 -> 230 ;
231 [label=<gini = 0.0<br/>samples = 24<br/>value = [24, 0]>, fillcolor="#e58139ff"] ;
230 -> 231 ;
232 [label=<gini = 0.5<br/>samples = 2<br/>value = [1, 1]>, fillcolor="#e5813900"] ;
230 -> 232 ;
233 [label=<gini = 0.0<br/>samples = 20<br/>value = [20, 0]>, fillcolor="#e58139ff"] ;
229 -> 233 ;
234 [label=<gini = 0.0<br/>samples = 1<br/>value = [0, 1]>, fillcolor="#399de5ff"] ;
228 -> 234 ;
235 [label=<LOAN ' &le; 1.0<br/>gini = 0.312<br/>samples = 62<br/>value = [50, 12]>, fillcolor="#e58139c2"] ;
221 -> 235 ;
236 [label=<saving ACC_OPEN_DATE' &le; 20020371.0<br/>gini = 0.355<br/>samples = 52<br/>value = [40, 12]>, fillcolor="#e58139b3"] ;
235 -> 236 ;
237 [label=<Salary &le; 7.0<br/>gini = 0.415<br/>samples = 34<br/>value = [24, 10]>, fillcolor="#e5813995"] ;
236 -> 237 ;
238 [label=<PROFESSION &le; 26.5<br/>gini = 0.444<br/>samples = 30<br/>value = [20, 10]>, fillcolor="#e581397f"] ;
237 -> 238 ;
239 [label=<BRANCH STATUS' &le; 2.5<br/>gini = 0.48<br/>samples = 20<br/>value = [12, 8]>, fillcolor="#e5813955"] ;
238 -> 239 ;
240 [label=<gini = 0.278<br/>samples = 6<br/>value = [5, 1]>, fillcolor="#e58139cc"] ;
239 -> 240 ;
241 [label=<SPOUSE WORKING' &le; 1.5<br/>gini = 0.5<br/>samples = 14<br/>value = [7, 7]>, fillcolor="#e5813900"] ;
239 -> 241 ;
242 [label=<gini = 0.494<br/>samples = 9<br/>value = [5, 4]>, fillcolor="#e5813933"] ;
241 -> 242 ;
243 [label=<gini = 0.48<br/>samples = 5<br/>value = [2, 3]>, fillcolor="#399de555"] ;
241 -> 243 ;
244 [label=<GENDER &le; 0.5<br/>gini = 0.32<br/>samples = 10<br/>value = [8, 2]>, fillcolor="#e58139bf"] ;
238 -> 244 ;
245 [label=<gini = 0.0<br/>samples = 2<br/>value = [2, 0]>, fillcolor="#e58139ff"] ;
244 -> 245 ;
246 [label=<gini = 0.375<br/>samples = 8<br/>value = [6, 2]>, fillcolor="#e58139aa"] ;
244 -> 246 ;
247 [label=<gini = 0.0<br/>samples = 4<br/>value = [4, 0]>, fillcolor="#e58139ff"] ;
237 -> 247 ;
248 [label=<BOOKDUES_FOR_NPA/ NORMAL_AS_ON_310618' &le; 3380.575<br/>gini = 0.198<br/>samples = 18<br/>value = [16, 2]>, fillcolor="#e58139df"] ;
236 -> 248 ;
249 [label=<AGE &le; 49.0<br/>gini = 0.111<br/>samples = 17<br/>value = [16, 1]>, fillcolor="#e58139ef"] ;
248 -> 249 ;
250 [label=<gini = 0.0<br/>samples = 13<br/>value = [13, 0]>, fillcolor="#e58139ff"] ;
249 -> 250 ;
251 [label=<gini = 0.375<br/>samples = 4<br/>value = [3, 1]>, fillcolor="#e58139aa"] ;
249 -> 251 ;
252 [label=<gini = 0.0<br/>samples = 1<br/>value = [0, 1]>, fillcolor="#399de5ff"] ;
248 -> 252 ;
253 [label=<gini = 0.0<br/>samples = 10<br/>value = [10, 0]>, fillcolor="#e58139ff"] ;
235 -> 253 ;
254 [label=<gini = 0.0<br/>samples = 4<br/>value = [4, 0]>, fillcolor="#e58139ff"] ;
176 -> 254 ;
255 [label=<NO_OF_DEPENDENTS &le; 0.5<br/>gini = 0.109<br/>samples = 104<br/>value = [98, 6]>, fillcolor="#e58139ef"] ;
175 -> 255 ;
256 [label=<AGE &le; 32.5<br/>gini = 0.049<br/>samples = 40<br/>value = [39, 1]>, fillcolor="#e58139f8"] ;
255 -> 256 ;
257 [label=<BRANCH STATUS' &le; 1.0<br/>gini = 0.117<br/>samples = 16<br/>value = [15, 1]>, fillcolor="#e58139ee"] ;
256 -> 257 ;
258 [label=<PHOTO_NON_PHOTOFLG &le; 1.0<br/>gini = 0.165<br/>samples = 11<br/>value = [10, 1]>, fillcolor="#e58139e6"] ;
257 -> 258 ;
259 [label=<gini = 0.219<br/>samples = 8<br/>value = [7, 1]>, fillcolor="#e58139db"] ;
258 -> 259 ;
260 [label=<gini = 0.0<br/>samples = 3<br/>value = [3, 0]>, fillcolor="#e58139ff"] ;
258 -> 260 ;
261 [label=<gini = 0.0<br/>samples = 5<br/>value = [5, 0]>, fillcolor="#e58139ff"] ;
257 -> 261 ;
262 [label=<gini = 0.0<br/>samples = 24<br/>value = [24, 0]>, fillcolor="#e58139ff"] ;
256 -> 262 ;
263 [label=<AGE &le; 38.5<br/>gini = 0.144<br/>samples = 64<br/>value = [59, 5]>, fillcolor="#e58139e9"] ;
255 -> 263 ;
264 [label=<gini = 0.0<br/>samples = 26<br/>value = [26, 0]>, fillcolor="#e58139ff"] ;
263 -> 264 ;
265 [label=<saving ACC_OPEN_DATE' &le; 20060168.0<br/>gini = 0.229<br/>samples = 38<br/>value = [33, 5]>, fillcolor="#e58139d8"] ;
263 -> 265 ;
266 [label=<gini = 0.0<br/>samples = 9<br/>value = [9, 0]>, fillcolor="#e58139ff"] ;
265 -> 266 ;
267 [label=<LOAN ' &le; 1.0<br/>gini = 0.285<br/>samples = 29<br/>value = [24, 5]>, fillcolor="#e58139ca"] ;
265 -> 267 ;
268 [label=<BOOKDUES_FOR_NPA/ NORMAL_AS_ON_310618' &le; 2113.025<br/>gini = 0.32<br/>samples = 25<br/>value = [20, 5]>, fillcolor="#e58139bf"] ;
267 -> 268 ;
269 [label=<MARRIEDARITAL_SINGLETATUSINGLE &le; 1.5<br/>gini = 0.266<br/>samples = 19<br/>value = [16, 3]>, fillcolor="#e58139cf"] ;
268 -> 269 ;
270 [label=<gini = 0.346<br/>samples = 9<br/>value = [7, 2]>, fillcolor="#e58139b6"] ;
269 -> 270 ;
271 [label=<Salary &le; 3.0<br/>gini = 0.18<br/>samples = 10<br/>value = [9, 1]>, fillcolor="#e58139e3"] ;
269 -> 271 ;
272 [label=<gini = 0.32<br/>samples = 5<br/>value = [4, 1]>, fillcolor="#e58139bf"] ;
271 -> 272 ;
273 [label=<gini = 0.0<br/>samples = 5<br/>value = [5, 0]>, fillcolor="#e58139ff"] ;
271 -> 273 ;
274 [label=<gini = 0.444<br/>samples = 6<br/>value = [4, 2]>, fillcolor="#e581397f"] ;
268 -> 274 ;
275 [label=<gini = 0.0<br/>samples = 4<br/>value = [4, 0]>, fillcolor="#e58139ff"] ;
267 -> 275 ;
276 [label=<PHOTO_NON_PHOTOFLG &le; 1.0<br/>gini = 0.091<br/>samples = 168<br/>value = [160, 8]>, fillcolor="#e58139f2"] ;
174 -> 276 ;
277 [label=<MARRIEDARITAL_SINGLETATUSINGLE &le; 1.5<br/>gini = 0.025<br/>samples = 78<br/>value = [77, 1]>, fillcolor="#e58139fc"] ;
276 -> 277 ;
278 [label=<CREDIT_CARD_SCORE &le; 17.5<br/>gini = 0.05<br/>samples = 39<br/>value = [38, 1]>, fillcolor="#e58139f8"] ;
277 -> 278 ;
279 [label=<OCCUPATION &le; 18.0<br/>gini = 0.051<br/>samples = 38<br/>value = [37, 1]>, fillcolor="#e58139f8"] ;
278 -> 279 ;
280 [label=<gini = 0.0<br/>samples = 12<br/>value = [12, 0]>, fillcolor="#e58139ff"] ;
279 -> 280 ;
281 [label=<PROFESSION &le; 26.0<br/>gini = 0.074<br/>samples = 26<br/>value = [25, 1]>, fillcolor="#e58139f5"] ;
279 -> 281 ;
282 [label=<AGE &le; 56.5<br/>gini = 0.111<br/>samples = 17<br/>value = [16, 1]>, fillcolor="#e58139ef"] ;
281 -> 282 ;
283 [label=<gini = 0.0<br/>samples = 15<br/>value = [15, 0]>, fillcolor="#e58139ff"] ;
282 -> 283 ;
284 [label=<gini = 0.5<br/>samples = 2<br/>value = [1, 1]>, fillcolor="#e5813900"] ;
282 -> 284 ;
285 [label=<gini = 0.0<br/>samples = 9<br/>value = [9, 0]>, fillcolor="#e58139ff"] ;
281 -> 285 ;
286 [label=<gini = 0.0<br/>samples = 1<br/>value = [1, 0]>, fillcolor="#e58139ff"] ;
278 -> 286 ;
287 [label=<gini = 0.0<br/>samples = 39<br/>value = [39, 0]>, fillcolor="#e58139ff"] ;
277 -> 287 ;
288 [label=<OCCUPATION &le; 11.5<br/>gini = 0.143<br/>samples = 90<br/>value = [83, 7]>, fillcolor="#e58139e9"] ;
276 -> 288 ;
289 [label=<LOAN ' &le; 1.0<br/>gini = 0.208<br/>samples = 34<br/>value = [30, 4]>, fillcolor="#e58139dd"] ;
288 -> 289 ;
290 [label=<PROFESSION &le; 20.0<br/>gini = 0.133<br/>samples = 28<br/>value = [26, 2]>, fillcolor="#e58139eb"] ;
289 -> 290 ;
291 [label=<BRANCH STATUS' &le; 1.5<br/>gini = 0.245<br/>samples = 14<br/>value = [12, 2]>, fillcolor="#e58139d4"] ;
290 -> 291 ;
292 [label=<gini = 0.0<br/>samples = 5<br/>value = [5, 0]>, fillcolor="#e58139ff"] ;
291 -> 292 ;
293 [label=<gini = 0.346<br/>samples = 9<br/>value = [7, 2]>, fillcolor="#e58139b6"] ;
291 -> 293 ;
294 [label=<gini = 0.0<br/>samples = 14<br/>value = [14, 0]>, fillcolor="#e58139ff"] ;
290 -> 294 ;
295 [label=<gini = 0.444<br/>samples = 6<br/>value = [4, 2]>, fillcolor="#e581397f"] ;
289 -> 295 ;
296 [label=<saving ACC_OPEN_DATE' &le; 20040820.0<br/>gini = 0.101<br/>samples = 56<br/>value = [53, 3]>, fillcolor="#e58139f1"] ;
288 -> 296 ;
297 [label=<gini = 0.0<br/>samples = 43<br/>value = [43, 0]>, fillcolor="#e58139ff"] ;
296 -> 297 ;
298 [label=<saving ACC_OPEN_DATE' &le; 20045722.0<br/>gini = 0.355<br/>samples = 13<br/>value = [10, 3]>, fillcolor="#e58139b3"] ;
296 -> 298 ;
299 [label=<gini = 0.0<br/>samples = 1<br/>value = [0, 1]>, fillcolor="#399de5ff"] ;
298 -> 299 ;
300 [label=<LOAN ' &le; 1.0<br/>gini = 0.278<br/>samples = 12<br/>value = [10, 2]>, fillcolor="#e58139cc"] ;
298 -> 300 ;
301 [label=<gini = 0.198<br/>samples = 9<br/>value = [8, 1]>, fillcolor="#e58139df"] ;
300 -> 301 ;
302 [label=<gini = 0.444<br/>samples = 3<br/>value = [2, 1]>, fillcolor="#e581397f"] ;
300 -> 302 ;
303 [label=<CREDIT_CARD_SCORE &le; 3.0<br/>gini = 0.458<br/>samples = 1791<br/>value = [1155, 636]>, fillcolor="#e5813973"] ;
5 -> 303 ;
304 [label=<NO_OF_DEPENDENTS &le; 6.5<br/>gini = 0.463<br/>samples = 1748<br/>value = [1112, 636]>, fillcolor="#e581396d"] ;
303 -> 304 ;
305 [label=<PHOTO_NON_PHOTOFLG &le; 1.0<br/>gini = 0.462<br/>samples = 1741<br/>value = [1111, 630]>, fillcolor="#e581396e"] ;
304 -> 305 ;
306 [label=<Salary &le; 8.5<br/>gini = 0.372<br/>samples = 857<br/>value = [645, 212]>, fillcolor="#e58139ab"] ;
305 -> 306 ;
307 [label=<AGE &le; 32.5<br/>gini = 0.374<br/>samples = 852<br/>value = [640, 212]>, fillcolor="#e58139ab"] ;
306 -> 307 ;
308 [label=<OCCUPATION &le; 33.5<br/>gini = 0.211<br/>samples = 184<br/>value = [162, 22]>, fillcolor="#e58139dc"] ;
307 -> 308 ;
309 [label=<AUTO_STATUS &le; 2.5<br/>gini = 0.221<br/>samples = 174<br/>value = [152, 22]>, fillcolor="#e58139da"] ;
308 -> 309 ;
310 [label=<OCCUPATION &le; 9.5<br/>gini = 0.226<br/>samples = 169<br/>value = [147, 22]>, fillcolor="#e58139d9"] ;
309 -> 310 ;
311 [label=<gini = 0.0<br/>samples = 4<br/>value = [4, 0]>, fillcolor="#e58139ff"] ;
310 -> 311 ;
312 [label=<BOOKDUES_FOR_NPA/ NORMAL_AS_ON_310618' &le; 6266.5<br/>gini = 0.231<br/>samples = 165<br/>value = [143, 22]>, fillcolor="#e58139d8"] ;
310 -> 312 ;
313 [label=<saving ACC_OPEN_DATE' &le; 20070565.0<br/>gini = 0.216<br/>samples = 162<br/>value = [142, 20]>, fillcolor="#e58139db"] ;
312 -> 313 ;
314 [label=<saving ACC_OPEN_DATE' &le; 20060914.0<br/>gini = 0.061<br/>samples = 32<br/>value = [31, 1]>, fillcolor="#e58139f7"] ;
313 -> 314 ;
315 [label=<gini = 0.278<br/>samples = 6<br/>value = [5, 1]>, fillcolor="#e58139cc"] ;
314 -> 315 ;
316 [label=<gini = 0.0<br/>samples = 26<br/>value = [26, 0]>, fillcolor="#e58139ff"] ;
314 -> 316 ;
317 [label=<saving ACC_OPEN_DATE' &le; 20070614.0<br/>gini = 0.25<br/>samples = 130<br/>value = [111, 19]>, fillcolor="#e58139d3"] ;
313 -> 317 ;
318 [label=<gini = 0.0<br/>samples = 1<br/>value = [0, 1]>, fillcolor="#399de5ff"] ;
317 -> 318 ;
319 [label=<IBS &le; 0.5<br/>gini = 0.24<br/>samples = 129<br/>value = [111, 18]>, fillcolor="#e58139d6"] ;
317 -> 319 ;
320 [label=<saving ACC_OPEN_DATE' &le; 20080422.0<br/>gini = 0.387<br/>samples = 42<br/>value = [31, 11]>, fillcolor="#e58139a5"] ;
319 -> 320 ;
321 [label=<NO_OF_DEPENDENTS &le; 0.5<br/>gini = 0.124<br/>samples = 15<br/>value = [14, 1]>, fillcolor="#e58139ed"] ;
320 -> 321 ;
322 [label=<gini = 0.0<br/>samples = 9<br/>value = [9, 0]>, fillcolor="#e58139ff"] ;
321 -> 322 ;
323 [label=<gini = 0.278<br/>samples = 6<br/>value = [5, 1]>, fillcolor="#e58139cc"] ;
321 -> 323 ;
324 [label=<BOOKDUES_FOR_NPA/ NORMAL_AS_ON_310618' &le; 4542.0<br/>gini = 0.466<br/>samples = 27<br/>value = [17, 10]>, fillcolor="#e5813969"] ;
320 -> 324 ;
325 [label=<MARRIEDARITAL_SINGLETATUSINGLE &le; 1.5<br/>gini = 0.48<br/>samples = 25<br/>value = [15, 10]>, fillcolor="#e5813955"] ;
324 -> 325 ;
326 [label=<gini = 0.278<br/>samples = 6<br/>value = [5, 1]>, fillcolor="#e58139cc"] ;
325 -> 326 ;
327 [label=<saving ACC_OPEN_DATE' &le; 20085625.0<br/>gini = 0.499<br/>samples = 19<br/>value = [10, 9]>, fillcolor="#e5813919"] ;
325 -> 327 ;
328 [label=<gini = 0.408<br/>samples = 7<br/>value = [2, 5]>, fillcolor="#399de599"] ;
327 -> 328 ;
329 [label=<Salary &le; 3.0<br/>gini = 0.444<br/>samples = 12<br/>value = [8, 4]>, fillcolor="#e581397f"] ;
327 -> 329 ;
330 [label=<gini = 0.375<br/>samples = 8<br/>value = [6, 2]>, fillcolor="#e58139aa"] ;
329 -> 330 ;
331 [label=<gini = 0.5<br/>samples = 4<br/>value = [2, 2]>, fillcolor="#e5813900"] ;
329 -> 331 ;
332 [label=<gini = 0.0<br/>samples = 2<br/>value = [2, 0]>, fillcolor="#e58139ff"] ;
324 -> 332 ;
333 [label=<NO_OF_DEPENDENTS &le; 0.5<br/>gini = 0.148<br/>samples = 87<br/>value = [80, 7]>, fillcolor="#e58139e9"] ;
319 -> 333 ;
334 [label=<LOAN ' &le; 1.0<br/>gini = 0.188<br/>samples = 57<br/>value = [51, 6]>, fillcolor="#e58139e1"] ;
333 -> 334 ;
335 [label=<saving ACC_OPEN_DATE' &le; 20070958.0<br/>gini = 0.201<br/>samples = 53<br/>value = [47, 6]>, fillcolor="#e58139de"] ;
334 -> 335 ;
336 [label=<gini = 0.5<br/>samples = 4<br/>value = [2, 2]>, fillcolor="#e5813900"] ;
335 -> 336 ;
337 [label=<BRANCH STATUS' &le; 0.5<br/>gini = 0.15<br/>samples = 49<br/>value = [45, 4]>, fillcolor="#e58139e8"] ;
335 -> 337 ;
338 [label=<PROFESSION &le; 28.0<br/>gini = 0.245<br/>samples = 21<br/>value = [18, 3]>, fillcolor="#e58139d4"] ;
337 -> 338 ;
339 [label=<AGE &le; 29.5<br/>gini = 0.291<br/>samples = 17<br/>value = [14, 3]>, fillcolor="#e58139c8"] ;
338 -> 339 ;
340 [label=<gini = 0.0<br/>samples = 4<br/>value = [4, 0]>, fillcolor="#e58139ff"] ;
339 -> 340 ;
341 [label=<GENDER &le; 0.5<br/>gini = 0.355<br/>samples = 13<br/>value = [10, 3]>, fillcolor="#e58139b3"] ;
339 -> 341 ;
342 [label=<gini = 0.375<br/>samples = 4<br/>value = [3, 1]>, fillcolor="#e58139aa"] ;
341 -> 342 ;
343 [label=<gini = 0.346<br/>samples = 9<br/>value = [7, 2]>, fillcolor="#e58139b6"] ;
341 -> 343 ;
344 [label=<gini = 0.0<br/>samples = 4<br/>value = [4, 0]>, fillcolor="#e58139ff"] ;
338 -> 344 ;
345 [label=<Salary &le; 3.0<br/>gini = 0.069<br/>samples = 28<br/>value = [27, 1]>, fillcolor="#e58139f6"] ;
337 -> 345 ;
346 [label=<saving ACC_OPEN_DATE' &le; 20091110.0<br/>gini = 0.1<br/>samples = 19<br/>value = [18, 1]>, fillcolor="#e58139f1"] ;
345 -> 346 ;
347 [label=<gini = 0.0<br/>samples = 14<br/>value = [14, 0]>, fillcolor="#e58139ff"] ;
346 -> 347 ;
348 [label=<gini = 0.32<br/>samples = 5<br/>value = [4, 1]>, fillcolor="#e58139bf"] ;
346 -> 348 ;
349 [label=<gini = 0.0<br/>samples = 9<br/>value = [9, 0]>, fillcolor="#e58139ff"] ;
345 -> 349 ;
350 [label=<gini = 0.0<br/>samples = 4<br/>value = [4, 0]>, fillcolor="#e58139ff"] ;
334 -> 350 ;
351 [label=<AGE &le; 30.5<br/>gini = 0.064<br/>samples = 30<br/>value = [29, 1]>, fillcolor="#e58139f6"] ;
333 -> 351 ;
352 [label=<LOAN ' &le; 1.0<br/>gini = 0.165<br/>samples = 11<br/>value = [10, 1]>, fillcolor="#e58139e6"] ;
351 -> 352 ;
353 [label=<PROFESSION &le; 22.5<br/>gini = 0.18<br/>samples = 10<br/>value = [9, 1]>, fillcolor="#e58139e3"] ;
352 -> 353 ;
354 [label=<gini = 0.245<br/>samples = 7<br/>value = [6, 1]>, fillcolor="#e58139d4"] ;
353 -> 354 ;
355 [label=<gini = 0.0<br/>samples = 3<br/>value = [3, 0]>, fillcolor="#e58139ff"] ;
353 -> 355 ;
356 [label=<gini = 0.0<br/>samples = 1<br/>value = [1, 0]>, fillcolor="#e58139ff"] ;
352 -> 356 ;
357 [label=<gini = 0.0<br/>samples = 19<br/>value = [19, 0]>, fillcolor="#e58139ff"] ;
351 -> 357 ;
358 [label=<gini = 0.444<br/>samples = 3<br/>value = [1, 2]>, fillcolor="#399de57f"] ;
312 -> 358 ;
359 [label=<gini = 0.0<br/>samples = 5<br/>value = [5, 0]>, fillcolor="#e58139ff"] ;
309 -> 359 ;
360 [label=<gini = 0.0<br/>samples = 10<br/>value = [10, 0]>, fillcolor="#e58139ff"] ;
308 -> 360 ;
361 [label=<IBS &le; 0.5<br/>gini = 0.407<br/>samples = 668<br/>value = [478, 190]>, fillcolor="#e581399a"] ;
307 -> 361 ;
362 [label=<BOOKDUES_FOR_NPA/ NORMAL_AS_ON_310618' &le; 0.005<br/>gini = 0.486<br/>samples = 315<br/>value = [184, 131]>, fillcolor="#e5813949"] ;
361 -> 362 ;
363 [label=<GENDER &le; 0.5<br/>gini = 0.446<br/>samples = 209<br/>value = [139, 70]>, fillcolor="#e581397f"] ;
362 -> 363 ;
364 [label=<SPOUSE WORKING' &le; 1.5<br/>gini = 0.444<br/>samples = 18<br/>value = [12, 6]>, fillcolor="#e581397f"] ;
363 -> 364 ;
365 [label=<gini = 0.32<br/>samples = 5<br/>value = [4, 1]>, fillcolor="#e58139bf"] ;
364 -> 365 ;
366 [label=<Salary &le; 7.0<br/>gini = 0.473<br/>samples = 13<br/>value = [8, 5]>, fillcolor="#e5813960"] ;
364 -> 366 ;
367 [label=<BRANCH STATUS' &le; 0.5<br/>gini = 0.486<br/>samples = 12<br/>value = [7, 5]>, fillcolor="#e5813949"] ;
366 -> 367 ;
368 [label=<gini = 0.5<br/>samples = 6<br/>value = [3, 3]>, fillcolor="#e5813900"] ;
367 -> 368 ;
369 [label=<gini = 0.444<br/>samples = 6<br/>value = [4, 2]>, fillcolor="#e581397f"] ;
367 -> 369 ;
370 [label=<gini = 0.0<br/>samples = 1<br/>value = [1, 0]>, fillcolor="#e58139ff"] ;
366 -> 370 ;
371 [label=<AGE &le; 61.5<br/>gini = 0.446<br/>samples = 191<br/>value = [127, 64]>, fillcolor="#e581397e"] ;
363 -> 371 ;
372 [label=<PROFESSION &le; 14.5<br/>gini = 0.437<br/>samples = 186<br/>value = [126, 60]>, fillcolor="#e5813986"] ;
371 -> 372 ;
373 [label=<Salary &le; 3.0<br/>gini = 0.172<br/>samples = 21<br/>value = [19, 2]>, fillcolor="#e58139e4"] ;
372 -> 373 ;
374 [label=<gini = 0.0<br/>samples = 10<br/>value = [10, 0]>, fillcolor="#e58139ff"] ;
373 -> 374 ;
375 [label=<BRANCH STATUS' &le; 0.5<br/>gini = 0.298<br/>samples = 11<br/>value = [9, 2]>, fillcolor="#e58139c6"] ;
373 -> 375 ;
376 [label=<gini = 0.0<br/>samples = 2<br/>value = [0, 2]>, fillcolor="#399de5ff"] ;
375 -> 376 ;
377 [label=<gini = 0.0<br/>samples = 9<br/>value = [9, 0]>, fillcolor="#e58139ff"] ;
375 -> 377 ;
378 [label=<BRANCH STATUS' &le; 0.5<br/>gini = 0.456<br/>samples = 165<br/>value = [107, 58]>, fillcolor="#e5813975"] ;
372 -> 378 ;
379 [label=<LOAN ' &le; 1.0<br/>gini = 0.496<br/>samples = 79<br/>value = [43, 36]>, fillcolor="#e581392a"] ;
378 -> 379 ;
380 [label=<MARRIEDARITAL_SINGLETATUSINGLE &le; 1.5<br/>gini = 0.5<br/>samples = 70<br/>value = [34, 36]>, fillcolor="#399de50e"] ;
379 -> 380 ;
381 [label=<OCCUPATION &le; 13.5<br/>gini = 0.499<br/>samples = 38<br/>value = [18, 20]>, fillcolor="#399de519"] ;
380 -> 381 ;
382 [label=<gini = 0.375<br/>samples = 8<br/>value = [6, 2]>, fillcolor="#e58139aa"] ;
381 -> 382 ;
383 [label=<saving ACC_OPEN_DATE' &le; 20061019.0<br/>gini = 0.48<br/>samples = 30<br/>value = [12, 18]>, fillcolor="#399de555"] ;
381 -> 383 ;
384 [label=<gini = 0.0<br/>samples = 3<br/>value = [3, 0]>, fillcolor="#e58139ff"] ;
383 -> 384 ;
385 [label=<OCCUPATION &le; 24.0<br/>gini = 0.444<br/>samples = 27<br/>value = [9, 18]>, fillcolor="#399de57f"] ;
383 -> 385 ;
386 [label=<gini = 0.0<br/>samples = 4<br/>value = [0, 4]>, fillcolor="#399de5ff"] ;
385 -> 386 ;
387 [label=<PROFESSION &le; 26.0<br/>gini = 0.476<br/>samples = 23<br/>value = [9, 14]>, fillcolor="#399de55b"] ;
385 -> 387 ;
388 [label=<AGE &le; 35.5<br/>gini = 0.455<br/>samples = 20<br/>value = [7, 13]>, fillcolor="#399de576"] ;
387 -> 388 ;
389 [label=<gini = 0.0<br/>samples = 3<br/>value = [3, 0]>, fillcolor="#e58139ff"] ;
388 -> 389 ;
390 [label=<Salary &le; 3.0<br/>gini = 0.36<br/>samples = 17<br/>value = [4, 13]>, fillcolor="#399de5b1"] ;
388 -> 390 ;
391 [label=<gini = 0.219<br/>samples = 8<br/>value = [1, 7]>, fillcolor="#399de5db"] ;
390 -> 391 ;
392 [label=<gini = 0.444<br/>samples = 9<br/>value = [3, 6]>, fillcolor="#399de57f"] ;
390 -> 392 ;
393 [label=<gini = 0.444<br/>samples = 3<br/>value = [2, 1]>, fillcolor="#e581397f"] ;
387 -> 393 ;
394 [label=<OCCUPATION &le; 29.0<br/>gini = 0.5<br/>samples = 32<br/>value = [16, 16]>, fillcolor="#e5813900"] ;
380 -> 394 ;
395 [label=<NO_OF_DEPENDENTS &le; 2.5<br/>gini = 0.495<br/>samples = 29<br/>value = [16, 13]>, fillcolor="#e5813930"] ;
394 -> 395 ;
396 [label=<saving ACC_OPEN_DATE' &le; 20090616.0<br/>gini = 0.499<br/>samples = 25<br/>value = [13, 12]>, fillcolor="#e5813914"] ;
395 -> 396 ;
397 [label=<Salary &le; 7.0<br/>gini = 0.48<br/>samples = 20<br/>value = [8, 12]>, fillcolor="#399de555"] ;
396 -> 397 ;
398 [label=<saving ACC_OPEN_DATE' &le; 20080365.0<br/>gini = 0.415<br/>samples = 17<br/>value = [5, 12]>, fillcolor="#399de595"] ;
397 -> 398 ;
399 [label=<gini = 0.444<br/>samples = 6<br/>value = [4, 2]>, fillcolor="#e581397f"] ;
398 -> 399 ;
400 [label=<NO_OF_DEPENDENTS &le; 1.5<br/>gini = 0.165<br/>samples = 11<br/>value = [1, 10]>, fillcolor="#399de5e6"] ;
398 -> 400 ;
401 [label=<gini = 0.0<br/>samples = 6<br/>value = [0, 6]>, fillcolor="#399de5ff"] ;
400 -> 401 ;
402 [label=<gini = 0.32<br/>samples = 5<br/>value = [1, 4]>, fillcolor="#399de5bf"] ;
400 -> 402 ;
403 [label=<gini = 0.0<br/>samples = 3<br/>value = [3, 0]>, fillcolor="#e58139ff"] ;
397 -> 403 ;
404 [label=<gini = 0.0<br/>samples = 5<br/>value = [5, 0]>, fillcolor="#e58139ff"] ;
396 -> 404 ;
405 [label=<gini = 0.375<br/>samples = 4<br/>value = [3, 1]>, fillcolor="#e58139aa"] ;
395 -> 405 ;
406 [label=<gini = 0.0<br/>samples = 3<br/>value = [0, 3]>, fillcolor="#399de5ff"] ;
394 -> 406 ;
407 [label=<gini = 0.0<br/>samples = 9<br/>value = [9, 0]>, fillcolor="#e58139ff"] ;
379 -> 407 ;
408 [label=<NO_OF_DEPENDENTS &le; 4.5<br/>gini = 0.381<br/>samples = 86<br/>value = [64, 22]>, fillcolor="#e58139a7"] ;
378 -> 408 ;
409 [label=<SPOUSE WORKING' &le; 1.5<br/>gini = 0.353<br/>samples = 83<br/>value = [64, 19]>, fillcolor="#e58139b3"] ;
408 -> 409 ;
410 [label=<OCCUPATION &le; 24.0<br/>gini = 0.271<br/>samples = 31<br/>value = [26, 5]>, fillcolor="#e58139ce"] ;
409 -> 410 ;
411 [label=<gini = 0.0<br/>samples = 8<br/>value = [8, 0]>, fillcolor="#e58139ff"] ;
410 -> 411 ;
412 [label=<saving ACC_OPEN_DATE' &le; 20070462.0<br/>gini = 0.34<br/>samples = 23<br/>value = [18, 5]>, fillcolor="#e58139b8"] ;
410 -> 412 ;
413 [label=<gini = 0.5<br/>samples = 2<br/>value = [1, 1]>, fillcolor="#e5813900"] ;
412 -> 413 ;
414 [label=<saving ACC_OPEN_DATE' &le; 20075568.0<br/>gini = 0.308<br/>samples = 21<br/>value = [17, 4]>, fillcolor="#e58139c3"] ;
412 -> 414 ;
415 [label=<gini = 0.0<br/>samples = 5<br/>value = [5, 0]>, fillcolor="#e58139ff"] ;
414 -> 415 ;
416 [label=<Salary &le; 3.0<br/>gini = 0.375<br/>samples = 16<br/>value = [12, 4]>, fillcolor="#e58139aa"] ;
414 -> 416 ;
417 [label=<gini = 0.469<br/>samples = 8<br/>value = [5, 3]>, fillcolor="#e5813966"] ;
416 -> 417 ;
418 [label=<gini = 0.219<br/>samples = 8<br/>value = [7, 1]>, fillcolor="#e58139db"] ;
416 -> 418 ;
419 [label=<OCCUPATION &le; 31.0<br/>gini = 0.393<br/>samples = 52<br/>value = [38, 14]>, fillcolor="#e58139a1"] ;
409 -> 419 ;
420 [label=<BRANCH STATUS' &le; 1.5<br/>gini = 0.357<br/>samples = 43<br/>value = [33, 10]>, fillcolor="#e58139b2"] ;
419 -> 420 ;
421 [label=<gini = 0.198<br/>samples = 9<br/>value = [8, 1]>, fillcolor="#e58139df"] ;
420 -> 421 ;
422 [label=<saving ACC_OPEN_DATE' &le; 20080810.0<br/>gini = 0.389<br/>samples = 34<br/>value = [25, 9]>, fillcolor="#e58139a3"] ;
420 -> 422 ;
423 [label=<PROFESSION &le; 26.5<br/>gini = 0.291<br/>samples = 17<br/>value = [14, 3]>, fillcolor="#e58139c8"] ;
422 -> 423 ;
424 [label=<NO_OF_DEPENDENTS &le; 1.5<br/>gini = 0.245<br/>samples = 14<br/>value = [12, 2]>, fillcolor="#e58139d4"] ;
423 -> 424 ;
425 [label=<gini = 0.0<br/>samples = 3<br/>value = [3, 0]>, fillcolor="#e58139ff"] ;
424 -> 425 ;
426 [label=<saving ACC_OPEN_DATE' &le; 20080362.0<br/>gini = 0.298<br/>samples = 11<br/>value = [9, 2]>, fillcolor="#e58139c6"] ;
424 -> 426 ;
427 [label=<gini = 0.408<br/>samples = 7<br/>value = [5, 2]>, fillcolor="#e5813999"] ;
426 -> 427 ;
428 [label=<gini = 0.0<br/>samples = 4<br/>value = [4, 0]>, fillcolor="#e58139ff"] ;
426 -> 428 ;
429 [label=<gini = 0.444<br/>samples = 3<br/>value = [2, 1]>, fillcolor="#e581397f"] ;
423 -> 429 ;
430 [label=<Salary &le; 7.0<br/>gini = 0.457<br/>samples = 17<br/>value = [11, 6]>, fillcolor="#e5813974"] ;
422 -> 430 ;
431 [label=<LOAN ' &le; 1.0<br/>gini = 0.49<br/>samples = 14<br/>value = [8, 6]>, fillcolor="#e5813940"] ;
430 -> 431 ;
432 [label=<NO_OF_DEPENDENTS &le; 3.5<br/>gini = 0.497<br/>samples = 13<br/>value = [7, 6]>, fillcolor="#e5813924"] ;
431 -> 432 ;
433 [label=<NO_OF_DEPENDENTS &le; 1.5<br/>gini = 0.5<br/>samples = 12<br/>value = [6, 6]>, fillcolor="#e5813900"] ;
432 -> 433 ;
434 [label=<gini = 0.444<br/>samples = 3<br/>value = [2, 1]>, fillcolor="#e581397f"] ;
433 -> 434 ;
435 [label=<gini = 0.494<br/>samples = 9<br/>value = [4, 5]>, fillcolor="#399de533"] ;
433 -> 435 ;
436 [label=<gini = 0.0<br/>samples = 1<br/>value = [1, 0]>, fillcolor="#e58139ff"] ;
432 -> 436 ;
437 [label=<gini = 0.0<br/>samples = 1<br/>value = [1, 0]>, fillcolor="#e58139ff"] ;
431 -> 437 ;
438 [label=<gini = 0.0<br/>samples = 3<br/>value = [3, 0]>, fillcolor="#e58139ff"] ;
430 -> 438 ;
439 [label=<gini = 0.494<br/>samples = 9<br/>value = [5, 4]>, fillcolor="#e5813933"] ;
419 -> 439 ;
440 [label=<gini = 0.0<br/>samples = 3<br/>value = [0, 3]>, fillcolor="#399de5ff"] ;
408 -> 440 ;
441 [label=<gini = 0.32<br/>samples = 5<br/>value = [1, 4]>, fillcolor="#399de5bf"] ;
371 -> 441 ;
442 [label=<PROFESSION &le; 22.5<br/>gini = 0.489<br/>samples = 106<br/>value = [45, 61]>, fillcolor="#399de543"] ;
362 -> 442 ;
443 [label=<AGE &le; 38.5<br/>gini = 0.5<br/>samples = 71<br/>value = [36, 35]>, fillcolor="#e5813907"] ;
442 -> 443 ;
444 [label=<PROFESSION &le; 5.0<br/>gini = 0.457<br/>samples = 34<br/>value = [12, 22]>, fillcolor="#399de574"] ;
443 -> 444 ;
445 [label=<gini = 0.0<br/>samples = 1<br/>value = [1, 0]>, fillcolor="#e58139ff"] ;
444 -> 445 ;
446 [label=<AGE &le; 36.5<br/>gini = 0.444<br/>samples = 33<br/>value = [11, 22]>, fillcolor="#399de57f"] ;
444 -> 446 ;
447 [label=<PROFESSION &le; 13.5<br/>gini = 0.483<br/>samples = 22<br/>value = [9, 13]>, fillcolor="#399de54e"] ;
446 -> 447 ;
448 [label=<gini = 0.0<br/>samples = 3<br/>value = [0, 3]>, fillcolor="#399de5ff"] ;
447 -> 448 ;
449 [label=<BRANCH STATUS' &le; 1.0<br/>gini = 0.499<br/>samples = 19<br/>value = [9, 10]>, fillcolor="#399de519"] ;
447 -> 449 ;
450 [label=<OCCUPATION &le; 24.0<br/>gini = 0.48<br/>samples = 10<br/>value = [4, 6]>, fillcolor="#399de555"] ;
449 -> 450 ;
451 [label=<gini = 0.0<br/>samples = 1<br/>value = [1, 0]>, fillcolor="#e58139ff"] ;
450 -> 451 ;
452 [label=<gini = 0.444<br/>samples = 9<br/>value = [3, 6]>, fillcolor="#399de57f"] ;
450 -> 452 ;
453 [label=<gini = 0.494<br/>samples = 9<br/>value = [5, 4]>, fillcolor="#e5813933"] ;
449 -> 453 ;
454 [label=<BOOKDUES_FOR_NPA/ NORMAL_AS_ON_310618' &le; 374.77<br/>gini = 0.298<br/>samples = 11<br/>value = [2, 9]>, fillcolor="#399de5c6"] ;
446 -> 454 ;
455 [label=<gini = 0.0<br/>samples = 4<br/>value = [0, 4]>, fillcolor="#399de5ff"] ;
454 -> 455 ;
456 [label=<gini = 0.408<br/>samples = 7<br/>value = [2, 5]>, fillcolor="#399de599"] ;
454 -> 456 ;
457 [label=<saving ACC_OPEN_DATE' &le; 20075668.0<br/>gini = 0.456<br/>samples = 37<br/>value = [24, 13]>, fillcolor="#e5813975"] ;
443 -> 457 ;
458 [label=<saving ACC_OPEN_DATE' &le; 20070866.0<br/>gini = 0.305<br/>samples = 16<br/>value = [13, 3]>, fillcolor="#e58139c4"] ;
457 -> 458 ;
459 [label=<BOOKDUES_FOR_NPA/ NORMAL_AS_ON_310618' &le; 3202.185<br/>gini = 0.397<br/>samples = 11<br/>value = [8, 3]>, fillcolor="#e581399f"] ;
458 -> 459 ;
460 [label=<gini = 0.48<br/>samples = 5<br/>value = [2, 3]>, fillcolor="#399de555"] ;
459 -> 460 ;
461 [label=<gini = 0.0<br/>samples = 6<br/>value = [6, 0]>, fillcolor="#e58139ff"] ;
459 -> 461 ;
462 [label=<gini = 0.0<br/>samples = 5<br/>value = [5, 0]>, fillcolor="#e58139ff"] ;
458 -> 462 ;
463 [label=<BOOKDUES_FOR_NPA/ NORMAL_AS_ON_310618' &le; 173.415<br/>gini = 0.499<br/>samples = 21<br/>value = [11, 10]>, fillcolor="#e5813917"] ;
457 -> 463 ;
464 [label=<gini = 0.0<br/>samples = 4<br/>value = [0, 4]>, fillcolor="#399de5ff"] ;
463 -> 464 ;
465 [label=<BOOKDUES_FOR_NPA/ NORMAL_AS_ON_310618' &le; 1347.365<br/>gini = 0.457<br/>samples = 17<br/>value = [11, 6]>, fillcolor="#e5813974"] ;
463 -> 465 ;
466 [label=<gini = 0.198<br/>samples = 9<br/>value = [8, 1]>, fillcolor="#e58139df"] ;
465 -> 466 ;
467 [label=<gini = 0.469<br/>samples = 8<br/>value = [3, 5]>, fillcolor="#399de566"] ;
465 -> 467 ;
468 [label=<OCCUPATION &le; 31.5<br/>gini = 0.382<br/>samples = 35<br/>value = [9, 26]>, fillcolor="#399de5a7"] ;
442 -> 468 ;
469 [label=<Salary &le; 7.0<br/>gini = 0.417<br/>samples = 27<br/>value = [8, 19]>, fillcolor="#399de594"] ;
468 -> 469 ;
470 [label=<NO_OF_DEPENDENTS &le; 0.5<br/>gini = 0.34<br/>samples = 23<br/>value = [5, 18]>, fillcolor="#399de5b8"] ;
469 -> 470 ;
471 [label=<gini = 0.0<br/>samples = 5<br/>value = [0, 5]>, fillcolor="#399de5ff"] ;
470 -> 471 ;
472 [label=<GENDER &le; 0.5<br/>gini = 0.401<br/>samples = 18<br/>value = [5, 13]>, fillcolor="#399de59d"] ;
470 -> 472 ;
473 [label=<gini = 0.5<br/>samples = 2<br/>value = [1, 1]>, fillcolor="#e5813900"] ;
472 -> 473 ;
474 [label=<MARRIEDARITAL_SINGLETATUSINGLE &le; 1.5<br/>gini = 0.375<br/>samples = 16<br/>value = [4, 12]>, fillcolor="#399de5aa"] ;
472 -> 474 ;
475 [label=<Salary &le; 3.0<br/>gini = 0.42<br/>samples = 10<br/>value = [3, 7]>, fillcolor="#399de592"] ;
474 -> 475 ;
476 [label=<gini = 0.5<br/>samples = 4<br/>value = [2, 2]>, fillcolor="#e5813900"] ;
475 -> 476 ;
477 [label=<gini = 0.278<br/>samples = 6<br/>value = [1, 5]>, fillcolor="#399de5cc"] ;
475 -> 477 ;
478 [label=<gini = 0.278<br/>samples = 6<br/>value = [1, 5]>, fillcolor="#399de5cc"] ;
474 -> 478 ;
479 [label=<gini = 0.375<br/>samples = 4<br/>value = [3, 1]>, fillcolor="#e58139aa"] ;
469 -> 479 ;
480 [label=<gini = 0.219<br/>samples = 8<br/>value = [1, 7]>, fillcolor="#399de5db"] ;
468 -> 480 ;
481 [label=<BRANCH STATUS' &le; 0.5<br/>gini = 0.278<br/>samples = 353<br/>value = [294, 59]>, fillcolor="#e58139cc"] ;
361 -> 481 ;
482 [label=<NO_OF_DEPENDENTS &le; 2.5<br/>gini = 0.353<br/>samples = 157<br/>value = [121, 36]>, fillcolor="#e58139b3"] ;
481 -> 482 ;
483 [label=<AGE &le; 44.5<br/>gini = 0.373<br/>samples = 113<br/>value = [85, 28]>, fillcolor="#e58139ab"] ;
482 -> 483 ;
484 [label=<SPOUSE WORKING' &le; 1.5<br/>gini = 0.405<br/>samples = 92<br/>value = [66, 26]>, fillcolor="#e581399b"] ;
483 -> 484 ;
485 [label=<Salary &le; 7.0<br/>gini = 0.436<br/>samples = 56<br/>value = [38, 18]>, fillcolor="#e5813986"] ;
484 -> 485 ;
486 [label=<AGE &le; 40.5<br/>gini = 0.431<br/>samples = 51<br/>value = [35, 16]>, fillcolor="#e581398a"] ;
485 -> 486 ;
487 [label=<BOOKDUES_FOR_NPA/ NORMAL_AS_ON_310618' &le; -4.715<br/>gini = 0.38<br/>samples = 47<br/>value = [35, 12]>, fillcolor="#e58139a8"] ;
486 -> 487 ;
488 [label=<gini = 0.0<br/>samples = 2<br/>value = [0, 2]>, fillcolor="#399de5ff"] ;
487 -> 488 ;
489 [label=<BOOKDUES_FOR_NPA/ NORMAL_AS_ON_310618' &le; 1366.775<br/>gini = 0.346<br/>samples = 45<br/>value = [35, 10]>, fillcolor="#e58139b6"] ;
487 -> 489 ;
490 [label=<PROFESSION &le; 28.0<br/>gini = 0.278<br/>samples = 36<br/>value = [30, 6]>, fillcolor="#e58139cc"] ;
489 -> 490 ;
491 [label=<NO_OF_DEPENDENTS &le; 0.5<br/>gini = 0.328<br/>samples = 29<br/>value = [23, 6]>, fillcolor="#e58139bc"] ;
490 -> 491 ;
492 [label=<Salary &le; 3.0<br/>gini = 0.415<br/>samples = 17<br/>value = [12, 5]>, fillcolor="#e5813995"] ;
491 -> 492 ;
493 [label=<saving ACC_OPEN_DATE' &le; 20090880.0<br/>gini = 0.42<br/>samples = 10<br/>value = [7, 3]>, fillcolor="#e5813992"] ;
492 -> 493 ;
494 [label=<gini = 0.5<br/>samples = 6<br/>value = [3, 3]>, fillcolor="#e5813900"] ;
493 -> 494 ;
495 [label=<gini = 0.0<br/>samples = 4<br/>value = [4, 0]>, fillcolor="#e58139ff"] ;
493 -> 495 ;
496 [label=<gini = 0.408<br/>samples = 7<br/>value = [5, 2]>, fillcolor="#e5813999"] ;
492 -> 496 ;
497 [label=<OCCUPATION &le; 18.0<br/>gini = 0.153<br/>samples = 12<br/>value = [11, 1]>, fillcolor="#e58139e8"] ;
491 -> 497 ;
498 [label=<gini = 0.0<br/>samples = 4<br/>value = [4, 0]>, fillcolor="#e58139ff"] ;
497 -> 498 ;
499 [label=<gini = 0.219<br/>samples = 8<br/>value = [7, 1]>, fillcolor="#e58139db"] ;
497 -> 499 ;
500 [label=<gini = 0.0<br/>samples = 7<br/>value = [7, 0]>, fillcolor="#e58139ff"] ;
490 -> 500 ;
501 [label=<gini = 0.494<br/>samples = 9<br/>value = [5, 4]>, fillcolor="#e5813933"] ;
489 -> 501 ;
502 [label=<gini = 0.0<br/>samples = 4<br/>value = [0, 4]>, fillcolor="#399de5ff"] ;
486 -> 502 ;
503 [label=<gini = 0.48<br/>samples = 5<br/>value = [3, 2]>, fillcolor="#e5813955"] ;
485 -> 503 ;
504 [label=<OCCUPATION &le; 17.5<br/>gini = 0.346<br/>samples = 36<br/>value = [28, 8]>, fillcolor="#e58139b6"] ;
484 -> 504 ;
505 [label=<NO_OF_DEPENDENTS &le; 1.5<br/>gini = 0.18<br/>samples = 10<br/>value = [9, 1]>, fillcolor="#e58139e3"] ;
504 -> 505 ;
506 [label=<gini = 0.375<br/>samples = 4<br/>value = [3, 1]>, fillcolor="#e58139aa"] ;
505 -> 506 ;
507 [label=<gini = 0.0<br/>samples = 6<br/>value = [6, 0]>, fillcolor="#e58139ff"] ;
505 -> 507 ;
508 [label=<OCCUPATION &le; 24.0<br/>gini = 0.393<br/>samples = 26<br/>value = [19, 7]>, fillcolor="#e58139a1"] ;
504 -> 508 ;
509 [label=<gini = 0.0<br/>samples = 1<br/>value = [0, 1]>, fillcolor="#399de5ff"] ;
508 -> 509 ;
510 [label=<OCCUPATION &le; 29.0<br/>gini = 0.365<br/>samples = 25<br/>value = [19, 6]>, fillcolor="#e58139ae"] ;
508 -> 510 ;
511 [label=<Salary &le; 7.0<br/>gini = 0.375<br/>samples = 24<br/>value = [18, 6]>, fillcolor="#e58139aa"] ;
510 -> 511 ;
512 [label=<AGE &le; 35.5<br/>gini = 0.308<br/>samples = 21<br/>value = [17, 4]>, fillcolor="#e58139c3"] ;
511 -> 512 ;
513 [label=<gini = 0.444<br/>samples = 6<br/>value = [4, 2]>, fillcolor="#e581397f"] ;
512 -> 513 ;
514 [label=<BOOKDUES_FOR_NPA/ NORMAL_AS_ON_310618' &le; 30.5<br/>gini = 0.231<br/>samples = 15<br/>value = [13, 2]>, fillcolor="#e58139d8"] ;
512 -> 514 ;
515 [label=<GENDER &le; 0.5<br/>gini = 0.298<br/>samples = 11<br/>value = [9, 2]>, fillcolor="#e58139c6"] ;
514 -> 515 ;
516 [label=<gini = 0.0<br/>samples = 4<br/>value = [4, 0]>, fillcolor="#e58139ff"] ;
515 -> 516 ;
517 [label=<gini = 0.408<br/>samples = 7<br/>value = [5, 2]>, fillcolor="#e5813999"] ;
515 -> 517 ;
518 [label=<gini = 0.0<br/>samples = 4<br/>value = [4, 0]>, fillcolor="#e58139ff"] ;
514 -> 518 ;
519 [label=<gini = 0.444<br/>samples = 3<br/>value = [1, 2]>, fillcolor="#399de57f"] ;
511 -> 519 ;
520 [label=<gini = 0.0<br/>samples = 1<br/>value = [1, 0]>, fillcolor="#e58139ff"] ;
510 -> 520 ;
521 [label=<AGE &le; 62.0<br/>gini = 0.172<br/>samples = 21<br/>value = [19, 2]>, fillcolor="#e58139e4"] ;
483 -> 521 ;
522 [label=<SPOUSE WORKING' &le; 1.5<br/>gini = 0.095<br/>samples = 20<br/>value = [19, 1]>, fillcolor="#e58139f2"] ;
521 -> 522 ;
523 [label=<gini = 0.0<br/>samples = 5<br/>value = [5, 0]>, fillcolor="#e58139ff"] ;
522 -> 523 ;
524 [label=<NO_OF_DEPENDENTS &le; 1.5<br/>gini = 0.124<br/>samples = 15<br/>value = [14, 1]>, fillcolor="#e58139ed"] ;
522 -> 524 ;
525 [label=<gini = 0.0<br/>samples = 9<br/>value = [9, 0]>, fillcolor="#e58139ff"] ;
524 -> 525 ;
526 [label=<gini = 0.278<br/>samples = 6<br/>value = [5, 1]>, fillcolor="#e58139cc"] ;
524 -> 526 ;
527 [label=<gini = 0.0<br/>samples = 1<br/>value = [0, 1]>, fillcolor="#399de5ff"] ;
521 -> 527 ;
528 [label=<AUTO_STATUS &le; 2.5<br/>gini = 0.298<br/>samples = 44<br/>value = [36, 8]>, fillcolor="#e58139c6"] ;
482 -> 528 ;
529 [label=<LOAN ' &le; 1.0<br/>gini = 0.303<br/>samples = 43<br/>value = [35, 8]>, fillcolor="#e58139c5"] ;
528 -> 529 ;
530 [label=<GENDER &le; 0.5<br/>gini = 0.332<br/>samples = 38<br/>value = [30, 8]>, fillcolor="#e58139bb"] ;
529 -> 530 ;
531 [label=<gini = 0.0<br/>samples = 1<br/>value = [1, 0]>, fillcolor="#e58139ff"] ;
530 -> 531 ;
532 [label=<Salary &le; 3.0<br/>gini = 0.339<br/>samples = 37<br/>value = [29, 8]>, fillcolor="#e58139b9"] ;
530 -> 532 ;
533 [label=<saving ACC_OPEN_DATE' &le; 20080421.0<br/>gini = 0.415<br/>samples = 17<br/>value = [12, 5]>, fillcolor="#e5813995"] ;
532 -> 533 ;
534 [label=<gini = 0.0<br/>samples = 5<br/>value = [5, 0]>, fillcolor="#e58139ff"] ;
533 -> 534 ;
535 [label=<MARRIEDARITAL_SINGLETATUSINGLE &le; 1.5<br/>gini = 0.486<br/>samples = 12<br/>value = [7, 5]>, fillcolor="#e5813949"] ;
533 -> 535 ;
536 [label=<gini = 0.245<br/>samples = 7<br/>value = [6, 1]>, fillcolor="#e58139d4"] ;
535 -> 536 ;
537 [label=<gini = 0.32<br/>samples = 5<br/>value = [1, 4]>, fillcolor="#399de5bf"] ;
535 -> 537 ;
538 [label=<PROFESSION &le; 17.5<br/>gini = 0.255<br/>samples = 20<br/>value = [17, 3]>, fillcolor="#e58139d2"] ;
532 -> 538 ;
539 [label=<gini = 0.0<br/>samples = 1<br/>value = [0, 1]>, fillcolor="#399de5ff"] ;
538 -> 539 ;
540 [label=<AGE &le; 42.5<br/>gini = 0.188<br/>samples = 19<br/>value = [17, 2]>, fillcolor="#e58139e1"] ;
538 -> 540 ;
541 [label=<gini = 0.0<br/>samples = 13<br/>value = [13, 0]>, fillcolor="#e58139ff"] ;
540 -> 541 ;
542 [label=<gini = 0.444<br/>samples = 6<br/>value = [4, 2]>, fillcolor="#e581397f"] ;
540 -> 542 ;
543 [label=<gini = 0.0<br/>samples = 5<br/>value = [5, 0]>, fillcolor="#e58139ff"] ;
529 -> 543 ;
544 [label=<gini = 0.0<br/>samples = 1<br/>value = [1, 0]>, fillcolor="#e58139ff"] ;
528 -> 544 ;
545 [label=<saving ACC_OPEN_DATE' &le; 20060854.0<br/>gini = 0.207<br/>samples = 196<br/>value = [173, 23]>, fillcolor="#e58139dd"] ;
481 -> 545 ;
546 [label=<gini = 0.0<br/>samples = 1<br/>value = [0, 1]>, fillcolor="#399de5ff"] ;
545 -> 546 ;
547 [label=<LOAN ' &le; 1.0<br/>gini = 0.2<br/>samples = 195<br/>value = [173, 22]>, fillcolor="#e58139df"] ;
545 -> 547 ;
548 [label=<GENDER &le; 0.5<br/>gini = 0.221<br/>samples = 166<br/>value = [145, 21]>, fillcolor="#e58139da"] ;
547 -> 548 ;
549 [label=<BRANCH STATUS' &le; 2.0<br/>gini = 0.408<br/>samples = 14<br/>value = [10, 4]>, fillcolor="#e5813999"] ;
548 -> 549 ;
550 [label=<gini = 0.444<br/>samples = 3<br/>value = [2, 1]>, fillcolor="#e581397f"] ;
549 -> 550 ;
551 [label=<saving ACC_OPEN_DATE' &le; 20095564.0<br/>gini = 0.397<br/>samples = 11<br/>value = [8, 3]>, fillcolor="#e581399f"] ;
549 -> 551 ;
552 [label=<gini = 0.198<br/>samples = 9<br/>value = [8, 1]>, fillcolor="#e58139df"] ;
551 -> 552 ;
553 [label=<gini = 0.0<br/>samples = 2<br/>value = [0, 2]>, fillcolor="#399de5ff"] ;
551 -> 553 ;
554 [label=<AGE &le; 62.0<br/>gini = 0.199<br/>samples = 152<br/>value = [135, 17]>, fillcolor="#e58139df"] ;
548 -> 554 ;
555 [label=<saving ACC_OPEN_DATE' &le; 20091108.0<br/>gini = 0.192<br/>samples = 149<br/>value = [133, 16]>, fillcolor="#e58139e0"] ;
554 -> 555 ;
556 [label=<BOOKDUES_FOR_NPA/ NORMAL_AS_ON_310618' &le; -7659.56<br/>gini = 0.23<br/>samples = 113<br/>value = [98, 15]>, fillcolor="#e58139d8"] ;
555 -> 556 ;
557 [label=<gini = 0.0<br/>samples = 1<br/>value = [0, 1]>, fillcolor="#399de5ff"] ;
556 -> 557 ;
558 [label=<Salary &le; 7.0<br/>gini = 0.219<br/>samples = 112<br/>value = [98, 14]>, fillcolor="#e58139db"] ;
556 -> 558 ;
559 [label=<PROFESSION &le; 28.0<br/>gini = 0.182<br/>samples = 99<br/>value = [89, 10]>, fillcolor="#e58139e2"] ;
558 -> 559 ;
560 [label=<BOOKDUES_FOR_NPA/ NORMAL_AS_ON_310618' &le; 0.425<br/>gini = 0.164<br/>samples = 89<br/>value = [81, 8]>, fillcolor="#e58139e6"] ;
559 -> 560 ;
561 [label=<saving ACC_OPEN_DATE' &le; 20090915.0<br/>gini = 0.098<br/>samples = 58<br/>value = [55, 3]>, fillcolor="#e58139f1"] ;
560 -> 561 ;
562 [label=<OCCUPATION &le; 18.5<br/>gini = 0.069<br/>samples = 56<br/>value = [54, 2]>, fillcolor="#e58139f6"] ;
561 -> 562 ;
563 [label=<gini = 0.0<br/>samples = 18<br/>value = [18, 0]>, fillcolor="#e58139ff"] ;
562 -> 563 ;
564 [label=<SPOUSE WORKING' &le; 1.5<br/>gini = 0.1<br/>samples = 38<br/>value = [36, 2]>, fillcolor="#e58139f1"] ;
562 -> 564 ;
565 [label=<saving ACC_OPEN_DATE' &le; 20070964.0<br/>gini = 0.198<br/>samples = 18<br/>value = [16, 2]>, fillcolor="#e58139df"] ;
564 -> 565 ;
566 [label=<gini = 0.346<br/>samples = 9<br/>value = [7, 2]>, fillcolor="#e58139b6"] ;
565 -> 566 ;
567 [label=<gini = 0.0<br/>samples = 9<br/>value = [9, 0]>, fillcolor="#e58139ff"] ;
565 -> 567 ;
568 [label=<gini = 0.0<br/>samples = 20<br/>value = [20, 0]>, fillcolor="#e58139ff"] ;
564 -> 568 ;
569 [label=<gini = 0.5<br/>samples = 2<br/>value = [1, 1]>, fillcolor="#e5813900"] ;
561 -> 569 ;
570 [label=<saving ACC_OPEN_DATE' &le; 20091059.0<br/>gini = 0.271<br/>samples = 31<br/>value = [26, 5]>, fillcolor="#e58139ce"] ;
560 -> 570 ;
571 [label=<saving ACC_OPEN_DATE' &le; 20080454.0<br/>gini = 0.231<br/>samples = 30<br/>value = [26, 4]>, fillcolor="#e58139d8"] ;
570 -> 571 ;
572 [label=<gini = 0.0<br/>samples = 14<br/>value = [14, 0]>, fillcolor="#e58139ff"] ;
571 -> 572 ;
573 [label=<BRANCH STATUS' &le; 2.5<br/>gini = 0.375<br/>samples = 16<br/>value = [12, 4]>, fillcolor="#e58139aa"] ;
571 -> 573 ;
574 [label=<gini = 0.0<br/>samples = 8<br/>value = [8, 0]>, fillcolor="#e58139ff"] ;
573 -> 574 ;
575 [label=<gini = 0.5<br/>samples = 8<br/>value = [4, 4]>, fillcolor="#e5813900"] ;
573 -> 575 ;
576 [label=<gini = 0.0<br/>samples = 1<br/>value = [0, 1]>, fillcolor="#399de5ff"] ;
570 -> 576 ;
577 [label=<AGE &le; 34.5<br/>gini = 0.32<br/>samples = 10<br/>value = [8, 2]>, fillcolor="#e58139bf"] ;
559 -> 577 ;
578 [label=<gini = 0.408<br/>samples = 7<br/>value = [5, 2]>, fillcolor="#e5813999"] ;
577 -> 578 ;
579 [label=<gini = 0.0<br/>samples = 3<br/>value = [3, 0]>, fillcolor="#e58139ff"] ;
577 -> 579 ;
580 [label=<OCCUPATION &le; 29.5<br/>gini = 0.426<br/>samples = 13<br/>value = [9, 4]>, fillcolor="#e581398e"] ;
558 -> 580 ;
581 [label=<MARRIEDARITAL_SINGLETATUSINGLE &le; 1.5<br/>gini = 0.375<br/>samples = 12<br/>value = [9, 3]>, fillcolor="#e58139aa"] ;
580 -> 581 ;
582 [label=<gini = 0.278<br/>samples = 6<br/>value = [5, 1]>, fillcolor="#e58139cc"] ;
581 -> 582 ;
583 [label=<gini = 0.444<br/>samples = 6<br/>value = [4, 2]>, fillcolor="#e581397f"] ;
581 -> 583 ;
584 [label=<gini = 0.0<br/>samples = 1<br/>value = [0, 1]>, fillcolor="#399de5ff"] ;
580 -> 584 ;
585 [label=<BOOKDUES_FOR_NPA/ NORMAL_AS_ON_310618' &le; 0.425<br/>gini = 0.054<br/>samples = 36<br/>value = [35, 1]>, fillcolor="#e58139f8"] ;
555 -> 585 ;
586 [label=<gini = 0.0<br/>samples = 26<br/>value = [26, 0]>, fillcolor="#e58139ff"] ;
585 -> 586 ;
587 [label=<Salary &le; 7.0<br/>gini = 0.18<br/>samples = 10<br/>value = [9, 1]>, fillcolor="#e58139e3"] ;
585 -> 587 ;
588 [label=<gini = 0.0<br/>samples = 8<br/>value = [8, 0]>, fillcolor="#e58139ff"] ;
587 -> 588 ;
589 [label=<gini = 0.5<br/>samples = 2<br/>value = [1, 1]>, fillcolor="#e5813900"] ;
587 -> 589 ;
590 [label=<gini = 0.444<br/>samples = 3<br/>value = [2, 1]>, fillcolor="#e581397f"] ;
554 -> 590 ;
591 [label=<SPOUSE WORKING' &le; 1.5<br/>gini = 0.067<br/>samples = 29<br/>value = [28, 1]>, fillcolor="#e58139f6"] ;
547 -> 591 ;
592 [label=<Salary &le; 3.0<br/>gini = 0.142<br/>samples = 13<br/>value = [12, 1]>, fillcolor="#e58139ea"] ;
591 -> 592 ;
593 [label=<gini = 0.278<br/>samples = 6<br/>value = [5, 1]>, fillcolor="#e58139cc"] ;
592 -> 593 ;
594 [label=<gini = 0.0<br/>samples = 7<br/>value = [7, 0]>, fillcolor="#e58139ff"] ;
592 -> 594 ;
595 [label=<gini = 0.0<br/>samples = 16<br/>value = [16, 0]>, fillcolor="#e58139ff"] ;
591 -> 595 ;
596 [label=<gini = 0.0<br/>samples = 5<br/>value = [5, 0]>, fillcolor="#e58139ff"] ;
306 -> 596 ;
597 [label=<AUTO_STATUS &le; 2.5<br/>gini = 0.499<br/>samples = 884<br/>value = [466, 418]>, fillcolor="#e581391a"] ;
305 -> 597 ;
598 [label=<BOOKDUES_FOR_NPA/ NORMAL_AS_ON_310618' &le; 0.005<br/>gini = 0.499<br/>samples = 864<br/>value = [446, 418]>, fillcolor="#e5813910"] ;
597 -> 598 ;
599 [label=<BRANCH STATUS' &le; 0.5<br/>gini = 0.496<br/>samples = 603<br/>value = [329, 274]>, fillcolor="#e581392b"] ;
598 -> 599 ;
600 [label=<IBS &le; 0.5<br/>gini = 0.498<br/>samples = 327<br/>value = [152, 175]>, fillcolor="#399de522"] ;
599 -> 600 ;
601 [label=<OCCUPATION &le; 19.0<br/>gini = 0.444<br/>samples = 183<br/>value = [61, 122]>, fillcolor="#399de57f"] ;
600 -> 601 ;
602 [label=<AGE &le; 54.5<br/>gini = 0.49<br/>samples = 35<br/>value = [20, 15]>, fillcolor="#e5813940"] ;
601 -> 602 ;
603 [label=<OCCUPATION &le; 10.5<br/>gini = 0.499<br/>samples = 31<br/>value = [16, 15]>, fillcolor="#e5813910"] ;
602 -> 603 ;
604 [label=<gini = 0.408<br/>samples = 7<br/>value = [2, 5]>, fillcolor="#399de599"] ;
603 -> 604 ;
605 [label=<AGE &le; 31.5<br/>gini = 0.486<br/>samples = 24<br/>value = [14, 10]>, fillcolor="#e5813949"] ;
603 -> 605 ;
606 [label=<gini = 0.0<br/>samples = 2<br/>value = [0, 2]>, fillcolor="#399de5ff"] ;
605 -> 606 ;
607 [label=<OCCUPATION &le; 13.5<br/>gini = 0.463<br/>samples = 22<br/>value = [14, 8]>, fillcolor="#e581396d"] ;
605 -> 607 ;
608 [label=<Salary &le; 3.0<br/>gini = 0.472<br/>samples = 21<br/>value = [13, 8]>, fillcolor="#e5813962"] ;
607 -> 608 ;
609 [label=<OCCUPATION &le; 11.5<br/>gini = 0.397<br/>samples = 11<br/>value = [8, 3]>, fillcolor="#e581399f"] ;
608 -> 609 ;
610 [label=<saving ACC_OPEN_DATE' &le; 20095376.0<br/>gini = 0.32<br/>samples = 10<br/>value = [8, 2]>, fillcolor="#e58139bf"] ;
609 -> 610 ;
611 [label=<gini = 0.198<br/>samples = 9<br/>value = [8, 1]>, fillcolor="#e58139df"] ;
610 -> 611 ;
612 [label=<gini = 0.0<br/>samples = 1<br/>value = [0, 1]>, fillcolor="#399de5ff"] ;
610 -> 612 ;
613 [label=<gini = 0.0<br/>samples = 1<br/>value = [0, 1]>, fillcolor="#399de5ff"] ;
609 -> 613 ;
614 [label=<SPOUSE WORKING' &le; 1.5<br/>gini = 0.5<br/>samples = 10<br/>value = [5, 5]>, fillcolor="#e5813900"] ;
608 -> 614 ;
615 [label=<gini = 0.48<br/>samples = 5<br/>value = [2, 3]>, fillcolor="#399de555"] ;
614 -> 615 ;
616 [label=<gini = 0.48<br/>samples = 5<br/>value = [3, 2]>, fillcolor="#e5813955"] ;
614 -> 616 ;
617 [label=<gini = 0.0<br/>samples = 1<br/>value = [1, 0]>, fillcolor="#e58139ff"] ;
607 -> 617 ;
618 [label=<gini = 0.0<br/>samples = 4<br/>value = [4, 0]>, fillcolor="#e58139ff"] ;
602 -> 618 ;
619 [label=<SPOUSE WORKING' &le; 1.5<br/>gini = 0.401<br/>samples = 148<br/>value = [41, 107]>, fillcolor="#399de59d"] ;
601 -> 619 ;
620 [label=<AGE &le; 29.5<br/>gini = 0.365<br/>samples = 75<br/>value = [18, 57]>, fillcolor="#399de5ae"] ;
619 -> 620 ;
621 [label=<gini = 0.375<br/>samples = 4<br/>value = [3, 1]>, fillcolor="#e58139aa"] ;
620 -> 621 ;
622 [label=<NO_OF_DEPENDENTS &le; 5.0<br/>gini = 0.333<br/>samples = 71<br/>value = [15, 56]>, fillcolor="#399de5bb"] ;
620 -> 622 ;
623 [label=<saving ACC_OPEN_DATE' &le; 20090972.0<br/>gini = 0.32<br/>samples = 70<br/>value = [14, 56]>, fillcolor="#399de5bf"] ;
622 -> 623 ;
624 [label=<NO_OF_DEPENDENTS &le; 0.5<br/>gini = 0.291<br/>samples = 68<br/>value = [12, 56]>, fillcolor="#399de5c8"] ;
623 -> 624 ;
625 [label=<PROFESSION &le; 29.5<br/>gini = 0.219<br/>samples = 32<br/>value = [4, 28]>, fillcolor="#399de5db"] ;
624 -> 625 ;
626 [label=<AGE &le; 43.0<br/>gini = 0.198<br/>samples = 27<br/>value = [3, 24]>, fillcolor="#399de5df"] ;
625 -> 626 ;
627 [label=<Salary &le; 3.0<br/>gini = 0.142<br/>samples = 26<br/>value = [2, 24]>, fillcolor="#399de5ea"] ;
626 -> 627 ;
628 [label=<OCCUPATION &le; 24.0<br/>gini = 0.188<br/>samples = 19<br/>value = [2, 17]>, fillcolor="#399de5e1"] ;
627 -> 628 ;
629 [label=<gini = 0.0<br/>samples = 4<br/>value = [0, 4]>, fillcolor="#399de5ff"] ;
628 -> 629 ;
630 [label=<OCCUPATION &le; 29.0<br/>gini = 0.231<br/>samples = 15<br/>value = [2, 13]>, fillcolor="#399de5d8"] ;
628 -> 630 ;
631 [label=<AGE &le; 34.5<br/>gini = 0.245<br/>samples = 14<br/>value = [2, 12]>, fillcolor="#399de5d4"] ;
630 -> 631 ;
632 [label=<saving ACC_OPEN_DATE' &le; 20080611.0<br/>gini = 0.32<br/>samples = 10<br/>value = [2, 8]>, fillcolor="#399de5bf"] ;
631 -> 632 ;
633 [label=<gini = 0.444<br/>samples = 6<br/>value = [2, 4]>, fillcolor="#399de57f"] ;
632 -> 633 ;
634 [label=<gini = 0.0<br/>samples = 4<br/>value = [0, 4]>, fillcolor="#399de5ff"] ;
632 -> 634 ;
635 [label=<gini = 0.0<br/>samples = 4<br/>value = [0, 4]>, fillcolor="#399de5ff"] ;
631 -> 635 ;
636 [label=<gini = 0.0<br/>samples = 1<br/>value = [0, 1]>, fillcolor="#399de5ff"] ;
630 -> 636 ;
637 [label=<gini = 0.0<br/>samples = 7<br/>value = [0, 7]>, fillcolor="#399de5ff"] ;
627 -> 637 ;
638 [label=<gini = 0.0<br/>samples = 1<br/>value = [1, 0]>, fillcolor="#e58139ff"] ;
626 -> 638 ;
639 [label=<gini = 0.32<br/>samples = 5<br/>value = [1, 4]>, fillcolor="#399de5bf"] ;
625 -> 639 ;
640 [label=<PROFESSION &le; 28.5<br/>gini = 0.346<br/>samples = 36<br/>value = [8, 28]>, fillcolor="#399de5b6"] ;
624 -> 640 ;
641 [label=<NO_OF_DEPENDENTS &le; 2.5<br/>gini = 0.26<br/>samples = 26<br/>value = [4, 22]>, fillcolor="#399de5d1"] ;
640 -> 641 ;
642 [label=<Salary &le; 3.0<br/>gini = 0.346<br/>samples = 18<br/>value = [4, 14]>, fillcolor="#399de5b6"] ;
641 -> 642 ;
643 [label=<AGE &le; 42.0<br/>gini = 0.165<br/>samples = 11<br/>value = [1, 10]>, fillcolor="#399de5e6"] ;
642 -> 643 ;
644 [label=<gini = 0.278<br/>samples = 6<br/>value = [1, 5]>, fillcolor="#399de5cc"] ;
643 -> 644 ;
645 [label=<gini = 0.0<br/>samples = 5<br/>value = [0, 5]>, fillcolor="#399de5ff"] ;
643 -> 645 ;
646 [label=<gini = 0.49<br/>samples = 7<br/>value = [3, 4]>, fillcolor="#399de540"] ;
642 -> 646 ;
647 [label=<gini = 0.0<br/>samples = 8<br/>value = [0, 8]>, fillcolor="#399de5ff"] ;
641 -> 647 ;
648 [label=<Salary &le; 7.0<br/>gini = 0.48<br/>samples = 10<br/>value = [4, 6]>, fillcolor="#399de555"] ;
640 -> 648 ;
649 [label=<gini = 0.494<br/>samples = 9<br/>value = [4, 5]>, fillcolor="#399de533"] ;
648 -> 649 ;
650 [label=<gini = 0.0<br/>samples = 1<br/>value = [0, 1]>, fillcolor="#399de5ff"] ;
648 -> 650 ;
651 [label=<gini = 0.0<br/>samples = 2<br/>value = [2, 0]>, fillcolor="#e58139ff"] ;
623 -> 651 ;
652 [label=<gini = 0.0<br/>samples = 1<br/>value = [1, 0]>, fillcolor="#e58139ff"] ;
622 -> 652 ;
653 [label=<GENDER &le; 0.5<br/>gini = 0.432<br/>samples = 73<br/>value = [23, 50]>, fillcolor="#399de58a"] ;
619 -> 653 ;
654 [label=<gini = 0.0<br/>samples = 4<br/>value = [0, 4]>, fillcolor="#399de5ff"] ;
653 -> 654 ;
655 [label=<NO_OF_DEPENDENTS &le; 4.5<br/>gini = 0.444<br/>samples = 69<br/>value = [23, 46]>, fillcolor="#399de57f"] ;
653 -> 655 ;
656 [label=<saving ACC_OPEN_DATE' &le; 20090807.0<br/>gini = 0.46<br/>samples = 64<br/>value = [23, 41]>, fillcolor="#399de570"] ;
655 -> 656 ;
657 [label=<saving ACC_OPEN_DATE' &le; 20090466.0<br/>gini = 0.448<br/>samples = 62<br/>value = [21, 41]>, fillcolor="#399de57c"] ;
656 -> 657 ;
658 [label=<AGE &le; 34.5<br/>gini = 0.462<br/>samples = 58<br/>value = [21, 37]>, fillcolor="#399de56e"] ;
657 -> 658 ;
659 [label=<gini = 0.375<br/>samples = 8<br/>value = [6, 2]>, fillcolor="#e58139aa"] ;
658 -> 659 ;
660 [label=<AGE &le; 52.5<br/>gini = 0.42<br/>samples = 50<br/>value = [15, 35]>, fillcolor="#399de592"] ;
658 -> 660 ;
661 [label=<NO_OF_DEPENDENTS &le; 0.5<br/>gini = 0.405<br/>samples = 46<br/>value = [13, 33]>, fillcolor="#399de59b"] ;
660 -> 661 ;
662 [label=<gini = 0.0<br/>samples = 6<br/>value = [0, 6]>, fillcolor="#399de5ff"] ;
661 -> 662 ;
663 [label=<saving ACC_OPEN_DATE' &le; 20090320.0<br/>gini = 0.439<br/>samples = 40<br/>value = [13, 27]>, fillcolor="#399de584"] ;
661 -> 663 ;
664 [label=<saving ACC_OPEN_DATE' &le; 20060959.0<br/>gini = 0.411<br/>samples = 38<br/>value = [11, 27]>, fillcolor="#399de597"] ;
663 -> 664 ;
665 [label=<gini = 0.0<br/>samples = 3<br/>value = [0, 3]>, fillcolor="#399de5ff"] ;
664 -> 665 ;
666 [label=<OCCUPATION &le; 24.0<br/>gini = 0.431<br/>samples = 35<br/>value = [11, 24]>, fillcolor="#399de58a"] ;
664 -> 666 ;
667 [label=<gini = 0.375<br/>samples = 4<br/>value = [1, 3]>, fillcolor="#399de5aa"] ;
666 -> 667 ;
668 [label=<AGE &le; 42.5<br/>gini = 0.437<br/>samples = 31<br/>value = [10, 21]>, fillcolor="#399de586"] ;
666 -> 668 ;
669 [label=<AGE &le; 40.5<br/>gini = 0.48<br/>samples = 20<br/>value = [8, 12]>, fillcolor="#399de555"] ;
668 -> 669 ;
670 [label=<AGE &le; 36.5<br/>gini = 0.444<br/>samples = 15<br/>value = [5, 10]>, fillcolor="#399de57f"] ;
669 -> 670 ;
671 [label=<gini = 0.5<br/>samples = 6<br/>value = [3, 3]>, fillcolor="#e5813900"] ;
670 -> 671 ;
672 [label=<gini = 0.346<br/>samples = 9<br/>value = [2, 7]>, fillcolor="#399de5b6"] ;
670 -> 672 ;
673 [label=<gini = 0.48<br/>samples = 5<br/>value = [3, 2]>, fillcolor="#e5813955"] ;
669 -> 673 ;
674 [label=<Salary &le; 3.0<br/>gini = 0.298<br/>samples = 11<br/>value = [2, 9]>, fillcolor="#399de5c6"] ;
668 -> 674 ;
675 [label=<gini = 0.0<br/>samples = 5<br/>value = [0, 5]>, fillcolor="#399de5ff"] ;
674 -> 675 ;
676 [label=<gini = 0.444<br/>samples = 6<br/>value = [2, 4]>, fillcolor="#399de57f"] ;
674 -> 676 ;
677 [label=<gini = 0.0<br/>samples = 2<br/>value = [2, 0]>, fillcolor="#e58139ff"] ;
663 -> 677 ;
678 [label=<gini = 0.5<br/>samples = 4<br/>value = [2, 2]>, fillcolor="#e5813900"] ;
660 -> 678 ;
679 [label=<gini = 0.0<br/>samples = 4<br/>value = [0, 4]>, fillcolor="#399de5ff"] ;
657 -> 679 ;
680 [label=<gini = 0.0<br/>samples = 2<br/>value = [2, 0]>, fillcolor="#e58139ff"] ;
656 -> 680 ;
681 [label=<gini = 0.0<br/>samples = 5<br/>value = [0, 5]>, fillcolor="#399de5ff"] ;
655 -> 681 ;
682 [label=<saving ACC_OPEN_DATE' &le; 20080219.0<br/>gini = 0.465<br/>samples = 144<br/>value = [91, 53]>, fillcolor="#e581396a"] ;
600 -> 682 ;
683 [label=<PROFESSION &le; 18.0<br/>gini = 0.348<br/>samples = 49<br/>value = [38, 11]>, fillcolor="#e58139b5"] ;
682 -> 683 ;
684 [label=<gini = 0.0<br/>samples = 2<br/>value = [0, 2]>, fillcolor="#399de5ff"] ;
683 -> 684 ;
685 [label=<SPOUSE WORKING' &le; 1.5<br/>gini = 0.31<br/>samples = 47<br/>value = [38, 9]>, fillcolor="#e58139c3"] ;
683 -> 685 ;
686 [label=<GENDER &le; 0.5<br/>gini = 0.328<br/>samples = 29<br/>value = [23, 6]>, fillcolor="#e58139bc"] ;
685 -> 686 ;
687 [label=<gini = 0.0<br/>samples = 4<br/>value = [4, 0]>, fillcolor="#e58139ff"] ;
686 -> 687 ;
688 [label=<saving ACC_OPEN_DATE' &le; 20065665.0<br/>gini = 0.365<br/>samples = 25<br/>value = [19, 6]>, fillcolor="#e58139ae"] ;
686 -> 688 ;
689 [label=<gini = 0.48<br/>samples = 5<br/>value = [2, 3]>, fillcolor="#399de555"] ;
688 -> 689 ;
690 [label=<AGE &le; 36.5<br/>gini = 0.255<br/>samples = 20<br/>value = [17, 3]>, fillcolor="#e58139d2"] ;
688 -> 690 ;
691 [label=<NO_OF_DEPENDENTS &le; 1.0<br/>gini = 0.397<br/>samples = 11<br/>value = [8, 3]>, fillcolor="#e581399f"] ;
690 -> 691 ;
692 [label=<Salary &le; 3.0<br/>gini = 0.32<br/>samples = 10<br/>value = [8, 2]>, fillcolor="#e58139bf"] ;
691 -> 692 ;
693 [label=<gini = 0.375<br/>samples = 4<br/>value = [3, 1]>, fillcolor="#e58139aa"] ;
692 -> 693 ;
694 [label=<gini = 0.278<br/>samples = 6<br/>value = [5, 1]>, fillcolor="#e58139cc"] ;
692 -> 694 ;
695 [label=<gini = 0.0<br/>samples = 1<br/>value = [0, 1]>, fillcolor="#399de5ff"] ;
691 -> 695 ;
696 [label=<gini = 0.0<br/>samples = 9<br/>value = [9, 0]>, fillcolor="#e58139ff"] ;
690 -> 696 ;
697 [label=<saving ACC_OPEN_DATE' &le; 20080160.0<br/>gini = 0.278<br/>samples = 18<br/>value = [15, 3]>, fillcolor="#e58139cc"] ;
685 -> 697 ;
698 [label=<AGE &le; 33.5<br/>gini = 0.32<br/>samples = 15<br/>value = [12, 3]>, fillcolor="#e58139bf"] ;
697 -> 698 ;
699 [label=<gini = 0.0<br/>samples = 1<br/>value = [0, 1]>, fillcolor="#399de5ff"] ;
698 -> 699 ;
700 [label=<saving ACC_OPEN_DATE' &le; 20075672.0<br/>gini = 0.245<br/>samples = 14<br/>value = [12, 2]>, fillcolor="#e58139d4"] ;
698 -> 700 ;
701 [label=<PROFESSION &le; 24.0<br/>gini = 0.142<br/>samples = 13<br/>value = [12, 1]>, fillcolor="#e58139ea"] ;
700 -> 701 ;
702 [label=<gini = 0.198<br/>samples = 9<br/>value = [8, 1]>, fillcolor="#e58139df"] ;
701 -> 702 ;
703 [label=<gini = 0.0<br/>samples = 4<br/>value = [4, 0]>, fillcolor="#e58139ff"] ;
701 -> 703 ;
704 [label=<gini = 0.0<br/>samples = 1<br/>value = [0, 1]>, fillcolor="#399de5ff"] ;
700 -> 704 ;
705 [label=<gini = 0.0<br/>samples = 3<br/>value = [3, 0]>, fillcolor="#e58139ff"] ;
697 -> 705 ;
706 [label=<saving ACC_OPEN_DATE' &le; 20090412.0<br/>gini = 0.493<br/>samples = 95<br/>value = [53, 42]>, fillcolor="#e5813935"] ;
682 -> 706 ;
707 [label=<AGE &le; 30.0<br/>gini = 0.495<br/>samples = 51<br/>value = [23, 28]>, fillcolor="#399de52e"] ;
706 -> 707 ;
708 [label=<gini = 0.0<br/>samples = 3<br/>value = [3, 0]>, fillcolor="#e58139ff"] ;
707 -> 708 ;
709 [label=<saving ACC_OPEN_DATE' &le; 20081026.0<br/>gini = 0.486<br/>samples = 48<br/>value = [20, 28]>, fillcolor="#399de549"] ;
707 -> 709 ;
710 [label=<NO_OF_DEPENDENTS &le; 2.5<br/>gini = 0.5<br/>samples = 34<br/>value = [17, 17]>, fillcolor="#e5813900"] ;
709 -> 710 ;
711 [label=<AGE &le; 31.5<br/>gini = 0.49<br/>samples = 28<br/>value = [16, 12]>, fillcolor="#e5813940"] ;
710 -> 711 ;
712 [label=<gini = 0.0<br/>samples = 2<br/>value = [0, 2]>, fillcolor="#399de5ff"] ;
711 -> 712 ;
713 [label=<PROFESSION &le; 28.0<br/>gini = 0.473<br/>samples = 26<br/>value = [16, 10]>, fillcolor="#e5813960"] ;
711 -> 713 ;
714 [label=<SPOUSE WORKING' &le; 1.5<br/>gini = 0.491<br/>samples = 23<br/>value = [13, 10]>, fillcolor="#e581393b"] ;
713 -> 714 ;
715 [label=<Salary &le; 7.0<br/>gini = 0.426<br/>samples = 13<br/>value = [9, 4]>, fillcolor="#e581398e"] ;
714 -> 715 ;
716 [label=<PROFESSION &le; 24.5<br/>gini = 0.463<br/>samples = 11<br/>value = [7, 4]>, fillcolor="#e581396d"] ;
715 -> 716 ;
717 [label=<gini = 0.444<br/>samples = 9<br/>value = [6, 3]>, fillcolor="#e581397f"] ;
716 -> 717 ;
718 [label=<gini = 0.5<br/>samples = 2<br/>value = [1, 1]>, fillcolor="#e5813900"] ;
716 -> 718 ;
719 [label=<gini = 0.0<br/>samples = 2<br/>value = [2, 0]>, fillcolor="#e58139ff"] ;
715 -> 719 ;
720 [label=<PROFESSION &le; 24.5<br/>gini = 0.48<br/>samples = 10<br/>value = [4, 6]>, fillcolor="#399de555"] ;
714 -> 720 ;
721 [label=<gini = 0.49<br/>samples = 7<br/>value = [3, 4]>, fillcolor="#399de540"] ;
720 -> 721 ;
722 [label=<gini = 0.444<br/>samples = 3<br/>value = [1, 2]>, fillcolor="#399de57f"] ;
720 -> 722 ;
723 [label=<gini = 0.0<br/>samples = 3<br/>value = [3, 0]>, fillcolor="#e58139ff"] ;
713 -> 723 ;
724 [label=<gini = 0.278<br/>samples = 6<br/>value = [1, 5]>, fillcolor="#399de5cc"] ;
710 -> 724 ;
725 [label=<OCCUPATION &le; 11.5<br/>gini = 0.337<br/>samples = 14<br/>value = [3, 11]>, fillcolor="#399de5b9"] ;
709 -> 725 ;
726 [label=<gini = 0.375<br/>samples = 4<br/>value = [1, 3]>, fillcolor="#399de5aa"] ;
725 -> 726 ;
727 [label=<SPOUSE WORKING' &le; 1.5<br/>gini = 0.32<br/>samples = 10<br/>value = [2, 8]>, fillcolor="#399de5bf"] ;
725 -> 727 ;
728 [label=<gini = 0.32<br/>samples = 5<br/>value = [1, 4]>, fillcolor="#399de5bf"] ;
727 -> 728 ;
729 [label=<gini = 0.32<br/>samples = 5<br/>value = [1, 4]>, fillcolor="#399de5bf"] ;
727 -> 729 ;
730 [label=<NO_OF_DEPENDENTS &le; 4.5<br/>gini = 0.434<br/>samples = 44<br/>value = [30, 14]>, fillcolor="#e5813988"] ;
706 -> 730 ;
731 [label=<PROFESSION &le; 26.5<br/>gini = 0.422<br/>samples = 43<br/>value = [30, 13]>, fillcolor="#e5813991"] ;
730 -> 731 ;
732 [label=<OCCUPATION &le; 24.0<br/>gini = 0.346<br/>samples = 27<br/>value = [21, 6]>, fillcolor="#e58139b6"] ;
731 -> 732 ;
733 [label=<gini = 0.444<br/>samples = 9<br/>value = [6, 3]>, fillcolor="#e581397f"] ;
732 -> 733 ;
734 [label=<AGE &le; 33.5<br/>gini = 0.278<br/>samples = 18<br/>value = [15, 3]>, fillcolor="#e58139cc"] ;
732 -> 734 ;
735 [label=<gini = 0.5<br/>samples = 4<br/>value = [2, 2]>, fillcolor="#e5813900"] ;
734 -> 735 ;
736 [label=<AGE &le; 36.5<br/>gini = 0.133<br/>samples = 14<br/>value = [13, 1]>, fillcolor="#e58139eb"] ;
734 -> 736 ;
737 [label=<gini = 0.0<br/>samples = 7<br/>value = [7, 0]>, fillcolor="#e58139ff"] ;
736 -> 737 ;
738 [label=<gini = 0.245<br/>samples = 7<br/>value = [6, 1]>, fillcolor="#e58139d4"] ;
736 -> 738 ;
739 [label=<GENDER &le; 0.5<br/>gini = 0.492<br/>samples = 16<br/>value = [9, 7]>, fillcolor="#e5813939"] ;
731 -> 739 ;
740 [label=<gini = 0.0<br/>samples = 1<br/>value = [0, 1]>, fillcolor="#399de5ff"] ;
739 -> 740 ;
741 [label=<MARRIEDARITAL_SINGLETATUSINGLE &le; 1.5<br/>gini = 0.48<br/>samples = 15<br/>value = [9, 6]>, fillcolor="#e5813955"] ;
739 -> 741 ;
742 [label=<gini = 0.444<br/>samples = 6<br/>value = [4, 2]>, fillcolor="#e581397f"] ;
741 -> 742 ;
743 [label=<gini = 0.494<br/>samples = 9<br/>value = [5, 4]>, fillcolor="#e5813933"] ;
741 -> 743 ;
744 [label=<gini = 0.0<br/>samples = 1<br/>value = [0, 1]>, fillcolor="#399de5ff"] ;
730 -> 744 ;
745 [label=<LOAN ' &le; 1.0<br/>gini = 0.46<br/>samples = 276<br/>value = [177, 99]>, fillcolor="#e5813970"] ;
599 -> 745 ;
746 [label=<IBS &le; 0.5<br/>gini = 0.471<br/>samples = 250<br/>value = [155, 95]>, fillcolor="#e5813963"] ;
745 -> 746 ;
747 [label=<MARRIEDARITAL_SINGLETATUSINGLE &le; 1.5<br/>gini = 0.497<br/>samples = 113<br/>value = [52, 61]>, fillcolor="#399de526"] ;
746 -> 747 ;
748 [label=<OCCUPATION &le; 9.5<br/>gini = 0.483<br/>samples = 44<br/>value = [18, 26]>, fillcolor="#399de54e"] ;
747 -> 748 ;
749 [label=<gini = 0.278<br/>samples = 6<br/>value = [1, 5]>, fillcolor="#399de5cc"] ;
748 -> 749 ;
750 [label=<AGE &le; 40.5<br/>gini = 0.494<br/>samples = 38<br/>value = [17, 21]>, fillcolor="#399de531"] ;
748 -> 750 ;
751 [label=<Salary &le; 3.0<br/>gini = 0.351<br/>samples = 22<br/>value = [5, 17]>, fillcolor="#399de5b4"] ;
750 -> 751 ;
752 [label=<AGE &le; 31.5<br/>gini = 0.473<br/>samples = 13<br/>value = [5, 8]>, fillcolor="#399de560"] ;
751 -> 752 ;
753 [label=<gini = 0.0<br/>samples = 4<br/>value = [4, 0]>, fillcolor="#e58139ff"] ;
752 -> 753 ;
754 [label=<gini = 0.198<br/>samples = 9<br/>value = [1, 8]>, fillcolor="#399de5df"] ;
752 -> 754 ;
755 [label=<gini = 0.0<br/>samples = 9<br/>value = [0, 9]>, fillcolor="#399de5ff"] ;
751 -> 755 ;
756 [label=<saving ACC_OPEN_DATE' &le; 20075607.0<br/>gini = 0.375<br/>samples = 16<br/>value = [12, 4]>, fillcolor="#e58139aa"] ;
750 -> 756 ;
757 [label=<gini = 0.375<br/>samples = 4<br/>value = [1, 3]>, fillcolor="#399de5aa"] ;
756 -> 757 ;
758 [label=<Salary &le; 8.5<br/>gini = 0.153<br/>samples = 12<br/>value = [11, 1]>, fillcolor="#e58139e8"] ;
756 -> 758 ;
759 [label=<gini = 0.0<br/>samples = 11<br/>value = [11, 0]>, fillcolor="#e58139ff"] ;
758 -> 759 ;
760 [label=<gini = 0.0<br/>samples = 1<br/>value = [0, 1]>, fillcolor="#399de5ff"] ;
758 -> 760 ;
761 [label=<NO_OF_DEPENDENTS &le; 1.5<br/>gini = 0.5<br/>samples = 69<br/>value = [34, 35]>, fillcolor="#399de507"] ;
747 -> 761 ;
762 [label=<AGE &le; 43.5<br/>gini = 0.487<br/>samples = 31<br/>value = [18, 13]>, fillcolor="#e5813947"] ;
761 -> 762 ;
763 [label=<OCCUPATION &le; 24.0<br/>gini = 0.499<br/>samples = 27<br/>value = [14, 13]>, fillcolor="#e5813912"] ;
762 -> 763 ;
764 [label=<gini = 0.408<br/>samples = 7<br/>value = [5, 2]>, fillcolor="#e5813999"] ;
763 -> 764 ;
765 [label=<Salary &le; 7.0<br/>gini = 0.495<br/>samples = 20<br/>value = [9, 11]>, fillcolor="#399de52e"] ;
763 -> 765 ;
766 [label=<OCCUPATION &le; 33.5<br/>gini = 0.475<br/>samples = 18<br/>value = [7, 11]>, fillcolor="#399de55d"] ;
765 -> 766 ;
767 [label=<AGE &le; 41.5<br/>gini = 0.457<br/>samples = 17<br/>value = [6, 11]>, fillcolor="#399de574"] ;
766 -> 767 ;
768 [label=<NO_OF_DEPENDENTS &le; 0.5<br/>gini = 0.408<br/>samples = 14<br/>value = [4, 10]>, fillcolor="#399de599"] ;
767 -> 768 ;
769 [label=<gini = 0.375<br/>samples = 8<br/>value = [2, 6]>, fillcolor="#399de5aa"] ;
768 -> 769 ;
770 [label=<gini = 0.444<br/>samples = 6<br/>value = [2, 4]>, fillcolor="#399de57f"] ;
768 -> 770 ;
771 [label=<gini = 0.444<br/>samples = 3<br/>value = [2, 1]>, fillcolor="#e581397f"] ;
767 -> 771 ;
772 [label=<gini = 0.0<br/>samples = 1<br/>value = [1, 0]>, fillcolor="#e58139ff"] ;
766 -> 772 ;
773 [label=<gini = 0.0<br/>samples = 2<br/>value = [2, 0]>, fillcolor="#e58139ff"] ;
765 -> 773 ;
774 [label=<gini = 0.0<br/>samples = 4<br/>value = [4, 0]>, fillcolor="#e58139ff"] ;
762 -> 774 ;
775 [label=<OCCUPATION &le; 4.0<br/>gini = 0.488<br/>samples = 38<br/>value = [16, 22]>, fillcolor="#399de546"] ;
761 -> 775 ;
776 [label=<gini = 0.0<br/>samples = 1<br/>value = [1, 0]>, fillcolor="#e58139ff"] ;
775 -> 776 ;
777 [label=<saving ACC_OPEN_DATE' &le; 20100260.0<br/>gini = 0.482<br/>samples = 37<br/>value = [15, 22]>, fillcolor="#399de551"] ;
775 -> 777 ;
778 [label=<saving ACC_OPEN_DATE' &le; 20090166.0<br/>gini = 0.467<br/>samples = 35<br/>value = [13, 22]>, fillcolor="#399de568"] ;
777 -> 778 ;
779 [label=<BOOKDUES_FOR_NPA/ NORMAL_AS_ON_310618' &le; -554.965<br/>gini = 0.497<br/>samples = 26<br/>value = [12, 14]>, fillcolor="#399de524"] ;
778 -> 779 ;
780 [label=<gini = 0.0<br/>samples = 1<br/>value = [0, 1]>, fillcolor="#399de5ff"] ;
779 -> 780 ;
781 [label=<GENDER &le; 0.5<br/>gini = 0.499<br/>samples = 25<br/>value = [12, 13]>, fillcolor="#399de514"] ;
779 -> 781 ;
782 [label=<gini = 0.0<br/>samples = 1<br/>value = [1, 0]>, fillcolor="#e58139ff"] ;
781 -> 782 ;
783 [label=<BRANCH STATUS' &le; 2.5<br/>gini = 0.497<br/>samples = 24<br/>value = [11, 13]>, fillcolor="#399de527"] ;
781 -> 783 ;
784 [label=<gini = 0.5<br/>samples = 8<br/>value = [4, 4]>, fillcolor="#e5813900"] ;
783 -> 784 ;
785 [label=<AGE &le; 39.0<br/>gini = 0.492<br/>samples = 16<br/>value = [7, 9]>, fillcolor="#399de539"] ;
783 -> 785 ;
786 [label=<gini = 0.245<br/>samples = 7<br/>value = [6, 1]>, fillcolor="#e58139d4"] ;
785 -> 786 ;
787 [label=<gini = 0.198<br/>samples = 9<br/>value = [1, 8]>, fillcolor="#399de5df"] ;
785 -> 787 ;
788 [label=<gini = 0.198<br/>samples = 9<br/>value = [1, 8]>, fillcolor="#399de5df"] ;
778 -> 788 ;
789 [label=<gini = 0.0<br/>samples = 2<br/>value = [2, 0]>, fillcolor="#e58139ff"] ;
777 -> 789 ;
790 [label=<OCCUPATION &le; 33.5<br/>gini = 0.373<br/>samples = 137<br/>value = [103, 34]>, fillcolor="#e58139ab"] ;
746 -> 790 ;
791 [label=<BOOKDUES_FOR_NPA/ NORMAL_AS_ON_310618' &le; -11658.88<br/>gini = 0.363<br/>samples = 126<br/>value = [96, 30]>, fillcolor="#e58139af"] ;
790 -> 791 ;
792 [label=<gini = 0.0<br/>samples = 1<br/>value = [0, 1]>, fillcolor="#399de5ff"] ;
791 -> 792 ;
793 [label=<BRANCH STATUS' &le; 1.5<br/>gini = 0.356<br/>samples = 125<br/>value = [96, 29]>, fillcolor="#e58139b2"] ;
791 -> 793 ;
794 [label=<NO_OF_DEPENDENTS &le; 0.5<br/>gini = 0.32<br/>samples = 15<br/>value = [12, 3]>, fillcolor="#e58139bf"] ;
793 -> 794 ;
795 [label=<gini = 0.0<br/>samples = 4<br/>value = [4, 0]>, fillcolor="#e58139ff"] ;
794 -> 795 ;
796 [label=<saving ACC_OPEN_DATE' &le; 20060824.0<br/>gini = 0.397<br/>samples = 11<br/>value = [8, 3]>, fillcolor="#e581399f"] ;
794 -> 796 ;
797 [label=<gini = 0.0<br/>samples = 1<br/>value = [0, 1]>, fillcolor="#399de5ff"] ;
796 -> 797 ;
798 [label=<saving ACC_OPEN_DATE' &le; 20075908.0<br/>gini = 0.32<br/>samples = 10<br/>value = [8, 2]>, fillcolor="#e58139bf"] ;
796 -> 798 ;
799 [label=<gini = 0.0<br/>samples = 3<br/>value = [3, 0]>, fillcolor="#e58139ff"] ;
798 -> 799 ;
800 [label=<gini = 0.408<br/>samples = 7<br/>value = [5, 2]>, fillcolor="#e5813999"] ;
798 -> 800 ;
801 [label=<saving ACC_OPEN_DATE' &le; 20090704.0<br/>gini = 0.361<br/>samples = 110<br/>value = [84, 26]>, fillcolor="#e58139b0"] ;
793 -> 801 ;
802 [label=<Salary &le; 8.5<br/>gini = 0.398<br/>samples = 84<br/>value = [61, 23]>, fillcolor="#e581399f"] ;
801 -> 802 ;
803 [label=<AGE &le; 39.5<br/>gini = 0.401<br/>samples = 83<br/>value = [60, 23]>, fillcolor="#e581399d"] ;
802 -> 803 ;
804 [label=<OCCUPATION &le; 9.0<br/>gini = 0.269<br/>samples = 50<br/>value = [42, 8]>, fillcolor="#e58139ce"] ;
803 -> 804 ;
805 [label=<gini = 0.5<br/>samples = 2<br/>value = [1, 1]>, fillcolor="#e5813900"] ;
804 -> 805 ;
806 [label=<BRANCH STATUS' &le; 2.5<br/>gini = 0.249<br/>samples = 48<br/>value = [41, 7]>, fillcolor="#e58139d3"] ;
804 -> 806 ;
807 [label=<gini = 0.0<br/>samples = 5<br/>value = [5, 0]>, fillcolor="#e58139ff"] ;
806 -> 807 ;
808 [label=<PROFESSION &le; 16.0<br/>gini = 0.273<br/>samples = 43<br/>value = [36, 7]>, fillcolor="#e58139cd"] ;
806 -> 808 ;
809 [label=<gini = 0.0<br/>samples = 1<br/>value = [1, 0]>, fillcolor="#e58139ff"] ;
808 -> 809 ;
810 [label=<AGE &le; 32.5<br/>gini = 0.278<br/>samples = 42<br/>value = [35, 7]>, fillcolor="#e58139cc"] ;
808 -> 810 ;
811 [label=<NO_OF_DEPENDENTS &le; 1.0<br/>gini = 0.473<br/>samples = 13<br/>value = [8, 5]>, fillcolor="#e5813960"] ;
810 -> 811 ;
812 [label=<MARRIEDARITAL_SINGLETATUSINGLE &le; 1.5<br/>gini = 0.486<br/>samples = 12<br/>value = [7, 5]>, fillcolor="#e5813949"] ;
811 -> 812 ;
813 [label=<gini = 0.5<br/>samples = 2<br/>value = [1, 1]>, fillcolor="#e5813900"] ;
812 -> 813 ;
814 [label=<AGE &le; 31.5<br/>gini = 0.48<br/>samples = 10<br/>value = [6, 4]>, fillcolor="#e5813955"] ;
812 -> 814 ;
815 [label=<gini = 0.444<br/>samples = 9<br/>value = [6, 3]>, fillcolor="#e581397f"] ;
814 -> 815 ;
816 [label=<gini = 0.0<br/>samples = 1<br/>value = [0, 1]>, fillcolor="#399de5ff"] ;
814 -> 816 ;
817 [label=<gini = 0.0<br/>samples = 1<br/>value = [1, 0]>, fillcolor="#e58139ff"] ;
811 -> 817 ;
818 [label=<Salary &le; 3.0<br/>gini = 0.128<br/>samples = 29<br/>value = [27, 2]>, fillcolor="#e58139ec"] ;
810 -> 818 ;
819 [label=<NO_OF_DEPENDENTS &le; 0.5<br/>gini = 0.18<br/>samples = 20<br/>value = [18, 2]>, fillcolor="#e58139e3"] ;
818 -> 819 ;
820 [label=<gini = 0.0<br/>samples = 11<br/>value = [11, 0]>, fillcolor="#e58139ff"] ;
819 -> 820 ;
821 [label=<gini = 0.346<br/>samples = 9<br/>value = [7, 2]>, fillcolor="#e58139b6"] ;
819 -> 821 ;
822 [label=<gini = 0.0<br/>samples = 9<br/>value = [9, 0]>, fillcolor="#e58139ff"] ;
818 -> 822 ;
823 [label=<PROFESSION &le; 24.0<br/>gini = 0.496<br/>samples = 33<br/>value = [18, 15]>, fillcolor="#e581392a"] ;
803 -> 823 ;
824 [label=<NO_OF_DEPENDENTS &le; 0.5<br/>gini = 0.496<br/>samples = 22<br/>value = [10, 12]>, fillcolor="#399de52a"] ;
823 -> 824 ;
825 [label=<gini = 0.0<br/>samples = 4<br/>value = [0, 4]>, fillcolor="#399de5ff"] ;
824 -> 825 ;
826 [label=<AGE &le; 43.5<br/>gini = 0.494<br/>samples = 18<br/>value = [10, 8]>, fillcolor="#e5813933"] ;
824 -> 826 ;
827 [label=<gini = 0.32<br/>samples = 5<br/>value = [1, 4]>, fillcolor="#399de5bf"] ;
826 -> 827 ;
828 [label=<OCCUPATION &le; 3.5<br/>gini = 0.426<br/>samples = 13<br/>value = [9, 4]>, fillcolor="#e581398e"] ;
826 -> 828 ;
829 [label=<gini = 0.0<br/>samples = 1<br/>value = [0, 1]>, fillcolor="#399de5ff"] ;
828 -> 829 ;
830 [label=<SPOUSE WORKING' &le; 1.5<br/>gini = 0.375<br/>samples = 12<br/>value = [9, 3]>, fillcolor="#e58139aa"] ;
828 -> 830 ;
831 [label=<gini = 0.0<br/>samples = 3<br/>value = [3, 0]>, fillcolor="#e58139ff"] ;
830 -> 831 ;
832 [label=<gini = 0.444<br/>samples = 9<br/>value = [6, 3]>, fillcolor="#e581397f"] ;
830 -> 832 ;
833 [label=<AGE &le; 48.0<br/>gini = 0.397<br/>samples = 11<br/>value = [8, 3]>, fillcolor="#e581399f"] ;
823 -> 833 ;
834 [label=<gini = 0.219<br/>samples = 8<br/>value = [7, 1]>, fillcolor="#e58139db"] ;
833 -> 834 ;
835 [label=<gini = 0.444<br/>samples = 3<br/>value = [1, 2]>, fillcolor="#399de57f"] ;
833 -> 835 ;
836 [label=<gini = 0.0<br/>samples = 1<br/>value = [1, 0]>, fillcolor="#e58139ff"] ;
802 -> 836 ;
837 [label=<AGE &le; 29.5<br/>gini = 0.204<br/>samples = 26<br/>value = [23, 3]>, fillcolor="#e58139de"] ;
801 -> 837 ;
838 [label=<gini = 0.5<br/>samples = 2<br/>value = [1, 1]>, fillcolor="#e5813900"] ;
837 -> 838 ;
839 [label=<SPOUSE WORKING' &le; 1.5<br/>gini = 0.153<br/>samples = 24<br/>value = [22, 2]>, fillcolor="#e58139e8"] ;
837 -> 839 ;
840 [label=<gini = 0.0<br/>samples = 8<br/>value = [8, 0]>, fillcolor="#e58139ff"] ;
839 -> 840 ;
841 [label=<saving ACC_OPEN_DATE' &le; 20091017.0<br/>gini = 0.219<br/>samples = 16<br/>value = [14, 2]>, fillcolor="#e58139db"] ;
839 -> 841 ;
842 [label=<gini = 0.0<br/>samples = 9<br/>value = [9, 0]>, fillcolor="#e58139ff"] ;
841 -> 842 ;
843 [label=<gini = 0.408<br/>samples = 7<br/>value = [5, 2]>, fillcolor="#e5813999"] ;
841 -> 843 ;
844 [label=<Salary &le; 3.0<br/>gini = 0.463<br/>samples = 11<br/>value = [7, 4]>, fillcolor="#e581396d"] ;
790 -> 844 ;
845 [label=<gini = 0.49<br/>samples = 7<br/>value = [4, 3]>, fillcolor="#e5813940"] ;
844 -> 845 ;
846 [label=<gini = 0.375<br/>samples = 4<br/>value = [3, 1]>, fillcolor="#e58139aa"] ;
844 -> 846 ;
847 [label=<AGE &le; 41.5<br/>gini = 0.26<br/>samples = 26<br/>value = [22, 4]>, fillcolor="#e58139d1"] ;
745 -> 847 ;
848 [label=<saving ACC_OPEN_DATE' &le; 20066058.0<br/>gini = 0.117<br/>samples = 16<br/>value = [15, 1]>, fillcolor="#e58139ee"] ;
847 -> 848 ;
849 [label=<gini = 0.5<br/>samples = 2<br/>value = [1, 1]>, fillcolor="#e5813900"] ;
848 -> 849 ;
850 [label=<gini = 0.0<br/>samples = 14<br/>value = [14, 0]>, fillcolor="#e58139ff"] ;
848 -> 850 ;
851 [label=<AGE &le; 49.5<br/>gini = 0.42<br/>samples = 10<br/>value = [7, 3]>, fillcolor="#e5813992"] ;
847 -> 851 ;
852 [label=<gini = 0.5<br/>samples = 6<br/>value = [3, 3]>, fillcolor="#e5813900"] ;
851 -> 852 ;
853 [label=<gini = 0.0<br/>samples = 4<br/>value = [4, 0]>, fillcolor="#e58139ff"] ;
851 -> 853 ;
854 [label=<BOOKDUES_FOR_NPA/ NORMAL_AS_ON_310618' &le; 114.255<br/>gini = 0.495<br/>samples = 261<br/>value = [117, 144]>, fillcolor="#399de530"] ;
598 -> 854 ;
855 [label=<MARRIEDARITAL_SINGLETATUSINGLE &le; 1.5<br/>gini = 0.183<br/>samples = 59<br/>value = [6, 53]>, fillcolor="#399de5e2"] ;
854 -> 855 ;
856 [label=<Salary &le; 7.0<br/>gini = 0.287<br/>samples = 23<br/>value = [4, 19]>, fillcolor="#399de5c9"] ;
855 -> 856 ;
857 [label=<PROFESSION &le; 28.5<br/>gini = 0.32<br/>samples = 20<br/>value = [4, 16]>, fillcolor="#399de5bf"] ;
856 -> 857 ;
858 [label=<BOOKDUES_FOR_NPA/ NORMAL_AS_ON_310618' &le; 2.06<br/>gini = 0.291<br/>samples = 17<br/>value = [3, 14]>, fillcolor="#399de5c8"] ;
857 -> 858 ;
859 [label=<BOOKDUES_FOR_NPA/ NORMAL_AS_ON_310618' &le; 0.915<br/>gini = 0.133<br/>samples = 14<br/>value = [1, 13]>, fillcolor="#399de5eb"] ;
858 -> 859 ;
860 [label=<gini = 0.0<br/>samples = 6<br/>value = [0, 6]>, fillcolor="#399de5ff"] ;
859 -> 860 ;
861 [label=<gini = 0.219<br/>samples = 8<br/>value = [1, 7]>, fillcolor="#399de5db"] ;
859 -> 861 ;
862 [label=<gini = 0.444<br/>samples = 3<br/>value = [2, 1]>, fillcolor="#e581397f"] ;
858 -> 862 ;
863 [label=<gini = 0.444<br/>samples = 3<br/>value = [1, 2]>, fillcolor="#399de57f"] ;
857 -> 863 ;
864 [label=<gini = 0.0<br/>samples = 3<br/>value = [0, 3]>, fillcolor="#399de5ff"] ;
856 -> 864 ;
