digraph Tree {
node [shape=box, style="filled, rounded", color="black", fontname=helvetica] ;
edge [fontname=helvetica] ;
0 [label=<BOOKDUES_FOR_NPA/ NORMAL_AS_ON_310618' &le; 6540.91<br/>gini = 0.446<br/>samples = 12000<br/>value = [7965, 4035]>, fillcolor="#e581397e"] ;
1 [label=<IBS &le; 0.5<br/>gini = 0.32<br/>samples = 8060<br/>value = [6446, 1614]>, fillcolor="#e58139bf"] ;
0 -> 1 [labeldistance=2.5, labelangle=45, headlabel="True"] ;
2 [label=<FDRD &le; 1.5<br/>gini = 0.485<br/>samples = 2300<br/>value = [1352, 948]>, fillcolor="#e581394c"] ;
1 -> 2 ;
3 [label=<CARD_TYPE<SUB>0</SUB> &le; 0.5<br/>gini = 0.497<br/>samples = 2016<br/>value = [1090, 926]>, fillcolor="#e5813926"] ;
2 -> 3 ;
4 [label=<PHOTO_NON_PHOTOFLG &le; 1.0<br/>gini = 0.463<br/>samples = 1715<br/>value = [1090, 625]>, fillcolor="#e581396d"] ;
3 -> 4 ;
5 [label=<NO_OF_YRS_AT_RES &le; 0.5<br/>gini = 0.378<br/>samples = 946<br/>value = [707, 239]>, fillcolor="#e58139a9"] ;
4 -> 5 ;
6 [label=<AUTO_STATUS &le; 2.5<br/>gini = 0.389<br/>samples = 904<br/>value = [665, 239]>, fillcolor="#e58139a3"] ;
5 -> 6 ;
7 [label=<saving ACC_OPEN_DATE' &le; 20100566.0<br/>gini = 0.395<br/>samples = 881<br/>value = [642, 239]>, fillcolor="#e58139a0"] ;
6 -> 7 ;
8 [label=<saving ACC_OPEN_DATE' &le; 20051053.0<br/>gini = 0.452<br/>samples = 598<br/>value = [392, 206]>, fillcolor="#e5813979"] ;
7 -> 8 ;
9 [label=<MARRIEDARITAL_SINGLETATUSINGLE &le; 1.5<br/>gini = 0.343<br/>samples = 200<br/>value = [156, 44]>, fillcolor="#e58139b7"] ;
8 -> 9 ;
10 [label=<BRANCH STATUS' &le; 2.5<br/>gini = 0.185<br/>samples = 68<br/>value = [61, 7]>, fillcolor="#e58139e2"] ;
9 -> 10 ;
11 [label=<BOOKDUES_FOR_NPA/ NORMAL_AS_ON_310618' &le; 1.115<br/>gini = 0.153<br/>samples = 48<br/>value = [44, 4]>, fillcolor="#e58139e8"] ;
10 -> 11 ;
12 [label=<BOOKDUES_FOR_NPA/ NORMAL_AS_ON_310618' &le; 0.115<br/>gini = 0.213<br/>samples = 33<br/>value = [29, 4]>, fillcolor="#e58139dc"] ;
11 -> 12 ;
13 [label=<OCCUPATION &le; 17.0<br/>gini = 0.17<br/>samples = 32<br/>value = [29, 3]>, fillcolor="#e58139e5"] ;
12 -> 13 ;
14 [label=<gini = 0.0<br/>samples = 10<br/>value = [10, 0]>, fillcolor="#e58139ff"] ;
13 -> 14 ;
15 [label=<saving ACC_OPEN_DATE' &le; 20015669.0<br/>gini = 0.236<br/>samples = 22<br/>value = [19, 3]>, fillcolor="#e58139d7"] ;
13 -> 15 ;
16 [label=<OCCUPATION &le; 29.0<br/>gini = 0.111<br/>samples = 17<br/>value = [16, 1]>, fillcolor="#e58139ef"] ;
15 -> 16 ;
17 [label=<saving ACC_OPEN_DATE' &le; 19945670.0<br/>gini = 0.18<br/>samples = 10<br/>value = [9, 1]>, fillcolor="#e58139e3"] ;
16 -> 17 ;
18 [label=<gini = 0.444<br/>samples = 3<br/>value = [2, 1]>, fillcolor="#e581397f"] ;
17 -> 18 ;
19 [label=<gini = 0.0<br/>samples = 7<br/>value = [7, 0]>, fillcolor="#e58139ff"] ;
17 -> 19 ;
20 [label=<gini = 0.0<br/>samples = 7<br/>value = [7, 0]>, fillcolor="#e58139ff"] ;
16 -> 20 ;
21 [label=<gini = 0.48<br/>samples = 5<br/>value = [3, 2]>, fillcolor="#e5813955"] ;
15 -> 21 ;
22 [label=<gini = 0.0<br/>samples = 1<br/>value = [0, 1]>, fillcolor="#399de5ff"] ;
12 -> 22 ;
23 [label=<gini = 0.0<br/>samples = 15<br/>value = [15, 0]>, fillcolor="#e58139ff"] ;
11 -> 23 ;
24 [label=<BOOKDUES_FOR_NPA/ NORMAL_AS_ON_310618' &le; 0.56<br/>gini = 0.255<br/>samples = 20<br/>value = [17, 3]>, fillcolor="#e58139d2"] ;
10 -> 24 ;
25 [label=<Salary &le; 3.0<br/>gini = 0.105<br/>samples = 18<br/>value = [17, 1]>, fillcolor="#e58139f0"] ;
24 -> 25 ;
26 [label=<LOAN ' &le; 1.0<br/>gini = 0.142<br/>samples = 13<br/>value = [12, 1]>, fillcolor="#e58139ea"] ;
25 -> 26 ;
27 [label=<OCCUPATION &le; 27.5<br/>gini = 0.18<br/>samples = 10<br/>value = [9, 1]>, fillcolor="#e58139e3"] ;
26 -> 27 ;
28 [label=<gini = 0.219<br/>samples = 8<br/>value = [7, 1]>, fillcolor="#e58139db"] ;
27 -> 28 ;
29 [label=<gini = 0.0<br/>samples = 2<br/>value = [2, 0]>, fillcolor="#e58139ff"] ;
27 -> 29 ;
30 [label=<gini = 0.0<br/>samples = 3<br/>value = [3, 0]>, fillcolor="#e58139ff"] ;
26 -> 30 ;
31 [label=<gini = 0.0<br/>samples = 5<br/>value = [5, 0]>, fillcolor="#e58139ff"] ;
25 -> 31 ;
32 [label=<gini = 0.0<br/>samples = 2<br/>value = [0, 2]>, fillcolor="#399de5ff"] ;
24 -> 32 ;
33 [label=<PROFESSION &le; 8.5<br/>gini = 0.403<br/>samples = 132<br/>value = [95, 37]>, fillcolor="#e581399c"] ;
9 -> 33 ;
34 [label=<gini = 0.469<br/>samples = 8<br/>value = [3, 5]>, fillcolor="#399de566"] ;
33 -> 34 ;
35 [label=<AGE &le; 39.5<br/>gini = 0.383<br/>samples = 124<br/>value = [92, 32]>, fillcolor="#e58139a6"] ;
33 -> 35 ;
36 [label=<Salary &le; 7.0<br/>gini = 0.266<br/>samples = 38<br/>value = [32, 6]>, fillcolor="#e58139cf"] ;
35 -> 36 ;
37 [label=<NO_OF_DEPENDENTS &le; 3.5<br/>gini = 0.278<br/>samples = 36<br/>value = [30, 6]>, fillcolor="#e58139cc"] ;
36 -> 37 ;
38 [label=<saving ACC_OPEN_DATE' &le; 20030865.0<br/>gini = 0.251<br/>samples = 34<br/>value = [29, 5]>, fillcolor="#e58139d3"] ;
37 -> 38 ;
39 [label=<gini = 0.0<br/>samples = 19<br/>value = [19, 0]>, fillcolor="#e58139ff"] ;
38 -> 39 ;
40 [label=<BRANCH STATUS' &le; 1.0<br/>gini = 0.444<br/>samples = 15<br/>value = [10, 5]>, fillcolor="#e581397f"] ;
38 -> 40 ;
41 [label=<gini = 0.245<br/>samples = 7<br/>value = [6, 1]>, fillcolor="#e58139d4"] ;
40 -> 41 ;
42 [label=<gini = 0.5<br/>samples = 8<br/>value = [4, 4]>, fillcolor="#e5813900"] ;
40 -> 42 ;
43 [label=<gini = 0.5<br/>samples = 2<br/>value = [1, 1]>, fillcolor="#e5813900"] ;
37 -> 43 ;
44 [label=<gini = 0.0<br/>samples = 2<br/>value = [2, 0]>, fillcolor="#e58139ff"] ;
36 -> 44 ;
45 [label=<AGE &le; 45.5<br/>gini = 0.422<br/>samples = 86<br/>value = [60, 26]>, fillcolor="#e5813991"] ;
35 -> 45 ;
46 [label=<NO_OF_DEPENDENTS &le; 0.5<br/>gini = 0.5<br/>samples = 24<br/>value = [12, 12]>, fillcolor="#e5813900"] ;
45 -> 46 ;
47 [label=<gini = 0.0<br/>samples = 4<br/>value = [0, 4]>, fillcolor="#399de5ff"] ;
46 -> 47 ;
48 [label=<saving ACC_OPEN_DATE' &le; 19945861.0<br/>gini = 0.48<br/>samples = 20<br/>value = [12, 8]>, fillcolor="#e5813955"] ;
46 -> 48 ;
49 [label=<gini = 0.0<br/>samples = 2<br/>value = [0, 2]>, fillcolor="#399de5ff"] ;
48 -> 49 ;
50 [label=<OCCUPATION &le; 20.0<br/>gini = 0.444<br/>samples = 18<br/>value = [12, 6]>, fillcolor="#e581397f"] ;
48 -> 50 ;
51 [label=<gini = 0.0<br/>samples = 3<br/>value = [3, 0]>, fillcolor="#e58139ff"] ;
50 -> 51 ;
52 [label=<NO_OF_DEPENDENTS &le; 1.5<br/>gini = 0.48<br/>samples = 15<br/>value = [9, 6]>, fillcolor="#e5813955"] ;
50 -> 52 ;
53 [label=<gini = 0.48<br/>samples = 5<br/>value = [2, 3]>, fillcolor="#399de555"] ;
52 -> 53 ;
54 [label=<NO_OF_DEPENDENTS &le; 4.5<br/>gini = 0.42<br/>samples = 10<br/>value = [7, 3]>, fillcolor="#e5813992"] ;
52 -> 54 ;
55 [label=<gini = 0.444<br/>samples = 9<br/>value = [6, 3]>, fillcolor="#e581397f"] ;
54 -> 55 ;
56 [label=<gini = 0.0<br/>samples = 1<br/>value = [1, 0]>, fillcolor="#e58139ff"] ;
54 -> 56 ;
57 [label=<BOOKDUES_FOR_NPA/ NORMAL_AS_ON_310618' &le; 3154.525<br/>gini = 0.35<br/>samples = 62<br/>value = [48, 14]>, fillcolor="#e58139b5"] ;
45 -> 57 ;
58 [label=<NO_OF_DEPENDENTS &le; 2.5<br/>gini = 0.293<br/>samples = 56<br/>value = [46, 10]>, fillcolor="#e58139c8"] ;
57 -> 58 ;
59 [label=<PROFESSION &le; 12.0<br/>gini = 0.358<br/>samples = 30<br/>value = [23, 7]>, fillcolor="#e58139b1"] ;
58 -> 59 ;
60 [label=<gini = 0.0<br/>samples = 1<br/>value = [1, 0]>, fillcolor="#e58139ff"] ;
59 -> 60 ;
61 [label=<BRANCH STATUS' &le; 2.5<br/>gini = 0.366<br/>samples = 29<br/>value = [22, 7]>, fillcolor="#e58139ae"] ;
59 -> 61 ;
62 [label=<AGE &le; 48.5<br/>gini = 0.266<br/>samples = 19<br/>value = [16, 3]>, fillcolor="#e58139cf"] ;
61 -> 62 ;
63 [label=<gini = 0.5<br/>samples = 2<br/>value = [1, 1]>, fillcolor="#e5813900"] ;
62 -> 63 ;
64 [label=<PROFESSION &le; 24.0<br/>gini = 0.208<br/>samples = 17<br/>value = [15, 2]>, fillcolor="#e58139dd"] ;
62 -> 64 ;
65 [label=<AGE &le; 62.5<br/>gini = 0.298<br/>samples = 11<br/>value = [9, 2]>, fillcolor="#e58139c6"] ;
64 -> 65 ;
66 [label=<gini = 0.198<br/>samples = 9<br/>value = [8, 1]>, fillcolor="#e58139df"] ;
65 -> 66 ;
67 [label=<gini = 0.5<br/>samples = 2<br/>value = [1, 1]>, fillcolor="#e5813900"] ;
65 -> 67 ;
68 [label=<gini = 0.0<br/>samples = 6<br/>value = [6, 0]>, fillcolor="#e58139ff"] ;
64 -> 68 ;
69 [label=<Salary &le; 3.0<br/>gini = 0.48<br/>samples = 10<br/>value = [6, 4]>, fillcolor="#e5813955"] ;
61 -> 69 ;
70 [label=<gini = 0.408<br/>samples = 7<br/>value = [5, 2]>, fillcolor="#e5813999"] ;
69 -> 70 ;
71 [label=<gini = 0.444<br/>samples = 3<br/>value = [1, 2]>, fillcolor="#399de57f"] ;
69 -> 71 ;
72 [label=<BRANCH STATUS' &le; 0.5<br/>gini = 0.204<br/>samples = 26<br/>value = [23, 3]>, fillcolor="#e58139de"] ;
58 -> 72 ;
73 [label=<PROFESSION &le; 26.0<br/>gini = 0.375<br/>samples = 12<br/>value = [9, 3]>, fillcolor="#e58139aa"] ;
72 -> 73 ;
74 [label=<gini = 0.346<br/>samples = 9<br/>value = [7, 2]>, fillcolor="#e58139b6"] ;
73 -> 74 ;
75 [label=<gini = 0.444<br/>samples = 3<br/>value = [2, 1]>, fillcolor="#e581397f"] ;
73 -> 75 ;
76 [label=<gini = 0.0<br/>samples = 14<br/>value = [14, 0]>, fillcolor="#e58139ff"] ;
72 -> 76 ;
77 [label=<gini = 0.444<br/>samples = 6<br/>value = [2, 4]>, fillcolor="#399de57f"] ;
57 -> 77 ;
78 [label=<Salary &le; 7.0<br/>gini = 0.483<br/>samples = 398<br/>value = [236, 162]>, fillcolor="#e5813950"] ;
8 -> 78 ;
79 [label=<BOOKDUES_FOR_NPA/ NORMAL_AS_ON_310618' &le; 0.005<br/>gini = 0.488<br/>samples = 367<br/>value = [212, 155]>, fillcolor="#e5813945"] ;
78 -> 79 ;
80 [label=<NO_OF_DEPENDENTS &le; 5.5<br/>gini = 0.451<br/>samples = 247<br/>value = [162, 85]>, fillcolor="#e5813979"] ;
79 -> 80 ;
81 [label=<OCCUPATION &le; 10.5<br/>gini = 0.445<br/>samples = 242<br/>value = [161, 81]>, fillcolor="#e581397f"] ;
80 -> 81 ;
82 [label=<AGE &le; 44.5<br/>gini = 0.278<br/>samples = 18<br/>value = [15, 3]>, fillcolor="#e58139cc"] ;
81 -> 82 ;
83 [label=<saving ACC_OPEN_DATE' &le; 20065267.0<br/>gini = 0.142<br/>samples = 13<br/>value = [12, 1]>, fillcolor="#e58139ea"] ;
82 -> 83 ;
84 [label=<gini = 0.0<br/>samples = 1<br/>value = [0, 1]>, fillcolor="#399de5ff"] ;
83 -> 84 ;
85 [label=<gini = 0.0<br/>samples = 12<br/>value = [12, 0]>, fillcolor="#e58139ff"] ;
83 -> 85 ;
86 [label=<gini = 0.48<br/>samples = 5<br/>value = [3, 2]>, fillcolor="#e5813955"] ;
82 -> 86 ;
87 [label=<SPOUSE WORKING' &le; 1.5<br/>gini = 0.454<br/>samples = 224<br/>value = [146, 78]>, fillcolor="#e5813977"] ;
81 -> 87 ;
88 [label=<LOAN ' &le; 1.0<br/>gini = 0.448<br/>samples = 109<br/>value = [72, 37]>, fillcolor="#e581397c"] ;
87 -> 88 ;
89 [label=<AGE &le; 61.5<br/>gini = 0.465<br/>samples = 98<br/>value = [62, 36]>, fillcolor="#e581396b"] ;
88 -> 89 ;
90 [label=<OCCUPATION &le; 24.0<br/>gini = 0.457<br/>samples = 96<br/>value = [62, 34]>, fillcolor="#e5813973"] ;
89 -> 90 ;
91 [label=<saving ACC_OPEN_DATE' &le; 20065654.0<br/>gini = 0.375<br/>samples = 24<br/>value = [18, 6]>, fillcolor="#e58139aa"] ;
90 -> 91 ;
92 [label=<gini = 0.48<br/>samples = 5<br/>value = [2, 3]>, fillcolor="#399de555"] ;
91 -> 92 ;
93 [label=<AGE &le; 44.5<br/>gini = 0.266<br/>samples = 19<br/>value = [16, 3]>, fillcolor="#e58139cf"] ;
91 -> 93 ;
94 [label=<GENDER &le; 0.5<br/>gini = 0.355<br/>samples = 13<br/>value = [10, 3]>, fillcolor="#e58139b3"] ;
93 -> 94 ;
95 [label=<gini = 0.0<br/>samples = 1<br/>value = [0, 1]>, fillcolor="#399de5ff"] ;
94 -> 95 ;
96 [label=<Salary &le; 3.0<br/>gini = 0.278<br/>samples = 12<br/>value = [10, 2]>, fillcolor="#e58139cc"] ;
94 -> 96 ;
97 [label=<gini = 0.278<br/>samples = 6<br/>value = [5, 1]>, fillcolor="#e58139cc"] ;
96 -> 97 ;
98 [label=<gini = 0.278<br/>samples = 6<br/>value = [5, 1]>, fillcolor="#e58139cc"] ;
96 -> 98 ;
99 [label=<gini = 0.0<br/>samples = 6<br/>value = [6, 0]>, fillcolor="#e58139ff"] ;
93 -> 99 ;
100 [label=<PROFESSION &le; 29.5<br/>gini = 0.475<br/>samples = 72<br/>value = [44, 28]>, fillcolor="#e581395d"] ;
90 -> 100 ;
101 [label=<PROFESSION &le; 25.5<br/>gini = 0.485<br/>samples = 63<br/>value = [37, 26]>, fillcolor="#e581394c"] ;
100 -> 101 ;
102 [label=<AGE &le; 34.5<br/>gini = 0.483<br/>samples = 59<br/>value = [35, 24]>, fillcolor="#e5813950"] ;
101 -> 102 ;
103 [label=<saving ACC_OPEN_DATE' &le; 20060772.0<br/>gini = 0.408<br/>samples = 28<br/>value = [20, 8]>, fillcolor="#e5813999"] ;
102 -> 103 ;
104 [label=<gini = 0.0<br/>samples = 3<br/>value = [0, 3]>, fillcolor="#399de5ff"] ;
103 -> 104 ;
105 [label=<Salary &le; 3.0<br/>gini = 0.32<br/>samples = 25<br/>value = [20, 5]>, fillcolor="#e58139bf"] ;
103 -> 105 ;
106 [label=<saving ACC_OPEN_DATE' &le; 20080870.0<br/>gini = 0.36<br/>samples = 17<br/>value = [13, 4]>, fillcolor="#e58139b1"] ;
105 -> 106 ;
107 [label=<gini = 0.0<br/>samples = 8<br/>value = [8, 0]>, fillcolor="#e58139ff"] ;
106 -> 107 ;
108 [label=<gini = 0.494<br/>samples = 9<br/>value = [5, 4]>, fillcolor="#e5813933"] ;
106 -> 108 ;
109 [label=<gini = 0.219<br/>samples = 8<br/>value = [7, 1]>, fillcolor="#e58139db"] ;
105 -> 109 ;
110 [label=<BRANCH STATUS' &le; 0.5<br/>gini = 0.499<br/>samples = 31<br/>value = [15, 16]>, fillcolor="#399de510"] ;
102 -> 110 ;
111 [label=<AGE &le; 44.5<br/>gini = 0.444<br/>samples = 15<br/>value = [5, 10]>, fillcolor="#399de57f"] ;
110 -> 111 ;
112 [label=<NO_OF_DEPENDENTS &le; 2.5<br/>gini = 0.408<br/>samples = 14<br/>value = [4, 10]>, fillcolor="#399de599"] ;
111 -> 112 ;
113 [label=<saving ACC_OPEN_DATE' &le; 20090758.0<br/>gini = 0.278<br/>samples = 12<br/>value = [2, 10]>, fillcolor="#399de5cc"] ;
112 -> 113 ;
114 [label=<saving ACC_OPEN_DATE' &le; 20070810.0<br/>gini = 0.165<br/>samples = 11<br/>value = [1, 10]>, fillcolor="#399de5e6"] ;
113 -> 114 ;
115 [label=<gini = 0.5<br/>samples = 2<br/>value = [1, 1]>, fillcolor="#e5813900"] ;
114 -> 115 ;
116 [label=<gini = 0.0<br/>samples = 9<br/>value = [0, 9]>, fillcolor="#399de5ff"] ;
114 -> 116 ;
117 [label=<gini = 0.0<br/>samples = 1<br/>value = [1, 0]>, fillcolor="#e58139ff"] ;
113 -> 117 ;
118 [label=<gini = 0.0<br/>samples = 2<br/>value = [2, 0]>, fillcolor="#e58139ff"] ;
112 -> 118 ;
119 [label=<gini = 0.0<br/>samples = 1<br/>value = [1, 0]>, fillcolor="#e58139ff"] ;
111 -> 119 ;
120 [label=<saving ACC_OPEN_DATE' &le; 20095517.0<br/>gini = 0.469<br/>samples = 16<br/>value = [10, 6]>, fillcolor="#e5813966"] ;
110 -> 120 ;
121 [label=<saving ACC_OPEN_DATE' &le; 20060718.0<br/>gini = 0.444<br/>samples = 15<br/>value = [10, 5]>, fillcolor="#e581397f"] ;
120 -> 121 ;
122 [label=<gini = 0.0<br/>samples = 2<br/>value = [2, 0]>, fillcolor="#e58139ff"] ;
121 -> 122 ;
123 [label=<AGE &le; 52.5<br/>gini = 0.473<br/>samples = 13<br/>value = [8, 5]>, fillcolor="#e5813960"] ;
121 -> 123 ;
124 [label=<saving ACC_OPEN_DATE' &le; 20070514.0<br/>gini = 0.496<br/>samples = 11<br/>value = [6, 5]>, fillcolor="#e581392a"] ;
123 -> 124 ;
125 [label=<gini = 0.0<br/>samples = 2<br/>value = [0, 2]>, fillcolor="#399de5ff"] ;
124 -> 125 ;
126 [label=<gini = 0.444<br/>samples = 9<br/>value = [6, 3]>, fillcolor="#e581397f"] ;
124 -> 126 ;
127 [label=<gini = 0.0<br/>samples = 2<br/>value = [2, 0]>, fillcolor="#e58139ff"] ;
123 -> 127 ;
128 [label=<gini = 0.0<br/>samples = 1<br/>value = [0, 1]>, fillcolor="#399de5ff"] ;
120 -> 128 ;
129 [label=<gini = 0.5<br/>samples = 4<br/>value = [2, 2]>, fillcolor="#e5813900"] ;
101 -> 129 ;
130 [label=<gini = 0.346<br/>samples = 9<br/>value = [7, 2]>, fillcolor="#e58139b6"] ;
100 -> 130 ;
131 [label=<gini = 0.0<br/>samples = 2<br/>value = [0, 2]>, fillcolor="#399de5ff"] ;
89 -> 131 ;
132 [label=<AGE &le; 33.5<br/>gini = 0.165<br/>samples = 11<br/>value = [10, 1]>, fillcolor="#e58139e6"] ;
88 -> 132 ;
133 [label=<gini = 0.278<br/>samples = 6<br/>value = [5, 1]>, fillcolor="#e58139cc"] ;
132 -> 133 ;
134 [label=<gini = 0.0<br/>samples = 5<br/>value = [5, 0]>, fillcolor="#e58139ff"] ;
132 -> 134 ;
135 [label=<GENDER &le; 0.5<br/>gini = 0.459<br/>samples = 115<br/>value = [74, 41]>, fillcolor="#e5813972"] ;
87 -> 135 ;
136 [label=<saving ACC_OPEN_DATE' &le; 20090716.0<br/>gini = 0.496<br/>samples = 11<br/>value = [6, 5]>, fillcolor="#e581392a"] ;
135 -> 136 ;
137 [label=<gini = 0.469<br/>samples = 8<br/>value = [3, 5]>, fillcolor="#399de566"] ;
136 -> 137 ;
138 [label=<gini = 0.0<br/>samples = 3<br/>value = [3, 0]>, fillcolor="#e58139ff"] ;
136 -> 138 ;
139 [label=<Salary &le; 3.0<br/>gini = 0.453<br/>samples = 104<br/>value = [68, 36]>, fillcolor="#e5813978"] ;
135 -> 139 ;
140 [label=<LOAN ' &le; 1.0<br/>gini = 0.44<br/>samples = 52<br/>value = [35, 17]>, fillcolor="#e5813983"] ;
139 -> 140 ;
141 [label=<saving ACC_OPEN_DATE' &le; 20090624.0<br/>gini = 0.474<br/>samples = 44<br/>value = [27, 17]>, fillcolor="#e581395e"] ;
140 -> 141 ;
142 [label=<saving ACC_OPEN_DATE' &le; 20081114.0<br/>gini = 0.494<br/>samples = 38<br/>value = [21, 17]>, fillcolor="#e5813931"] ;
141 -> 142 ;
143 [label=<saving ACC_OPEN_DATE' &le; 20075559.0<br/>gini = 0.458<br/>samples = 31<br/>value = [20, 11]>, fillcolor="#e5813973"] ;
142 -> 143 ;
144 [label=<OCCUPATION &le; 30.0<br/>gini = 0.499<br/>samples = 19<br/>value = [9, 10]>, fillcolor="#399de519"] ;
143 -> 144 ;
145 [label=<saving ACC_OPEN_DATE' &le; 20070574.0<br/>gini = 0.5<br/>samples = 16<br/>value = [8, 8]>, fillcolor="#e5813900"] ;
144 -> 145 ;
146 [label=<AGE &le; 35.0<br/>gini = 0.444<br/>samples = 12<br/>value = [8, 4]>, fillcolor="#e581397f"] ;
145 -> 146 ;
147 [label=<gini = 0.0<br/>samples = 3<br/>value = [3, 0]>, fillcolor="#e58139ff"] ;
146 -> 147 ;
148 [label=<gini = 0.494<br/>samples = 9<br/>value = [5, 4]>, fillcolor="#e5813933"] ;
146 -> 148 ;
149 [label=<gini = 0.0<br/>samples = 4<br/>value = [0, 4]>, fillcolor="#399de5ff"] ;
145 -> 149 ;
150 [label=<gini = 0.444<br/>samples = 3<br/>value = [1, 2]>, fillcolor="#399de57f"] ;
144 -> 150 ;
151 [label=<AGE &le; 42.0<br/>gini = 0.153<br/>samples = 12<br/>value = [11, 1]>, fillcolor="#e58139e8"] ;
143 -> 151 ;
152 [label=<gini = 0.0<br/>samples = 9<br/>value = [9, 0]>, fillcolor="#e58139ff"] ;
151 -> 152 ;
153 [label=<gini = 0.444<br/>samples = 3<br/>value = [2, 1]>, fillcolor="#e581397f"] ;
151 -> 153 ;
154 [label=<gini = 0.245<br/>samples = 7<br/>value = [1, 6]>, fillcolor="#399de5d4"] ;
142 -> 154 ;
155 [label=<gini = 0.0<br/>samples = 6<br/>value = [6, 0]>, fillcolor="#e58139ff"] ;
141 -> 155 ;
156 [label=<gini = 0.0<br/>samples = 8<br/>value = [8, 0]>, fillcolor="#e58139ff"] ;
140 -> 156 ;
157 [label=<saving ACC_OPEN_DATE' &le; 20100416.0<br/>gini = 0.464<br/>samples = 52<br/>value = [33, 19]>, fillcolor="#e581396c"] ;
139 -> 157 ;
158 [label=<saving ACC_OPEN_DATE' &le; 20091163.0<br/>gini = 0.449<br/>samples = 50<br/>value = [33, 17]>, fillcolor="#e581397c"] ;
157 -> 158 ;
159 [label=<LOAN ' &le; 1.0<br/>gini = 0.47<br/>samples = 45<br/>value = [28, 17]>, fillcolor="#e5813964"] ;
158 -> 159 ;
160 [label=<NO_OF_DEPENDENTS &le; 4.5<br/>gini = 0.485<br/>samples = 41<br/>value = [24, 17]>, fillcolor="#e581394a"] ;
159 -> 160 ;
161 [label=<AGE &le; 33.0<br/>gini = 0.48<br/>samples = 40<br/>value = [24, 16]>, fillcolor="#e5813955"] ;
160 -> 161 ;
162 [label=<gini = 0.0<br/>samples = 2<br/>value = [2, 0]>, fillcolor="#e58139ff"] ;
161 -> 162 ;
163 [label=<saving ACC_OPEN_DATE' &le; 20060222.0<br/>gini = 0.488<br/>samples = 38<br/>value = [22, 16]>, fillcolor="#e5813946"] ;
161 -> 163 ;
164 [label=<gini = 0.0<br/>samples = 3<br/>value = [3, 0]>, fillcolor="#e58139ff"] ;
163 -> 164 ;
165 [label=<AGE &le; 52.0<br/>gini = 0.496<br/>samples = 35<br/>value = [19, 16]>, fillcolor="#e5813928"] ;
163 -> 165 ;
166 [label=<AGE &le; 46.5<br/>gini = 0.5<br/>samples = 30<br/>value = [15, 15]>, fillcolor="#e5813900"] ;
165 -> 166 ;
167 [label=<AGE &le; 45.5<br/>gini = 0.497<br/>samples = 26<br/>value = [14, 12]>, fillcolor="#e5813924"] ;
166 -> 167 ;
168 [label=<saving ACC_OPEN_DATE' &le; 20080904.0<br/>gini = 0.499<br/>samples = 21<br/>value = [10, 11]>, fillcolor="#399de517"] ;
167 -> 168 ;
169 [label=<BRANCH STATUS' &le; 1.0<br/>gini = 0.492<br/>samples = 16<br/>value = [9, 7]>, fillcolor="#e5813939"] ;
168 -> 169 ;
170 [label=<gini = 0.469<br/>samples = 8<br/>value = [3, 5]>, fillcolor="#399de566"] ;
169 -> 170 ;
171 [label=<gini = 0.375<br/>samples = 8<br/>value = [6, 2]>, fillcolor="#e58139aa"] ;
169 -> 171 ;
172 [label=<gini = 0.32<br/>samples = 5<br/>value = [1, 4]>, fillcolor="#399de5bf"] ;
168 -> 172 ;
173 [label=<gini = 0.32<br/>samples = 5<br/>value = [4, 1]>, fillcolor="#e58139bf"] ;
167 -> 173 ;
174 [label=<gini = 0.375<br/>samples = 4<br/>value = [1, 3]>, fillcolor="#399de5aa"] ;
166 -> 174 ;
175 [label=<gini = 0.32<br/>samples = 5<br/>value = [4, 1]>, fillcolor="#e58139bf"] ;
165 -> 175 ;
176 [label=<gini = 0.0<br/>samples = 1<br/>value = [0, 1]>, fillcolor="#399de5ff"] ;
160 -> 176 ;
177 [label=<gini = 0.0<br/>samples = 4<br/>value = [4, 0]>, fillcolor="#e58139ff"] ;
159 -> 177 ;
178 [label=<gini = 0.0<br/>samples = 5<br/>value = [5, 0]>, fillcolor="#e58139ff"] ;
158 -> 178 ;
179 [label=<gini = 0.0<br/>samples = 2<br/>value = [0, 2]>, fillcolor="#399de5ff"] ;
157 -> 179 ;
180 [label=<gini = 0.32<br/>samples = 5<br/>value = [1, 4]>, fillcolor="#399de5bf"] ;
80 -> 180 ;
181 [label=<AGE &le; 28.5<br/>gini = 0.486<br/>samples = 120<br/>value = [50, 70]>, fillcolor="#399de549"] ;
79 -> 181 ;
182 [label=<gini = 0.245<br/>samples = 7<br/>value = [6, 1]>, fillcolor="#e58139d4"] ;
181 -> 182 ;
183 [label=<AGE &le; 55.0<br/>gini = 0.476<br/>samples = 113<br/>value = [44, 69]>, fillcolor="#399de55c"] ;
181 -> 183 ;
184 [label=<NO_OF_DEPENDENTS &le; 4.5<br/>gini = 0.469<br/>samples = 109<br/>value = [41, 68]>, fillcolor="#399de565"] ;
183 -> 184 ;
185 [label=<BOOKDUES_FOR_NPA/ NORMAL_AS_ON_310618' &le; 197.895<br/>gini = 0.474<br/>samples = 106<br/>value = [41, 65]>, fillcolor="#399de55e"] ;
184 -> 185 ;
186 [label=<NO_OF_DEPENDENTS &le; 0.5<br/>gini = 0.069<br/>samples = 28<br/>value = [1, 27]>, fillcolor="#399de5f6"] ;
185 -> 186 ;
187 [label=<MARRIEDARITAL_SINGLETATUSINGLE &le; 1.5<br/>gini = 0.165<br/>samples = 11<br/>value = [1, 10]>, fillcolor="#399de5e6"] ;
186 -> 187 ;
188 [label=<gini = 0.375<br/>samples = 4<br/>value = [1, 3]>, fillcolor="#399de5aa"] ;
187 -> 188 ;
189 [label=<gini = 0.0<br/>samples = 7<br/>value = [0, 7]>, fillcolor="#399de5ff"] ;
187 -> 189 ;
190 [label=<gini = 0.0<br/>samples = 17<br/>value = [0, 17]>, fillcolor="#399de5ff"] ;
186 -> 190 ;
191 [label=<OCCUPATION &le; 29.0<br/>gini = 0.5<br/>samples = 78<br/>value = [40, 38]>, fillcolor="#e581390d"] ;
185 -> 191 ;
192 [label=<NO_OF_DEPENDENTS &le; 1.5<br/>gini = 0.496<br/>samples = 70<br/>value = [38, 32]>, fillcolor="#e5813928"] ;
191 -> 192 ;
193 [label=<BOOKDUES_FOR_NPA/ NORMAL_AS_ON_310618' &le; 1221.09<br/>gini = 0.499<br/>samples = 25<br/>value = [13, 12]>, fillcolor="#e5813914"] ;
192 -> 193 ;
194 [label=<gini = 0.0<br/>samples = 8<br/>value = [8, 0]>, fillcolor="#e58139ff"] ;
193 -> 194 ;
195 [label=<AGE &le; 50.5<br/>gini = 0.415<br/>samples = 17<br/>value = [5, 12]>, fillcolor="#399de595"] ;
193 -> 195 ;
196 [label=<OCCUPATION &le; 18.0<br/>gini = 0.375<br/>samples = 16<br/>value = [4, 12]>, fillcolor="#399de5aa"] ;
195 -> 196 ;
197 [label=<gini = 0.245<br/>samples = 7<br/>value = [1, 6]>, fillcolor="#399de5d4"] ;
196 -> 197 ;
198 [label=<gini = 0.444<br/>samples = 9<br/>value = [3, 6]>, fillcolor="#399de57f"] ;
196 -> 198 ;
199 [label=<gini = 0.0<br/>samples = 1<br/>value = [1, 0]>, fillcolor="#e58139ff"] ;
195 -> 199 ;
200 [label=<MARRIEDARITAL_SINGLETATUSINGLE &le; 1.5<br/>gini = 0.494<br/>samples = 45<br/>value = [25, 20]>, fillcolor="#e5813933"] ;
192 -> 200 ;
201 [label=<GENDER &le; 0.5<br/>gini = 0.469<br/>samples = 24<br/>value = [15, 9]>, fillcolor="#e5813966"] ;
200 -> 201 ;
202 [label=<gini = 0.0<br/>samples = 1<br/>value = [1, 0]>, fillcolor="#e58139ff"] ;
201 -> 202 ;
203 [label=<LOAN ' &le; 1.0<br/>gini = 0.476<br/>samples = 23<br/>value = [14, 9]>, fillcolor="#e581395b"] ;
201 -> 203 ;
204 [label=<NO_OF_DEPENDENTS &le; 3.5<br/>gini = 0.5<br/>samples = 18<br/>value = [9, 9]>, fillcolor="#e5813900"] ;
203 -> 204 ;
205 [label=<Salary &le; 3.0<br/>gini = 0.498<br/>samples = 15<br/>value = [8, 7]>, fillcolor="#e5813920"] ;
204 -> 205 ;
206 [label=<gini = 0.48<br/>samples = 5<br/>value = [3, 2]>, fillcolor="#e5813955"] ;
205 -> 206 ;
207 [label=<OCCUPATION &le; 11.5<br/>gini = 0.5<br/>samples = 10<br/>value = [5, 5]>, fillcolor="#e5813900"] ;
205 -> 207 ;
208 [label=<gini = 0.444<br/>samples = 3<br/>value = [1, 2]>, fillcolor="#399de57f"] ;
207 -> 208 ;
209 [label=<gini = 0.49<br/>samples = 7<br/>value = [4, 3]>, fillcolor="#e5813940"] ;
207 -> 209 ;
210 [label=<gini = 0.444<br/>samples = 3<br/>value = [1, 2]>, fillcolor="#399de57f"] ;
204 -> 210 ;
211 [label=<gini = 0.0<br/>samples = 5<br/>value = [5, 0]>, fillcolor="#e58139ff"] ;
203 -> 211 ;
212 [label=<BOOKDUES_FOR_NPA/ NORMAL_AS_ON_310618' &le; 857.73<br/>gini = 0.499<br/>samples = 21<br/>value = [10, 11]>, fillcolor="#399de517"] ;
200 -> 212 ;
213 [label=<gini = 0.32<br/>samples = 5<br/>value = [4, 1]>, fillcolor="#e58139bf"] ;
212 -> 213 ;
214 [label=<BOOKDUES_FOR_NPA/ NORMAL_AS_ON_310618' &le; 5936.13<br/>gini = 0.469<br/>samples = 16<br/>value = [6, 10]>, fillcolor="#399de566"] ;
212 -> 214 ;
215 [label=<OCCUPATION &le; 18.0<br/>gini = 0.444<br/>samples = 15<br/>value = [5, 10]>, fillcolor="#399de57f"] ;
214 -> 215 ;
216 [label=<gini = 0.0<br/>samples = 3<br/>value = [0, 3]>, fillcolor="#399de5ff"] ;
215 -> 216 ;
217 [label=<LOAN ' &le; 1.0<br/>gini = 0.486<br/>samples = 12<br/>value = [5, 7]>, fillcolor="#399de549"] ;
215 -> 217 ;
218 [label=<saving ACC_OPEN_DATE' &le; 20065664.0<br/>gini = 0.496<br/>samples = 11<br/>value = [5, 6]>, fillcolor="#399de52a"] ;
217 -> 218 ;
219 [label=<gini = 0.0<br/>samples = 3<br/>value = [0, 3]>, fillcolor="#399de5ff"] ;
218 -> 219 ;
220 [label=<gini = 0.469<br/>samples = 8<br/>value = [5, 3]>, fillcolor="#e5813966"] ;
218 -> 220 ;
221 [label=<gini = 0.0<br/>samples = 1<br/>value = [0, 1]>, fillcolor="#399de5ff"] ;
217 -> 221 ;
222 [label=<gini = 0.0<br/>samples = 1<br/>value = [1, 0]>, fillcolor="#e58139ff"] ;
214 -> 222 ;
223 [label=<gini = 0.375<br/>samples = 8<br/>value = [2, 6]>, fillcolor="#399de5aa"] ;
191 -> 223 ;
224 [label=<gini = 0.0<br/>samples = 3<br/>value = [0, 3]>, fillcolor="#399de5ff"] ;
184 -> 224 ;
225 [label=<gini = 0.375<br/>samples = 4<br/>value = [3, 1]>, fillcolor="#e58139aa"] ;
183 -> 225 ;
226 [label=<OCCUPATION &le; 7.5<br/>gini = 0.35<br/>samples = 31<br/>value = [24, 7]>, fillcolor="#e58139b5"] ;
78 -> 226 ;
227 [label=<gini = 0.0<br/>samples = 1<br/>value = [0, 1]>, fillcolor="#399de5ff"] ;
226 -> 227 ;
228 [label=<PROFESSION &le; 30.5<br/>gini = 0.32<br/>samples = 30<br/>value = [24, 6]>, fillcolor="#e58139bf"] ;
226 -> 228 ;
229 [label=<PROFESSION &le; 26.5<br/>gini = 0.285<br/>samples = 29<br/>value = [24, 5]>, fillcolor="#e58139ca"] ;
228 -> 229 ;
230 [label=<NO_OF_DEPENDENTS &le; 1.5<br/>gini = 0.415<br/>samples = 17<br/>value = [12, 5]>, fillcolor="#e5813995"] ;
229 -> 230 ;
231 [label=<gini = 0.32<br/>samples = 5<br/>value = [1, 4]>, fillcolor="#399de5bf"] ;
230 -> 231 ;
232 [label=<AGE &le; 57.5<br/>gini = 0.153<br/>samples = 12<br/>value = [11, 1]>, fillcolor="#e58139e8"] ;
230 -> 232 ;
233 [label=<gini = 0.0<br/>samples = 10<br/>value = [10, 0]>, fillcolor="#e58139ff"] ;
232 -> 233 ;
234 [label=<gini = 0.5<br/>samples = 2<br/>value = [1, 1]>, fillcolor="#e5813900"] ;
232 -> 234 ;
235 [label=<gini = 0.0<br/>samples = 12<br/>value = [12, 0]>, fillcolor="#e58139ff"] ;
229 -> 235 ;
236 [label=<gini = 0.0<br/>samples = 1<br/>value = [0, 1]>, fillcolor="#399de5ff"] ;
228 -> 236 ;
237 [label=<BRANCH STATUS' &le; 0.5<br/>gini = 0.206<br/>samples = 283<br/>value = [250, 33]>, fillcolor="#e58139dd"] ;
7 -> 237 ;
238 [label=<AGE &le; 40.5<br/>gini = 0.223<br/>samples = 94<br/>value = [82, 12]>, fillcolor="#e58139da"] ;
237 -> 238 ;
239 [label=<BOOKDUES_FOR_NPA/ NORMAL_AS_ON_310618' &le; 2601.25<br/>gini = 0.278<br/>samples = 60<br/>value = [50, 10]>, fillcolor="#e58139cc"] ;
238 -> 239 ;
240 [label=<BOOKDUES_FOR_NPA/ NORMAL_AS_ON_310618' &le; -103.66<br/>gini = 0.15<br/>samples = 49<br/>value = [45, 4]>, fillcolor="#e58139e8"] ;
239 -> 240 ;
241 [label=<gini = 0.0<br/>samples = 2<br/>value = [0, 2]>, fillcolor="#399de5ff"] ;
240 -> 241 ;
242 [label=<MARRIEDARITAL_SINGLETATUSINGLE &le; 1.5<br/>gini = 0.081<br/>samples = 47<br/>value = [45, 2]>, fillcolor="#e58139f4"] ;
240 -> 242 ;
243 [label=<gini = 0.0<br/>samples = 17<br/>value = [17, 0]>, fillcolor="#e58139ff"] ;
242 -> 243 ;
244 [label=<GENDER &le; 0.5<br/>gini = 0.124<br/>samples = 30<br/>value = [28, 2]>, fillcolor="#e58139ed"] ;
242 -> 244 ;
245 [label=<gini = 0.0<br/>samples = 6<br/>value = [6, 0]>, fillcolor="#e58139ff"] ;
244 -> 245 ;
246 [label=<BOOKDUES_FOR_NPA/ NORMAL_AS_ON_310618' &le; 0.56<br/>gini = 0.153<br/>samples = 24<br/>value = [22, 2]>, fillcolor="#e58139e8"] ;
244 -> 246 ;
247 [label=<gini = 0.0<br/>samples = 17<br/>value = [17, 0]>, fillcolor="#e58139ff"] ;
246 -> 247 ;
248 [label=<gini = 0.408<br/>samples = 7<br/>value = [5, 2]>, fillcolor="#e5813999"] ;
246 -> 248 ;
249 [label=<AGE &le; 34.5<br/>gini = 0.496<br/>samples = 11<br/>value = [5, 6]>, fillcolor="#399de52a"] ;
239 -> 249 ;
250 [label=<gini = 0.32<br/>samples = 5<br/>value = [4, 1]>, fillcolor="#e58139bf"] ;
249 -> 250 ;
251 [label=<gini = 0.278<br/>samples = 6<br/>value = [1, 5]>, fillcolor="#399de5cc"] ;
249 -> 251 ;
252 [label=<LOAN ' &le; 1.0<br/>gini = 0.111<br/>samples = 34<br/>value = [32, 2]>, fillcolor="#e58139ef"] ;
238 -> 252 ;
253 [label=<AGE &le; 50.5<br/>gini = 0.067<br/>samples = 29<br/>value = [28, 1]>, fillcolor="#e58139f6"] ;
252 -> 253 ;
254 [label=<gini = 0.0<br/>samples = 19<br/>value = [19, 0]>, fillcolor="#e58139ff"] ;
253 -> 254 ;
255 [label=<NO_OF_DEPENDENTS &le; 2.5<br/>gini = 0.18<br/>samples = 10<br/>value = [9, 1]>, fillcolor="#e58139e3"] ;
253 -> 255 ;
256 [label=<gini = 0.0<br/>samples = 5<br/>value = [5, 0]>, fillcolor="#e58139ff"] ;
255 -> 256 ;
257 [label=<gini = 0.32<br/>samples = 5<br/>value = [4, 1]>, fillcolor="#e58139bf"] ;
255 -> 257 ;
258 [label=<gini = 0.32<br/>samples = 5<br/>value = [4, 1]>, fillcolor="#e58139bf"] ;
252 -> 258 ;
259 [label=<OCCUPATION &le; 13.5<br/>gini = 0.198<br/>samples = 189<br/>value = [168, 21]>, fillcolor="#e58139df"] ;
237 -> 259 ;
260 [label=<MARRIEDARITAL_SINGLETATUSINGLE &le; 1.5<br/>gini = 0.289<br/>samples = 40<br/>value = [33, 7]>, fillcolor="#e58139c9"] ;
259 -> 260 ;
261 [label=<NO_OF_DEPENDENTS &le; 0.5<br/>gini = 0.278<br/>samples = 24<br/>value = [20, 4]>, fillcolor="#e58139cc"] ;
260 -> 261 ;
262 [label=<gini = 0.444<br/>samples = 3<br/>value = [1, 2]>, fillcolor="#399de57f"] ;
261 -> 262 ;
263 [label=<OCCUPATION &le; 11.5<br/>gini = 0.172<br/>samples = 21<br/>value = [19, 2]>, fillcolor="#e58139e4"] ;
261 -> 263 ;
264 [label=<BOOKDUES_FOR_NPA/ NORMAL_AS_ON_310618' &le; 2438.06<br/>gini = 0.1<br/>samples = 19<br/>value = [18, 1]>, fillcolor="#e58139f1"] ;
263 -> 264 ;
265 [label=<gini = 0.0<br/>samples = 16<br/>value = [16, 0]>, fillcolor="#e58139ff"] ;
264 -> 265 ;
266 [label=<gini = 0.444<br/>samples = 3<br/>value = [2, 1]>, fillcolor="#e581397f"] ;
264 -> 266 ;
267 [label=<gini = 0.5<br/>samples = 2<br/>value = [1, 1]>, fillcolor="#e5813900"] ;
263 -> 267 ;
268 [label=<BOOKDUES_FOR_NPA/ NORMAL_AS_ON_310618' &le; 795.425<br/>gini = 0.305<br/>samples = 16<br/>value = [13, 3]>, fillcolor="#e58139c4"] ;
260 -> 268 ;
269 [label=<PROFESSION &le; 5.0<br/>gini = 0.142<br/>samples = 13<br/>value = [12, 1]>, fillcolor="#e58139ea"] ;
268 -> 269 ;
270 [label=<gini = 0.5<br/>samples = 2<br/>value = [1, 1]>, fillcolor="#e5813900"] ;
269 -> 270 ;
271 [label=<gini = 0.0<br/>samples = 11<br/>value = [11, 0]>, fillcolor="#e58139ff"] ;
269 -> 271 ;
272 [label=<gini = 0.444<br/>samples = 3<br/>value = [1, 2]>, fillcolor="#399de57f"] ;
268 -> 272 ;
273 [label=<Salary &le; 7.0<br/>gini = 0.17<br/>samples = 149<br/>value = [135, 14]>, fillcolor="#e58139e5"] ;
259 -> 273 ;
274 [label=<saving ACC_OPEN_DATE' &le; 20111220.0<br/>gini = 0.196<br/>samples = 118<br/>value = [105, 13]>, fillcolor="#e58139df"] ;
273 -> 274 ;
275 [label=<NO_OF_DEPENDENTS &le; 0.5<br/>gini = 0.33<br/>samples = 48<br/>value = [38, 10]>, fillcolor="#e58139bc"] ;
274 -> 275 ;
276 [label=<BOOKDUES_FOR_NPA/ NORMAL_AS_ON_310618' &le; 2939.81<br/>gini = 0.444<br/>samples = 15<br/>value = [10, 5]>, fillcolor="#e581397f"] ;
275 -> 276 ;
277 [label=<LOAN ' &le; 1.0<br/>gini = 0.355<br/>samples = 13<br/>value = [10, 3]>, fillcolor="#e58139b3"] ;
276 -> 277 ;
278 [label=<gini = 0.444<br/>samples = 9<br/>value = [6, 3]>, fillcolor="#e581397f"] ;
277 -> 278 ;
279 [label=<gini = 0.0<br/>samples = 4<br/>value = [4, 0]>, fillcolor="#e58139ff"] ;
277 -> 279 ;
280 [label=<gini = 0.0<br/>samples = 2<br/>value = [0, 2]>, fillcolor="#399de5ff"] ;
276 -> 280 ;
281 [label=<Salary &le; 3.0<br/>gini = 0.257<br/>samples = 33<br/>value = [28, 5]>, fillcolor="#e58139d1"] ;
275 -> 281 ;
282 [label=<MARRIEDARITAL_SINGLETATUSINGLE &le; 1.5<br/>gini = 0.32<br/>samples = 15<br/>value = [12, 3]>, fillcolor="#e58139bf"] ;
281 -> 282 ;
283 [label=<gini = 0.0<br/>samples = 6<br/>value = [6, 0]>, fillcolor="#e58139ff"] ;
282 -> 283 ;
284 [label=<gini = 0.444<br/>samples = 9<br/>value = [6, 3]>, fillcolor="#e581397f"] ;
282 -> 284 ;
285 [label=<NO_OF_DEPENDENTS &le; 2.5<br/>gini = 0.198<br/>samples = 18<br/>value = [16, 2]>, fillcolor="#e58139df"] ;
281 -> 285 ;
286 [label=<gini = 0.0<br/>samples = 10<br/>value = [10, 0]>, fillcolor="#e58139ff"] ;
285 -> 286 ;
287 [label=<gini = 0.375<br/>samples = 8<br/>value = [6, 2]>, fillcolor="#e58139aa"] ;
285 -> 287 ;
288 [label=<saving ACC_OPEN_DATE' &le; 20130811.0<br/>gini = 0.082<br/>samples = 70<br/>value = [67, 3]>, fillcolor="#e58139f4"] ;
274 -> 288 ;
289 [label=<PROFESSION &le; 26.5<br/>gini = 0.127<br/>samples = 44<br/>value = [41, 3]>, fillcolor="#e58139ec"] ;
288 -> 289 ;
290 [label=<BOOKDUES_FOR_NPA/ NORMAL_AS_ON_310618' &le; 2965.46<br/>gini = 0.064<br/>samples = 30<br/>value = [29, 1]>, fillcolor="#e58139f6"] ;
289 -> 290 ;
291 [label=<gini = 0.0<br/>samples = 27<br/>value = [27, 0]>, fillcolor="#e58139ff"] ;
290 -> 291 ;
292 [label=<gini = 0.444<br/>samples = 3<br/>value = [2, 1]>, fillcolor="#e581397f"] ;
290 -> 292 ;
293 [label=<AGE &le; 33.5<br/>gini = 0.245<br/>samples = 14<br/>value = [12, 2]>, fillcolor="#e58139d4"] ;
289 -> 293 ;
294 [label=<gini = 0.375<br/>samples = 8<br/>value = [6, 2]>, fillcolor="#e58139aa"] ;
293 -> 294 ;
295 [label=<gini = 0.0<br/>samples = 6<br/>value = [6, 0]>, fillcolor="#e58139ff"] ;
293 -> 295 ;
296 [label=<gini = 0.0<br/>samples = 26<br/>value = [26, 0]>, fillcolor="#e58139ff"] ;
288 -> 296 ;
297 [label=<MARRIEDARITAL_SINGLETATUSINGLE &le; 1.5<br/>gini = 0.062<br/>samples = 31<br/>value = [30, 1]>, fillcolor="#e58139f6"] ;
273 -> 297 ;
298 [label=<LOAN ' &le; 1.0<br/>gini = 0.095<br/>samples = 20<br/>value = [19, 1]>, fillcolor="#e58139f2"] ;
297 -> 298 ;
299 [label=<gini = 0.0<br/>samples = 14<br/>value = [14, 0]>, fillcolor="#e58139ff"] ;
298 -> 299 ;
300 [label=<gini = 0.278<br/>samples = 6<br/>value = [5, 1]>, fillcolor="#e58139cc"] ;
298 -> 300 ;
301 [label=<gini = 0.0<br/>samples = 11<br/>value = [11, 0]>, fillcolor="#e58139ff"] ;
297 -> 301 ;
302 [label=<gini = 0.0<br/>samples = 23<br/>value = [23, 0]>, fillcolor="#e58139ff"] ;
6 -> 302 ;
303 [label=<gini = 0.0<br/>samples = 42<br/>value = [42, 0]>, fillcolor="#e58139ff"] ;
5 -> 303 ;
304 [label=<AGE &le; 52.5<br/>gini = 0.5<br/>samples = 769<br/>value = [383, 386]>, fillcolor="#399de502"] ;
4 -> 304 ;
305 [label=<BOOKDUES_FOR_NPA/ NORMAL_AS_ON_310618' &le; 2436.625<br/>gini = 0.499<br/>samples = 660<br/>value = [312, 348]>, fillcolor="#399de51a"] ;
304 -> 305 ;
306 [label=<NO_OF_DEPENDENTS &le; 1.5<br/>gini = 0.5<br/>samples = 592<br/>value = [296, 296]>, fillcolor="#e5813900"] ;
305 -> 306 ;
307 [label=<saving ACC_OPEN_DATE' &le; 20100577.0<br/>gini = 0.492<br/>samples = 276<br/>value = [121, 155]>, fillcolor="#399de538"] ;
306 -> 307 ;
308 [label=<MARRIEDARITAL_SINGLETATUSINGLE &le; 1.5<br/>gini = 0.468<br/>samples = 238<br/>value = [89, 149]>, fillcolor="#399de567"] ;
307 -> 308 ;
309 [label=<BOOKDUES_FOR_NPA/ NORMAL_AS_ON_310618' &le; 385.645<br/>gini = 0.496<br/>samples = 75<br/>value = [34, 41]>, fillcolor="#399de52c"] ;
308 -> 309 ;
310 [label=<LOAN ' &le; 1.0<br/>gini = 0.485<br/>samples = 70<br/>value = [29, 41]>, fillcolor="#399de54b"] ;
309 -> 310 ;
311 [label=<Salary &le; 7.0<br/>gini = 0.489<br/>samples = 68<br/>value = [29, 39]>, fillcolor="#399de541"] ;
310 -> 311 ;
312 [label=<GENDER &le; 0.5<br/>gini = 0.497<br/>samples = 63<br/>value = [29, 34]>, fillcolor="#399de525"] ;
311 -> 312 ;
313 [label=<gini = 0.444<br/>samples = 6<br/>value = [2, 4]>, fillcolor="#399de57f"] ;
312 -> 313 ;
314 [label=<AUTO_STATUS &le; 2.5<br/>gini = 0.499<br/>samples = 57<br/>value = [27, 30]>, fillcolor="#399de519"] ;
312 -> 314 ;
315 [label=<AGE &le; 40.5<br/>gini = 0.497<br/>samples = 56<br/>value = [26, 30]>, fillcolor="#399de522"] ;
314 -> 315 ;
316 [label=<BRANCH STATUS' &le; 1.5<br/>gini = 0.476<br/>samples = 41<br/>value = [16, 25]>, fillcolor="#399de55c"] ;
315 -> 316 ;
317 [label=<PROFESSION &le; 29.5<br/>gini = 0.452<br/>samples = 29<br/>value = [10, 19]>, fillcolor="#399de579"] ;
316 -> 317 ;
318 [label=<BOOKDUES_FOR_NPA/ NORMAL_AS_ON_310618' &le; 68.5<br/>gini = 0.426<br/>samples = 26<br/>value = [8, 18]>, fillcolor="#399de58e"] ;
317 -> 318 ;
319 [label=<saving ACC_OPEN_DATE' &le; 20075623.0<br/>gini = 0.444<br/>samples = 24<br/>value = [8, 16]>, fillcolor="#399de57f"] ;
318 -> 319 ;
320 [label=<Salary &le; 3.0<br/>gini = 0.48<br/>samples = 10<br/>value = [6, 4]>, fillcolor="#e5813955"] ;
319 -> 320 ;
321 [label=<gini = 0.5<br/>samples = 8<br/>value = [4, 4]>, fillcolor="#e5813900"] ;
320 -> 321 ;
322 [label=<gini = 0.0<br/>samples = 2<br/>value = [2, 0]>, fillcolor="#e58139ff"] ;
320 -> 322 ;
323 [label=<OCCUPATION &le; 24.0<br/>gini = 0.245<br/>samples = 14<br/>value = [2, 12]>, fillcolor="#399de5d4"] ;
319 -> 323 ;
324 [label=<gini = 0.0<br/>samples = 3<br/>value = [0, 3]>, fillcolor="#399de5ff"] ;
323 -> 324 ;
325 [label=<saving ACC_OPEN_DATE' &le; 20080903.0<br/>gini = 0.298<br/>samples = 11<br/>value = [2, 9]>, fillcolor="#399de5c6"] ;
323 -> 325 ;
326 [label=<gini = 0.0<br/>samples = 4<br/>value = [0, 4]>, fillcolor="#399de5ff"] ;
325 -> 326 ;
327 [label=<gini = 0.408<br/>samples = 7<br/>value = [2, 5]>, fillcolor="#399de599"] ;
325 -> 327 ;
328 [label=<gini = 0.0<br/>samples = 2<br/>value = [0, 2]>, fillcolor="#399de5ff"] ;
318 -> 328 ;
329 [label=<gini = 0.444<br/>samples = 3<br/>value = [2, 1]>, fillcolor="#e581397f"] ;
317 -> 329 ;
330 [label=<Salary &le; 3.0<br/>gini = 0.5<br/>samples = 12<br/>value = [6, 6]>, fillcolor="#e5813900"] ;
316 -> 330 ;
331 [label=<gini = 0.408<br/>samples = 7<br/>value = [5, 2]>, fillcolor="#e5813999"] ;
330 -> 331 ;
332 [label=<gini = 0.32<br/>samples = 5<br/>value = [1, 4]>, fillcolor="#399de5bf"] ;
330 -> 332 ;
333 [label=<PROFESSION &le; 17.5<br/>gini = 0.444<br/>samples = 15<br/>value = [10, 5]>, fillcolor="#e581397f"] ;
315 -> 333 ;
334 [label=<gini = 0.5<br/>samples = 2<br/>value = [1, 1]>, fillcolor="#e5813900"] ;
333 -> 334 ;
335 [label=<PROFESSION &le; 28.5<br/>gini = 0.426<br/>samples = 13<br/>value = [9, 4]>, fillcolor="#e581398e"] ;
333 -> 335 ;
336 [label=<OCCUPATION &le; 18.0<br/>gini = 0.397<br/>samples = 11<br/>value = [8, 3]>, fillcolor="#e581399f"] ;
335 -> 336 ;
337 [label=<gini = 0.0<br/>samples = 2<br/>value = [2, 0]>, fillcolor="#e58139ff"] ;
336 -> 337 ;
338 [label=<gini = 0.444<br/>samples = 9<br/>value = [6, 3]>, fillcolor="#e581397f"] ;
336 -> 338 ;
339 [label=<gini = 0.5<br/>samples = 2<br/>value = [1, 1]>, fillcolor="#e5813900"] ;
335 -> 339 ;
340 [label=<gini = 0.0<br/>samples = 1<br/>value = [1, 0]>, fillcolor="#e58139ff"] ;
314 -> 340 ;
341 [label=<gini = 0.0<br/>samples = 5<br/>value = [0, 5]>, fillcolor="#399de5ff"] ;
311 -> 341 ;
342 [label=<gini = 0.0<br/>samples = 2<br/>value = [0, 2]>, fillcolor="#399de5ff"] ;
310 -> 342 ;
343 [label=<gini = 0.0<br/>samples = 5<br/>value = [5, 0]>, fillcolor="#e58139ff"] ;
309 -> 343 ;
344 [label=<OCCUPATION &le; 7.5<br/>gini = 0.447<br/>samples = 163<br/>value = [55, 108]>, fillcolor="#399de57d"] ;
308 -> 344 ;
345 [label=<gini = 0.0<br/>samples = 2<br/>value = [2, 0]>, fillcolor="#e58139ff"] ;
344 -> 345 ;
346 [label=<BRANCH STATUS' &le; 0.5<br/>gini = 0.442<br/>samples = 161<br/>value = [53, 108]>, fillcolor="#399de582"] ;
344 -> 346 ;
347 [label=<PROFESSION &le; 28.0<br/>gini = 0.362<br/>samples = 101<br/>value = [24, 77]>, fillcolor="#399de5b0"] ;
346 -> 347 ;
348 [label=<AGE &le; 28.5<br/>gini = 0.335<br/>samples = 80<br/>value = [17, 63]>, fillcolor="#399de5ba"] ;
347 -> 348 ;
349 [label=<gini = 0.0<br/>samples = 2<br/>value = [2, 0]>, fillcolor="#e58139ff"] ;
348 -> 349 ;
350 [label=<saving ACC_OPEN_DATE' &le; 20080611.0<br/>gini = 0.311<br/>samples = 78<br/>value = [15, 63]>, fillcolor="#399de5c2"] ;
348 -> 350 ;
351 [label=<saving ACC_OPEN_DATE' &le; 20080569.0<br/>gini = 0.405<br/>samples = 46<br/>value = [13, 33]>, fillcolor="#399de59b"] ;
350 -> 351 ;
352 [label=<saving ACC_OPEN_DATE' &le; 20060981.0<br/>gini = 0.391<br/>samples = 45<br/>value = [12, 33]>, fillcolor="#399de5a2"] ;
351 -> 352 ;
353 [label=<AGE &le; 36.5<br/>gini = 0.266<br/>samples = 19<br/>value = [3, 16]>, fillcolor="#399de5cf"] ;
352 -> 353 ;
354 [label=<gini = 0.469<br/>samples = 8<br/>value = [3, 5]>, fillcolor="#399de566"] ;
353 -> 354 ;
355 [label=<gini = 0.0<br/>samples = 11<br/>value = [0, 11]>, fillcolor="#399de5ff"] ;
353 -> 355 ;
356 [label=<NO_OF_DEPENDENTS &le; 0.5<br/>gini = 0.453<br/>samples = 26<br/>value = [9, 17]>, fillcolor="#399de578"] ;
352 -> 356 ;
357 [label=<BOOKDUES_FOR_NPA/ NORMAL_AS_ON_310618' &le; 0.015<br/>gini = 0.43<br/>samples = 16<br/>value = [5, 11]>, fillcolor="#399de58b"] ;
356 -> 357 ;
358 [label=<AGE &le; 41.5<br/>gini = 0.48<br/>samples = 10<br/>value = [4, 6]>, fillcolor="#399de555"] ;
357 -> 358 ;
359 [label=<gini = 0.444<br/>samples = 9<br/>value = [3, 6]>, fillcolor="#399de57f"] ;
358 -> 359 ;
360 [label=<gini = 0.0<br/>samples = 1<br/>value = [1, 0]>, fillcolor="#e58139ff"] ;
358 -> 360 ;
361 [label=<gini = 0.278<br/>samples = 6<br/>value = [1, 5]>, fillcolor="#399de5cc"] ;
357 -> 361 ;
362 [label=<OCCUPATION &le; 24.0<br/>gini = 0.48<br/>samples = 10<br/>value = [4, 6]>, fillcolor="#399de555"] ;
356 -> 362 ;
363 [label=<gini = 0.444<br/>samples = 3<br/>value = [2, 1]>, fillcolor="#e581397f"] ;
362 -> 363 ;
364 [label=<gini = 0.408<br/>samples = 7<br/>value = [2, 5]>, fillcolor="#399de599"] ;
362 -> 364 ;
365 [label=<gini = 0.0<br/>samples = 1<br/>value = [1, 0]>, fillcolor="#e58139ff"] ;
351 -> 365 ;
366 [label=<NO_OF_DEPENDENTS &le; 0.5<br/>gini = 0.117<br/>samples = 32<br/>value = [2, 30]>, fillcolor="#399de5ee"] ;
350 -> 366 ;
367 [label=<BOOKDUES_FOR_NPA/ NORMAL_AS_ON_310618' &le; 680.985<br/>gini = 0.147<br/>samples = 25<br/>value = [2, 23]>, fillcolor="#399de5e9"] ;
366 -> 367 ;
368 [label=<OCCUPATION &le; 17.0<br/>gini = 0.087<br/>samples = 22<br/>value = [1, 21]>, fillcolor="#399de5f3"] ;
367 -> 368 ;
369 [label=<gini = 0.375<br/>samples = 4<br/>value = [1, 3]>, fillcolor="#399de5aa"] ;
368 -> 369 ;
370 [label=<gini = 0.0<br/>samples = 18<br/>value = [0, 18]>, fillcolor="#399de5ff"] ;
368 -> 370 ;
371 [label=<gini = 0.444<br/>samples = 3<br/>value = [1, 2]>, fillcolor="#399de57f"] ;
367 -> 371 ;
372 [label=<gini = 0.0<br/>samples = 7<br/>value = [0, 7]>, fillcolor="#399de5ff"] ;
366 -> 372 ;
373 [label=<LOAN ' &le; 1.0<br/>gini = 0.444<br/>samples = 21<br/>value = [7, 14]>, fillcolor="#399de57f"] ;
347 -> 373 ;
374 [label=<PROFESSION &le; 29.5<br/>gini = 0.455<br/>samples = 20<br/>value = [7, 13]>, fillcolor="#399de576"] ;
373 -> 374 ;
375 [label=<AGE &le; 42.0<br/>gini = 0.5<br/>samples = 10<br/>value = [5, 5]>, fillcolor="#e5813900"] ;
374 -> 375 ;
376 [label=<gini = 0.494<br/>samples = 9<br/>value = [4, 5]>, fillcolor="#399de533"] ;
375 -> 376 ;
377 [label=<gini = 0.0<br/>samples = 1<br/>value = [1, 0]>, fillcolor="#e58139ff"] ;
375 -> 377 ;
378 [label=<Salary &le; 3.0<br/>gini = 0.32<br/>samples = 10<br/>value = [2, 8]>, fillcolor="#399de5bf"] ;
374 -> 378 ;
379 [label=<gini = 0.0<br/>samples = 5<br/>value = [0, 5]>, fillcolor="#399de5ff"] ;
378 -> 379 ;
380 [label=<gini = 0.48<br/>samples = 5<br/>value = [2, 3]>, fillcolor="#399de555"] ;
378 -> 380 ;
381 [label=<gini = 0.0<br/>samples = 1<br/>value = [0, 1]>, fillcolor="#399de5ff"] ;
373 -> 381 ;
382 [label=<BRANCH STATUS' &le; 1.5<br/>gini = 0.499<br/>samples = 60<br/>value = [29, 31]>, fillcolor="#399de510"] ;
346 -> 382 ;
383 [label=<gini = 0.408<br/>samples = 7<br/>value = [5, 2]>, fillcolor="#e5813999"] ;
382 -> 383 ;
384 [label=<Salary &le; 3.0<br/>gini = 0.496<br/>samples = 53<br/>value = [24, 29]>, fillcolor="#399de52c"] ;
382 -> 384 ;
385 [label=<NO_OF_DEPENDENTS &le; 0.5<br/>gini = 0.471<br/>samples = 29<br/>value = [11, 18]>, fillcolor="#399de563"] ;
384 -> 385 ;
386 [label=<PROFESSION &le; 24.5<br/>gini = 0.432<br/>samples = 19<br/>value = [6, 13]>, fillcolor="#399de589"] ;
385 -> 386 ;
387 [label=<GENDER &le; 0.5<br/>gini = 0.48<br/>samples = 15<br/>value = [6, 9]>, fillcolor="#399de555"] ;
386 -> 387 ;
388 [label=<gini = 0.0<br/>samples = 3<br/>value = [0, 3]>, fillcolor="#399de5ff"] ;
387 -> 388 ;
389 [label=<saving ACC_OPEN_DATE' &le; 20090266.0<br/>gini = 0.5<br/>samples = 12<br/>value = [6, 6]>, fillcolor="#e5813900"] ;
387 -> 389 ;
390 [label=<gini = 0.469<br/>samples = 8<br/>value = [3, 5]>, fillcolor="#399de566"] ;
389 -> 390 ;
391 [label=<gini = 0.375<br/>samples = 4<br/>value = [3, 1]>, fillcolor="#e58139aa"] ;
389 -> 391 ;
392 [label=<gini = 0.0<br/>samples = 4<br/>value = [0, 4]>, fillcolor="#399de5ff"] ;
386 -> 392 ;
393 [label=<BRANCH STATUS' &le; 2.5<br/>gini = 0.5<br/>samples = 10<br/>value = [5, 5]>, fillcolor="#e5813900"] ;
385 -> 393 ;
394 [label=<gini = 0.0<br/>samples = 1<br/>value = [0, 1]>, fillcolor="#399de5ff"] ;
393 -> 394 ;
395 [label=<gini = 0.494<br/>samples = 9<br/>value = [5, 4]>, fillcolor="#e5813933"] ;
393 -> 395 ;
396 [label=<BOOKDUES_FOR_NPA/ NORMAL_AS_ON_310618' &le; 0.11<br/>gini = 0.497<br/>samples = 24<br/>value = [13, 11]>, fillcolor="#e5813927"] ;
384 -> 396 ;
397 [label=<BRANCH STATUS' &le; 2.5<br/>gini = 0.475<br/>samples = 18<br/>value = [11, 7]>, fillcolor="#e581395d"] ;
396 -> 397 ;
398 [label=<gini = 0.278<br/>samples = 6<br/>value = [5, 1]>, fillcolor="#e58139cc"] ;
397 -> 398 ;
399 [label=<AGE &le; 34.5<br/>gini = 0.5<br/>samples = 12<br/>value = [6, 6]>, fillcolor="#e5813900"] ;
397 -> 399 ;
400 [label=<gini = 0.444<br/>samples = 6<br/>value = [4, 2]>, fillcolor="#e581397f"] ;
399 -> 400 ;
401 [label=<gini = 0.444<br/>samples = 6<br/>value = [2, 4]>, fillcolor="#399de57f"] ;
399 -> 401 ;
402 [label=<gini = 0.444<br/>samples = 6<br/>value = [2, 4]>, fillcolor="#399de57f"] ;
396 -> 402 ;
403 [label=<PROFESSION &le; 26.5<br/>gini = 0.266<br/>samples = 38<br/>value = [32, 6]>, fillcolor="#e58139cf"] ;
307 -> 403 ;
404 [label=<BOOKDUES_FOR_NPA/ NORMAL_AS_ON_310618' &le; 47.015<br/>gini = 0.128<br/>samples = 29<br/>value = [27, 2]>, fillcolor="#e58139ec"] ;
403 -> 404 ;
405 [label=<NO_OF_DEPENDENTS &le; 0.5<br/>gini = 0.074<br/>samples = 26<br/>value = [25, 1]>, fillcolor="#e58139f5"] ;
404 -> 405 ;
406 [label=<AGE &le; 26.5<br/>gini = 0.105<br/>samples = 18<br/>value = [17, 1]>, fillcolor="#e58139f0"] ;
405 -> 406 ;
407 [label=<gini = 0.5<br/>samples = 2<br/>value = [1, 1]>, fillcolor="#e5813900"] ;
406 -> 407 ;
408 [label=<gini = 0.0<br/>samples = 16<br/>value = [16, 0]>, fillcolor="#e58139ff"] ;
406 -> 408 ;
409 [label=<gini = 0.0<br/>samples = 8<br/>value = [8, 0]>, fillcolor="#e58139ff"] ;
405 -> 409 ;
410 [label=<gini = 0.444<br/>samples = 3<br/>value = [2, 1]>, fillcolor="#e581397f"] ;
404 -> 410 ;
411 [label=<gini = 0.494<br/>samples = 9<br/>value = [5, 4]>, fillcolor="#e5813933"] ;
403 -> 411 ;
412 [label=<AUTO_STATUS &le; 2.5<br/>gini = 0.494<br/>samples = 316<br/>value = [175, 141]>, fillcolor="#e5813932"] ;
306 -> 412 ;
413 [label=<CREDIT_CARD_SCORE &le; 4.5<br/>gini = 0.498<br/>samples = 299<br/>value = [158, 141]>, fillcolor="#e581391b"] ;
412 -> 413 ;
414 [label=<AGE &le; 31.5<br/>gini = 0.499<br/>samples = 293<br/>value = [152, 141]>, fillcolor="#e5813912"] ;
413 -> 414 ;
415 [label=<gini = 0.219<br/>samples = 8<br/>value = [7, 1]>, fillcolor="#e58139db"] ;
414 -> 415 ;
416 [label=<GENDER &le; 0.5<br/>gini = 0.5<br/>samples = 285<br/>value = [145, 140]>, fillcolor="#e5813909"] ;
414 -> 416 ;
417 [label=<saving ACC_OPEN_DATE' &le; 20090413.0<br/>gini = 0.403<br/>samples = 25<br/>value = [18, 7]>, fillcolor="#e581399c"] ;
416 -> 417 ;
418 [label=<PROFESSION &le; 28.5<br/>gini = 0.291<br/>samples = 17<br/>value = [14, 3]>, fillcolor="#e58139c8"] ;
417 -> 418 ;
419 [label=<NO_OF_DEPENDENTS &le; 2.5<br/>gini = 0.219<br/>samples = 16<br/>value = [14, 2]>, fillcolor="#e58139db"] ;
418 -> 419 ;
420 [label=<BOOKDUES_FOR_NPA/ NORMAL_AS_ON_310618' &le; 0.56<br/>gini = 0.153<br/>samples = 12<br/>value = [11, 1]>, fillcolor="#e58139e8"] ;
419 -> 420 ;
421 [label=<gini = 0.0<br/>samples = 9<br/>value = [9, 0]>, fillcolor="#e58139ff"] ;
420 -> 421 ;
422 [label=<gini = 0.444<br/>samples = 3<br/>value = [2, 1]>, fillcolor="#e581397f"] ;
420 -> 422 ;
423 [label=<gini = 0.375<br/>samples = 4<br/>value = [3, 1]>, fillcolor="#e58139aa"] ;
419 -> 423 ;
424 [label=<gini = 0.0<br/>samples = 1<br/>value = [0, 1]>, fillcolor="#399de5ff"] ;
418 -> 424 ;
425 [label=<gini = 0.5<br/>samples = 8<br/>value = [4, 4]>, fillcolor="#e5813900"] ;
417 -> 425 ;
426 [label=<SPOUSE WORKING' &le; 1.5<br/>gini = 0.5<br/>samples = 260<br/>value = [127, 133]>, fillcolor="#399de50c"] ;
416 -> 426 ;
427 [label=<BOOKDUES_FOR_NPA/ NORMAL_AS_ON_310618' &le; 0.005<br/>gini = 0.499<br/>samples = 122<br/>value = [64, 58]>, fillcolor="#e5813918"] ;
426 -> 427 ;
428 [label=<NO_OF_DEPENDENTS &le; 3.5<br/>gini = 0.493<br/>samples = 100<br/>value = [56, 44]>, fillcolor="#e5813937"] ;
427 -> 428 ;
429 [label=<BRANCH STATUS' &le; 0.5<br/>gini = 0.489<br/>samples = 80<br/>value = [46, 34]>, fillcolor="#e5813943"] ;
428 -> 429 ;
430 [label=<OCCUPATION &le; 29.0<br/>gini = 0.5<br/>samples = 30<br/>value = [15, 15]>, fillcolor="#e5813900"] ;
429 -> 430 ;
431 [label=<Salary &le; 7.0<br/>gini = 0.49<br/>samples = 21<br/>value = [9, 12]>, fillcolor="#399de540"] ;
430 -> 431 ;
432 [label=<saving ACC_OPEN_DATE' &le; 20090713.0<br/>gini = 0.488<br/>samples = 19<br/>value = [8, 11]>, fillcolor="#399de546"] ;
431 -> 432 ;
433 [label=<PROFESSION &le; 24.5<br/>gini = 0.457<br/>samples = 17<br/>value = [6, 11]>, fillcolor="#399de574"] ;
432 -> 433 ;
434 [label=<gini = 0.346<br/>samples = 9<br/>value = [2, 7]>, fillcolor="#399de5b6"] ;
433 -> 434 ;
435 [label=<gini = 0.5<br/>samples = 8<br/>value = [4, 4]>, fillcolor="#e5813900"] ;
433 -> 435 ;
436 [label=<gini = 0.0<br/>samples = 2<br/>value = [2, 0]>, fillcolor="#e58139ff"] ;
432 -> 436 ;
437 [label=<gini = 0.5<br/>samples = 2<br/>value = [1, 1]>, fillcolor="#e5813900"] ;
431 -> 437 ;
438 [label=<gini = 0.444<br/>samples = 9<br/>value = [6, 3]>, fillcolor="#e581397f"] ;
430 -> 438 ;
439 [label=<saving ACC_OPEN_DATE' &le; 20100363.0<br/>gini = 0.471<br/>samples = 50<br/>value = [31, 19]>, fillcolor="#e5813963"] ;
429 -> 439 ;
440 [label=<AGE &le; 45.5<br/>gini = 0.497<br/>samples = 39<br/>value = [21, 18]>, fillcolor="#e5813924"] ;
439 -> 440 ;
441 [label=<BRANCH STATUS' &le; 2.5<br/>gini = 0.497<br/>samples = 28<br/>value = [13, 15]>, fillcolor="#399de522"] ;
440 -> 441 ;
442 [label=<gini = 0.278<br/>samples = 6<br/>value = [1, 5]>, fillcolor="#399de5cc"] ;
441 -> 442 ;
443 [label=<Salary &le; 3.0<br/>gini = 0.496<br/>samples = 22<br/>value = [12, 10]>, fillcolor="#e581392a"] ;
441 -> 443 ;
444 [label=<NO_OF_DEPENDENTS &le; 2.5<br/>gini = 0.497<br/>samples = 13<br/>value = [6, 7]>, fillcolor="#399de524"] ;
443 -> 444 ;
445 [label=<gini = 0.48<br/>samples = 5<br/>value = [3, 2]>, fillcolor="#e5813955"] ;
444 -> 445 ;
446 [label=<gini = 0.469<br/>samples = 8<br/>value = [3, 5]>, fillcolor="#399de566"] ;
444 -> 446 ;
447 [label=<gini = 0.444<br/>samples = 9<br/>value = [6, 3]>, fillcolor="#e581397f"] ;
443 -> 447 ;
448 [label=<NO_OF_DEPENDENTS &le; 2.5<br/>gini = 0.397<br/>samples = 11<br/>value = [8, 3]>, fillcolor="#e581399f"] ;
440 -> 448 ;
449 [label=<gini = 0.32<br/>samples = 5<br/>value = [4, 1]>, fillcolor="#e58139bf"] ;
448 -> 449 ;
450 [label=<gini = 0.444<br/>samples = 6<br/>value = [4, 2]>, fillcolor="#e581397f"] ;
448 -> 450 ;
451 [label=<Salary &le; 3.0<br/>gini = 0.165<br/>samples = 11<br/>value = [10, 1]>, fillcolor="#e58139e6"] ;
439 -> 451 ;
452 [label=<gini = 0.278<br/>samples = 6<br/>value = [5, 1]>, fillcolor="#e58139cc"] ;
451 -> 452 ;
453 [label=<gini = 0.0<br/>samples = 5<br/>value = [5, 0]>, fillcolor="#e58139ff"] ;
451 -> 453 ;
454 [label=<NO_OF_DEPENDENTS &le; 4.5<br/>gini = 0.5<br/>samples = 20<br/>value = [10, 10]>, fillcolor="#e5813900"] ;
428 -> 454 ;
455 [label=<saving ACC_OPEN_DATE' &le; 20075570.0<br/>gini = 0.49<br/>samples = 14<br/>value = [6, 8]>, fillcolor="#399de540"] ;
454 -> 455 ;
456 [label=<gini = 0.408<br/>samples = 7<br/>value = [5, 2]>, fillcolor="#e5813999"] ;
455 -> 456 ;
457 [label=<gini = 0.245<br/>samples = 7<br/>value = [1, 6]>, fillcolor="#399de5d4"] ;
455 -> 457 ;
458 [label=<gini = 0.444<br/>samples = 6<br/>value = [4, 2]>, fillcolor="#e581397f"] ;
454 -> 458 ;
459 [label=<BRANCH STATUS' &le; 1.5<br/>gini = 0.463<br/>samples = 22<br/>value = [8, 14]>, fillcolor="#399de56d"] ;
427 -> 459 ;
460 [label=<gini = 0.346<br/>samples = 9<br/>value = [2, 7]>, fillcolor="#399de5b6"] ;
459 -> 460 ;
461 [label=<BOOKDUES_FOR_NPA/ NORMAL_AS_ON_310618' &le; 172.97<br/>gini = 0.497<br/>samples = 13<br/>value = [6, 7]>, fillcolor="#399de524"] ;
459 -> 461 ;
462 [label=<gini = 0.0<br/>samples = 5<br/>value = [0, 5]>, fillcolor="#399de5ff"] ;
461 -> 462 ;
463 [label=<gini = 0.375<br/>samples = 8<br/>value = [6, 2]>, fillcolor="#e58139aa"] ;
461 -> 463 ;
464 [label=<NO_OF_DEPENDENTS &le; 4.5<br/>gini = 0.496<br/>samples = 138<br/>value = [63, 75]>, fillcolor="#399de529"] ;
426 -> 464 ;
465 [label=<AGE &le; 36.5<br/>gini = 0.5<br/>samples = 125<br/>value = [61, 64]>, fillcolor="#399de50c"] ;
464 -> 465 ;
466 [label=<BOOKDUES_FOR_NPA/ NORMAL_AS_ON_310618' &le; 1087.975<br/>gini = 0.455<br/>samples = 20<br/>value = [13, 7]>, fillcolor="#e5813976"] ;
465 -> 466 ;
467 [label=<saving ACC_OPEN_DATE' &le; 20105660.0<br/>gini = 0.475<br/>samples = 18<br/>value = [11, 7]>, fillcolor="#e581395d"] ;
466 -> 467 ;
468 [label=<OCCUPATION &le; 29.0<br/>gini = 0.5<br/>samples = 14<br/>value = [7, 7]>, fillcolor="#e5813900"] ;
467 -> 468 ;
469 [label=<BRANCH STATUS' &le; 1.5<br/>gini = 0.486<br/>samples = 12<br/>value = [7, 5]>, fillcolor="#e5813949"] ;
468 -> 469 ;
470 [label=<gini = 0.444<br/>samples = 9<br/>value = [6, 3]>, fillcolor="#e581397f"] ;
469 -> 470 ;
471 [label=<gini = 0.444<br/>samples = 3<br/>value = [1, 2]>, fillcolor="#399de57f"] ;
469 -> 471 ;
472 [label=<gini = 0.0<br/>samples = 2<br/>value = [0, 2]>, fillcolor="#399de5ff"] ;
468 -> 472 ;
473 [label=<gini = 0.0<br/>samples = 4<br/>value = [4, 0]>, fillcolor="#e58139ff"] ;
467 -> 473 ;
474 [label=<gini = 0.0<br/>samples = 2<br/>value = [2, 0]>, fillcolor="#e58139ff"] ;
466 -> 474 ;
475 [label=<AGE &le; 37.5<br/>gini = 0.496<br/>samples = 105<br/>value = [48, 57]>, fillcolor="#399de528"] ;
465 -> 475 ;
476 [label=<gini = 0.245<br/>samples = 7<br/>value = [1, 6]>, fillcolor="#399de5d4"] ;
475 -> 476 ;
477 [label=<saving ACC_OPEN_DATE' &le; 20091059.0<br/>gini = 0.499<br/>samples = 98<br/>value = [47, 51]>, fillcolor="#399de514"] ;
475 -> 477 ;
478 [label=<Salary &le; 8.5<br/>gini = 0.485<br/>samples = 87<br/>value = [36, 51]>, fillcolor="#399de54b"] ;
477 -> 478 ;
479 [label=<AGE &le; 40.5<br/>gini = 0.487<br/>samples = 86<br/>value = [36, 50]>, fillcolor="#399de547"] ;
478 -> 479 ;
480 [label=<OCCUPATION &le; 9.5<br/>gini = 0.388<br/>samples = 19<br/>value = [5, 14]>, fillcolor="#399de5a4"] ;
479 -> 480 ;
481 [label=<gini = 0.5<br/>samples = 4<br/>value = [2, 2]>, fillcolor="#e5813900"] ;
480 -> 481 ;
482 [label=<Salary &le; 7.0<br/>gini = 0.32<br/>samples = 15<br/>value = [3, 12]>, fillcolor="#399de5bf"] ;
480 -> 482 ;
483 [label=<OCCUPATION &le; 18.5<br/>gini = 0.26<br/>samples = 13<br/>value = [2, 11]>, fillcolor="#399de5d1"] ;
482 -> 483 ;
484 [label=<gini = 0.0<br/>samples = 2<br/>value = [0, 2]>, fillcolor="#399de5ff"] ;
483 -> 484 ;
485 [label=<NO_OF_DEPENDENTS &le; 2.5<br/>gini = 0.298<br/>samples = 11<br/>value = [2, 9]>, fillcolor="#399de5c6"] ;
483 -> 485 ;
486 [label=<gini = 0.0<br/>samples = 6<br/>value = [0, 6]>, fillcolor="#399de5ff"] ;
485 -> 486 ;
487 [label=<gini = 0.48<br/>samples = 5<br/>value = [2, 3]>, fillcolor="#399de555"] ;
485 -> 487 ;
488 [label=<gini = 0.5<br/>samples = 2<br/>value = [1, 1]>, fillcolor="#e5813900"] ;
482 -> 488 ;
489 [label=<BOOKDUES_FOR_NPA/ NORMAL_AS_ON_310618' &le; 397.395<br/>gini = 0.497<br/>samples = 67<br/>value = [31, 36]>, fillcolor="#399de523"] ;
479 -> 489 ;
490 [label=<PROFESSION &le; 5.0<br/>gini = 0.488<br/>samples = 59<br/>value = [25, 34]>, fillcolor="#399de544"] ;
489 -> 490 ;
491 [label=<gini = 0.0<br/>samples = 1<br/>value = [1, 0]>, fillcolor="#e58139ff"] ;
490 -> 491 ;
492 [label=<AGE &le; 42.5<br/>gini = 0.485<br/>samples = 58<br/>value = [24, 34]>, fillcolor="#399de54b"] ;
490 -> 492 ;
493 [label=<BRANCH STATUS' &le; 1.0<br/>gini = 0.496<br/>samples = 11<br/>value = [6, 5]>, fillcolor="#e581392a"] ;
492 -> 493 ;
494 [label=<gini = 0.408<br/>samples = 7<br/>value = [5, 2]>, fillcolor="#e5813999"] ;
493 -> 494 ;
495 [label=<gini = 0.375<br/>samples = 4<br/>value = [1, 3]>, fillcolor="#399de5aa"] ;
493 -> 495 ;
496 [label=<AGE &le; 45.5<br/>gini = 0.473<br/>samples = 47<br/>value = [18, 29]>, fillcolor="#399de561"] ;
492 -> 496 ;
497 [label=<BOOKDUES_FOR_NPA/ NORMAL_AS_ON_310618' &le; 0.56<br/>gini = 0.32<br/>samples = 15<br/>value = [3, 12]>, fillcolor="#399de5bf"] ;
496 -> 497 ;
498 [label=<OCCUPATION &le; 24.0<br/>gini = 0.337<br/>samples = 14<br/>value = [3, 11]>, fillcolor="#399de5b9"] ;
497 -> 498 ;
499 [label=<gini = 0.48<br/>samples = 5<br/>value = [2, 3]>, fillcolor="#399de555"] ;
498 -> 499 ;
500 [label=<gini = 0.198<br/>samples = 9<br/>value = [1, 8]>, fillcolor="#399de5df"] ;
498 -> 500 ;
501 [label=<gini = 0.0<br/>samples = 1<br/>value = [0, 1]>, fillcolor="#399de5ff"] ;
497 -> 501 ;
502 [label=<BOOKDUES_FOR_NPA/ NORMAL_AS_ON_310618' &le; 270.395<br/>gini = 0.498<br/>samples = 32<br/>value = [15, 17]>, fillcolor="#399de51e"] ;
496 -> 502 ;
503 [label=<saving ACC_OPEN_DATE' &le; 20050764.0<br/>gini = 0.499<br/>samples = 31<br/>value = [15, 16]>, fillcolor="#399de510"] ;
502 -> 503 ;
504 [label=<AGE &le; 49.5<br/>gini = 0.375<br/>samples = 12<br/>value = [9, 3]>, fillcolor="#e58139aa"] ;
503 -> 504 ;
505 [label=<gini = 0.219<br/>samples = 8<br/>value = [7, 1]>, fillcolor="#e58139db"] ;
504 -> 505 ;
506 [label=<gini = 0.5<br/>samples = 4<br/>value = [2, 2]>, fillcolor="#e5813900"] ;
504 -> 506 ;
507 [label=<saving ACC_OPEN_DATE' &le; 20070966.0<br/>gini = 0.432<br/>samples = 19<br/>value = [6, 13]>, fillcolor="#399de589"] ;
503 -> 507 ;
508 [label=<gini = 0.219<br/>samples = 8<br/>value = [1, 7]>, fillcolor="#399de5db"] ;
507 -> 508 ;
509 [label=<BRANCH STATUS' &le; 1.5<br/>gini = 0.496<br/>samples = 11<br/>value = [5, 6]>, fillcolor="#399de52a"] ;
507 -> 509 ;
510 [label=<PROFESSION &le; 17.5<br/>gini = 0.48<br/>samples = 10<br/>value = [4, 6]>, fillcolor="#399de555"] ;
509 -> 510 ;
511 [label=<gini = 0.0<br/>samples = 2<br/>value = [0, 2]>, fillcolor="#399de5ff"] ;
510 -> 511 ;
512 [label=<gini = 0.5<br/>samples = 8<br/>value = [4, 4]>, fillcolor="#e5813900"] ;
510 -> 512 ;
513 [label=<gini = 0.0<br/>samples = 1<br/>value = [1, 0]>, fillcolor="#e58139ff"] ;
509 -> 513 ;
514 [label=<gini = 0.0<br/>samples = 1<br/>value = [0, 1]>, fillcolor="#399de5ff"] ;
502 -> 514 ;
515 [label=<gini = 0.375<br/>samples = 8<br/>value = [6, 2]>, fillcolor="#e58139aa"] ;
489 -> 515 ;
516 [label=<gini = 0.0<br/>samples = 1<br/>value = [0, 1]>, fillcolor="#399de5ff"] ;
478 -> 516 ;
517 [label=<gini = 0.0<br/>samples = 11<br/>value = [11, 0]>, fillcolor="#e58139ff"] ;
477 -> 517 ;
518 [label=<AGE &le; 43.5<br/>gini = 0.26<br/>samples = 13<br/>value = [2, 11]>, fillcolor="#399de5d1"] ;
464 -> 518 ;
519 [label=<gini = 0.408<br/>samples = 7<br/>value = [2, 5]>, fillcolor="#399de599"] ;
518 -> 519 ;
520 [label=<gini = 0.0<br/>samples = 6<br/>value = [0, 6]>, fillcolor="#399de5ff"] ;
518 -> 520 ;
521 [label=<gini = 0.0<br/>samples = 6<br/>value = [6, 0]>, fillcolor="#e58139ff"] ;
413 -> 521 ;
522 [label=<gini = 0.0<br/>samples = 17<br/>value = [17, 0]>, fillcolor="#e58139ff"] ;
412 -> 522 ;
523 [label=<BOOKDUES_FOR_NPA/ NORMAL_AS_ON_310618' &le; 6422.54<br/>gini = 0.36<br/>samples = 68<br/>value = [16, 52]>, fillcolor="#399de5b1"] ;
305 -> 523 ;
524 [label=<AGE &le; 45.5<br/>gini = 0.32<br/>samples = 65<br/>value = [13, 52]>, fillcolor="#399de5bf"] ;
523 -> 524 ;
525 [label=<LOAN ' &le; 1.0<br/>gini = 0.352<br/>samples = 57<br/>value = [13, 44]>, fillcolor="#399de5b4"] ;
524 -> 525 ;
526 [label=<BOOKDUES_FOR_NPA/ NORMAL_AS_ON_310618' &le; 4027.5<br/>gini = 0.306<br/>samples = 53<br/>value = [10, 43]>, fillcolor="#399de5c4"] ;
525 -> 526 ;
527 [label=<MARRIEDARITAL_SINGLETATUSINGLE &le; 1.5<br/>gini = 0.105<br/>samples = 18<br/>value = [1, 17]>, fillcolor="#399de5f0"] ;
526 -> 527 ;
528 [label=<gini = 0.0<br/>samples = 8<br/>value = [0, 8]>, fillcolor="#399de5ff"] ;
527 -> 528 ;
529 [label=<BRANCH STATUS' &le; 1.5<br/>gini = 0.18<br/>samples = 10<br/>value = [1, 9]>, fillcolor="#399de5e3"] ;
527 -> 529 ;
530 [label=<gini = 0.219<br/>samples = 8<br/>value = [1, 7]>, fillcolor="#399de5db"] ;
529 -> 530 ;
531 [label=<gini = 0.0<br/>samples = 2<br/>value = [0, 2]>, fillcolor="#399de5ff"] ;
529 -> 531 ;
532 [label=<saving ACC_OPEN_DATE' &le; 20061210.0<br/>gini = 0.382<br/>samples = 35<br/>value = [9, 26]>, fillcolor="#399de5a7"] ;
526 -> 532 ;
533 [label=<gini = 0.0<br/>samples = 10<br/>value = [0, 10]>, fillcolor="#399de5ff"] ;
532 -> 533 ;
534 [label=<NO_OF_DEPENDENTS &le; 3.5<br/>gini = 0.461<br/>samples = 25<br/>value = [9, 16]>, fillcolor="#399de570"] ;
532 -> 534 ;
535 [label=<PROFESSION &le; 26.5<br/>gini = 0.444<br/>samples = 24<br/>value = [8, 16]>, fillcolor="#399de57f"] ;
534 -> 535 ;
536 [label=<AGE &le; 40.0<br/>gini = 0.346<br/>samples = 18<br/>value = [4, 14]>, fillcolor="#399de5b6"] ;
535 -> 536 ;
537 [label=<BOOKDUES_FOR_NPA/ NORMAL_AS_ON_310618' &le; 4070.09<br/>gini = 0.231<br/>samples = 15<br/>value = [2, 13]>, fillcolor="#399de5d8"] ;
536 -> 537 ;
538 [label=<gini = 0.0<br/>samples = 1<br/>value = [1, 0]>, fillcolor="#e58139ff"] ;
537 -> 538 ;
539 [label=<BRANCH STATUS' &le; 2.5<br/>gini = 0.133<br/>samples = 14<br/>value = [1, 13]>, fillcolor="#399de5eb"] ;
537 -> 539 ;
540 [label=<gini = 0.0<br/>samples = 8<br/>value = [0, 8]>, fillcolor="#399de5ff"] ;
539 -> 540 ;
541 [label=<gini = 0.278<br/>samples = 6<br/>value = [1, 5]>, fillcolor="#399de5cc"] ;
539 -> 541 ;
542 [label=<gini = 0.444<br/>samples = 3<br/>value = [2, 1]>, fillcolor="#e581397f"] ;
536 -> 542 ;
543 [label=<gini = 0.444<br/>samples = 6<br/>value = [4, 2]>, fillcolor="#e581397f"] ;
535 -> 543 ;
544 [label=<gini = 0.0<br/>samples = 1<br/>value = [1, 0]>, fillcolor="#e58139ff"] ;
534 -> 544 ;
545 [label=<gini = 0.375<br/>samples = 4<br/>value = [3, 1]>, fillcolor="#e58139aa"] ;
525 -> 545 ;
546 [label=<gini = 0.0<br/>samples = 8<br/>value = [0, 8]>, fillcolor="#399de5ff"] ;
524 -> 546 ;
547 [label=<gini = 0.0<br/>samples = 3<br/>value = [3, 0]>, fillcolor="#e58139ff"] ;
523 -> 547 ;
548 [label=<LOAN ' &le; 1.0<br/>gini = 0.454<br/>samples = 109<br/>value = [71, 38]>, fillcolor="#e5813977"] ;
304 -> 548 ;
549 [label=<BOOKDUES_FOR_NPA/ NORMAL_AS_ON_310618' &le; 497.54<br/>gini = 0.465<br/>samples = 95<br/>value = [60, 35]>, fillcolor="#e581396a"] ;
548 -> 549 ;
550 [label=<AGE &le; 60.5<br/>gini = 0.483<br/>samples = 71<br/>value = [42, 29]>, fillcolor="#e581394f"] ;
549 -> 550 ;
551 [label=<BOOKDUES_FOR_NPA/ NORMAL_AS_ON_310618' &le; 0.03<br/>gini = 0.497<br/>samples = 48<br/>value = [26, 22]>, fillcolor="#e5813927"] ;
550 -> 551 ;
552 [label=<Salary &le; 3.0<br/>gini = 0.464<br/>samples = 41<br/>value = [26, 15]>, fillcolor="#e581396c"] ;
551 -> 552 ;
553 [label=<BRANCH STATUS' &le; 0.5<br/>gini = 0.488<br/>samples = 19<br/>value = [11, 8]>, fillcolor="#e5813946"] ;
552 -> 553 ;
554 [label=<AGE &le; 56.5<br/>gini = 0.463<br/>samples = 11<br/>value = [4, 7]>, fillcolor="#399de56d"] ;
553 -> 554 ;
555 [label=<gini = 0.494<br/>samples = 9<br/>value = [4, 5]>, fillcolor="#399de533"] ;
554 -> 555 ;
556 [label=<gini = 0.0<br/>samples = 2<br/>value = [0, 2]>, fillcolor="#399de5ff"] ;
554 -> 556 ;
557 [label=<gini = 0.219<br/>samples = 8<br/>value = [7, 1]>, fillcolor="#e58139db"] ;
553 -> 557 ;
558 [label=<BRANCH STATUS' &le; 0.5<br/>gini = 0.434<br/>samples = 22<br/>value = [15, 7]>, fillcolor="#e5813988"] ;
552 -> 558 ;
559 [label=<NO_OF_DEPENDENTS &le; 2.5<br/>gini = 0.5<br/>samples = 12<br/>value = [6, 6]>, fillcolor="#e5813900"] ;
558 -> 559 ;
560 [label=<gini = 0.469<br/>samples = 8<br/>value = [3, 5]>, fillcolor="#399de566"] ;
559 -> 560 ;
561 [label=<gini = 0.375<br/>samples = 4<br/>value = [3, 1]>, fillcolor="#e58139aa"] ;
559 -> 561 ;
562 [label=<MARRIEDARITAL_SINGLETATUSINGLE &le; 1.5<br/>gini = 0.18<br/>samples = 10<br/>value = [9, 1]>, fillcolor="#e58139e3"] ;
558 -> 562 ;
563 [label=<gini = 0.0<br/>samples = 2<br/>value = [2, 0]>, fillcolor="#e58139ff"] ;
562 -> 563 ;
564 [label=<gini = 0.219<br/>samples = 8<br/>value = [7, 1]>, fillcolor="#e58139db"] ;
562 -> 564 ;
565 [label=<gini = 0.0<br/>samples = 7<br/>value = [0, 7]>, fillcolor="#399de5ff"] ;
551 -> 565 ;
566 [label=<NO_OF_DEPENDENTS &le; 3.5<br/>gini = 0.423<br/>samples = 23<br/>value = [16, 7]>, fillcolor="#e581398f"] ;
550 -> 566 ;
567 [label=<saving ACC_OPEN_DATE' &le; 20055858.0<br/>gini = 0.363<br/>samples = 21<br/>value = [16, 5]>, fillcolor="#e58139af"] ;
566 -> 567 ;
568 [label=<BOOKDUES_FOR_NPA/ NORMAL_AS_ON_310618' &le; 0.375<br/>gini = 0.165<br/>samples = 11<br/>value = [10, 1]>, fillcolor="#e58139e6"] ;
567 -> 568 ;
569 [label=<gini = 0.0<br/>samples = 10<br/>value = [10, 0]>, fillcolor="#e58139ff"] ;
568 -> 569 ;
570 [label=<gini = 0.0<br/>samples = 1<br/>value = [0, 1]>, fillcolor="#399de5ff"] ;
568 -> 570 ;
571 [label=<BRANCH STATUS' &le; 1.5<br/>gini = 0.48<br/>samples = 10<br/>value = [6, 4]>, fillcolor="#e5813955"] ;
567 -> 571 ;
572 [label=<gini = 0.408<br/>samples = 7<br/>value = [5, 2]>, fillcolor="#e5813999"] ;
571 -> 572 ;
573 [label=<gini = 0.444<br/>samples = 3<br/>value = [1, 2]>, fillcolor="#399de57f"] ;
571 -> 573 ;
574 [label=<gini = 0.0<br/>samples = 2<br/>value = [0, 2]>, fillcolor="#399de5ff"] ;
566 -> 574 ;
575 [label=<PROFESSION &le; 20.0<br/>gini = 0.375<br/>samples = 24<br/>value = [18, 6]>, fillcolor="#e58139aa"] ;
549 -> 575 ;
576 [label=<gini = 0.0<br/>samples = 4<br/>value = [4, 0]>, fillcolor="#e58139ff"] ;
575 -> 576 ;
577 [label=<BRANCH STATUS' &le; 0.5<br/>gini = 0.42<br/>samples = 20<br/>value = [14, 6]>, fillcolor="#e5813992"] ;
575 -> 577 ;
578 [label=<gini = 0.5<br/>samples = 8<br/>value = [4, 4]>, fillcolor="#e5813900"] ;
577 -> 578 ;
579 [label=<NO_OF_DEPENDENTS &le; 6.0<br/>gini = 0.278<br/>samples = 12<br/>value = [10, 2]>, fillcolor="#e58139cc"] ;
577 -> 579 ;
580 [label=<PROFESSION &le; 24.0<br/>gini = 0.165<br/>samples = 11<br/>value = [10, 1]>, fillcolor="#e58139e6"] ;
579 -> 580 ;
581 [label=<gini = 0.198<br/>samples = 9<br/>value = [8, 1]>, fillcolor="#e58139df"] ;
580 -> 581 ;
582 [label=<gini = 0.0<br/>samples = 2<br/>value = [2, 0]>, fillcolor="#e58139ff"] ;
580 -> 582 ;
583 [label=<gini = 0.0<br/>samples = 1<br/>value = [0, 1]>, fillcolor="#399de5ff"] ;
579 -> 583 ;
584 [label=<OCCUPATION &le; 29.5<br/>gini = 0.337<br/>samples = 14<br/>value = [11, 3]>, fillcolor="#e58139b9"] ;
548 -> 584 ;
585 [label=<BOOKDUES_FOR_NPA/ NORMAL_AS_ON_310618' &le; 250.56<br/>gini = 0.397<br/>samples = 11<br/>value = [8, 3]>, fillcolor="#e581399f"] ;
584 -> 585 ;
586 [label=<gini = 0.469<br/>samples = 8<br/>value = [5, 3]>, fillcolor="#e5813966"] ;
585 -> 586 ;
587 [label=<gini = 0.0<br/>samples = 3<br/>value = [3, 0]>, fillcolor="#e58139ff"] ;
585 -> 587 ;
588 [label=<gini = 0.0<br/>samples = 3<br/>value = [3, 0]>, fillcolor="#e58139ff"] ;
584 -> 588 ;
589 [label=<gini = 0.0<br/>samples = 301<br/>value = [0, 301]>, fillcolor="#399de5ff"] ;
3 -> 589 ;
590 [label=<saving ACC_OPEN_DATE' &le; 20100767.0<br/>gini = 0.143<br/>samples = 284<br/>value = [262, 22]>, fillcolor="#e58139ea"] ;
2 -> 590 ;
591 [label=<Salary &le; 7.0<br/>gini = 0.182<br/>samples = 198<br/>value = [178, 20]>, fillcolor="#e58139e2"] ;
590 -> 591 ;
592 [label=<PHOTO_NON_PHOTOFLG &le; 1.0<br/>gini = 0.146<br/>samples = 176<br/>value = [162, 14]>, fillcolor="#e58139e9"] ;
591 -> 592 ;
593 [label=<GENDER &le; 0.5<br/>gini = 0.105<br/>samples = 108<br/>value = [102, 6]>, fillcolor="#e58139f0"] ;
592 -> 593 ;
594 [label=<gini = 0.0<br/>samples = 14<br/>value = [14, 0]>, fillcolor="#e58139ff"] ;
593 -> 594 ;
595 [label=<Salary &le; 3.0<br/>gini = 0.12<br/>samples = 94<br/>value = [88, 6]>, fillcolor="#e58139ee"] ;
593 -> 595 ;
596 [label=<BOOKDUES_FOR_NPA/ NORMAL_AS_ON_310618' &le; -0.005<br/>gini = 0.113<br/>samples = 50<br/>value = [47, 3]>, fillcolor="#e58139ef"] ;
595 -> 596 ;
597 [label=<gini = 0.0<br/>samples = 1<br/>value = [0, 1]>, fillcolor="#399de5ff"] ;
596 -> 597 ;
598 [label=<NO_OF_YRS_AT_RES &le; 10.0<br/>gini = 0.078<br/>samples = 49<br/>value = [47, 2]>, fillcolor="#e58139f4"] ;
596 -> 598 ;
599 [label=<PROFESSION &le; 24.0<br/>gini = 0.083<br/>samples = 46<br/>value = [44, 2]>, fillcolor="#e58139f3"] ;
598 -> 599 ;
600 [label=<AGE &le; 35.0<br/>gini = 0.147<br/>samples = 25<br/>value = [23, 2]>, fillcolor="#e58139e9"] ;
599 -> 600 ;
601 [label=<gini = 0.444<br/>samples = 3<br/>value = [2, 1]>, fillcolor="#e581397f"] ;
600 -> 601 ;
602 [label=<BOOKDUES_FOR_NPA/ NORMAL_AS_ON_310618' &le; 15.585<br/>gini = 0.087<br/>samples = 22<br/>value = [21, 1]>, fillcolor="#e58139f3"] ;
600 -> 602 ;
603 [label=<gini = 0.0<br/>samples = 16<br/>value = [16, 0]>, fillcolor="#e58139ff"] ;
602 -> 603 ;
604 [label=<gini = 0.278<br/>samples = 6<br/>value = [5, 1]>, fillcolor="#e58139cc"] ;
602 -> 604 ;
605 [label=<gini = 0.0<br/>samples = 21<br/>value = [21, 0]>, fillcolor="#e58139ff"] ;
599 -> 605 ;
606 [label=<gini = 0.0<br/>samples = 3<br/>value = [3, 0]>, fillcolor="#e58139ff"] ;
598 -> 606 ;
607 [label=<saving ACC_OPEN_DATE' &le; 20085764.0<br/>gini = 0.127<br/>samples = 44<br/>value = [41, 3]>, fillcolor="#e58139ec"] ;
595 -> 607 ;
608 [label=<gini = 0.0<br/>samples = 34<br/>value = [34, 0]>, fillcolor="#e58139ff"] ;
607 -> 608 ;
609 [label=<PROFESSION &le; 24.5<br/>gini = 0.42<br/>samples = 10<br/>value = [7, 3]>, fillcolor="#e5813992"] ;
607 -> 609 ;
610 [label=<gini = 0.49<br/>samples = 7<br/>value = [4, 3]>, fillcolor="#e5813940"] ;
609 -> 610 ;
611 [label=<gini = 0.0<br/>samples = 3<br/>value = [3, 0]>, fillcolor="#e58139ff"] ;
609 -> 611 ;
612 [label=<AGE &le; 41.0<br/>gini = 0.208<br/>samples = 68<br/>value = [60, 8]>, fillcolor="#e58139dd"] ;
592 -> 612 ;
613 [label=<saving ACC_OPEN_DATE' &le; 20020854.0<br/>gini = 0.465<br/>samples = 19<br/>value = [12, 7]>, fillcolor="#e581396a"] ;
612 -> 613 ;
614 [label=<gini = 0.0<br/>samples = 4<br/>value = [4, 0]>, fillcolor="#e58139ff"] ;
613 -> 614 ;
615 [label=<BRANCH STATUS' &le; 0.5<br/>gini = 0.498<br/>samples = 15<br/>value = [8, 7]>, fillcolor="#e5813920"] ;
613 -> 615 ;
616 [label=<gini = 0.444<br/>samples = 6<br/>value = [4, 2]>, fillcolor="#e581397f"] ;
615 -> 616 ;
617 [label=<gini = 0.494<br/>samples = 9<br/>value = [4, 5]>, fillcolor="#399de533"] ;
615 -> 617 ;
618 [label=<BOOKDUES_FOR_NPA/ NORMAL_AS_ON_310618' &le; 0.035<br/>gini = 0.04<br/>samples = 49<br/>value = [48, 1]>, fillcolor="#e58139fa"] ;
612 -> 618 ;
619 [label=<gini = 0.0<br/>samples = 36<br/>value = [36, 0]>, fillcolor="#e58139ff"] ;
618 -> 619 ;
620 [label=<saving ACC_OPEN_DATE' &le; 19940754.0<br/>gini = 0.142<br/>samples = 13<br/>value = [12, 1]>, fillcolor="#e58139ea"] ;
618 -> 620 ;
621 [label=<gini = 0.0<br/>samples = 1<br/>value = [0, 1]>, fillcolor="#399de5ff"] ;
620 -> 621 ;
622 [label=<gini = 0.0<br/>samples = 12<br/>value = [12, 0]>, fillcolor="#e58139ff"] ;
620 -> 622 ;
623 [label=<CARD_TYPE<SUB>0</SUB> &le; 0.5<br/>gini = 0.397<br/>samples = 22<br/>value = [16, 6]>, fillcolor="#e581399f"] ;
591 -> 623 ;
624 [label=<BOOKDUES_FOR_NPA/ NORMAL_AS_ON_310618' &le; 5066.91<br/>gini = 0.198<br/>samples = 18<br/>value = [16, 2]>, fillcolor="#e58139df"] ;
623 -> 624 ;
625 [label=<Salary &le; 8.5<br/>gini = 0.111<br/>samples = 17<br/>value = [16, 1]>, fillcolor="#e58139ef"] ;
624 -> 625 ;
626 [label=<GENDER &le; 0.5<br/>gini = 0.124<br/>samples = 15<br/>value = [14, 1]>, fillcolor="#e58139ed"] ;
625 -> 626 ;
627 [label=<gini = 0.5<br/>samples = 2<br/>value = [1, 1]>, fillcolor="#e5813900"] ;
626 -> 627 ;
628 [label=<gini = 0.0<br/>samples = 13<br/>value = [13, 0]>, fillcolor="#e58139ff"] ;
626 -> 628 ;
629 [label=<gini = 0.0<br/>samples = 2<br/>value = [2, 0]>, fillcolor="#e58139ff"] ;
625 -> 629 ;
630 [label=<gini = 0.0<br/>samples = 1<br/>value = [0, 1]>, fillcolor="#399de5ff"] ;
624 -> 630 ;
631 [label=<gini = 0.0<br/>samples = 4<br/>value = [0, 4]>, fillcolor="#399de5ff"] ;
623 -> 631 ;
632 [label=<AGE &le; 50.0<br/>gini = 0.045<br/>samples = 86<br/>value = [84, 2]>, fillcolor="#e58139f9"] ;
590 -> 632 ;
633 [label=<BOOKDUES_FOR_NPA/ NORMAL_AS_ON_310618' &le; 377.91<br/>gini = 0.028<br/>samples = 71<br/>value = [70, 1]>, fillcolor="#e58139fb"] ;
632 -> 633 ;
634 [label=<gini = 0.0<br/>samples = 56<br/>value = [56, 0]>, fillcolor="#e58139ff"] ;
633 -> 634 ;
635 [label=<OCCUPATION &le; 18.5<br/>gini = 0.124<br/>samples = 15<br/>value = [14, 1]>, fillcolor="#e58139ed"] ;
633 -> 635 ;
636 [label=<gini = 0.32<br/>samples = 5<br/>value = [4, 1]>, fillcolor="#e58139bf"] ;
635 -> 636 ;
637 [label=<gini = 0.0<br/>samples = 10<br/>value = [10, 0]>, fillcolor="#e58139ff"] ;
635 -> 637 ;
638 [label=<MARRIEDARITAL_SINGLETATUSINGLE &le; 1.5<br/>gini = 0.124<br/>samples = 15<br/>value = [14, 1]>, fillcolor="#e58139ed"] ;
632 -> 638 ;
639 [label=<gini = 0.198<br/>samples = 9<br/>value = [8, 1]>, fillcolor="#e58139df"] ;
638 -> 639 ;
640 [label=<gini = 0.0<br/>samples = 6<br/>value = [6, 0]>, fillcolor="#e58139ff"] ;
638 -> 640 ;
641 [label=<BOOKDUES_FOR_NPA/ NORMAL_AS_ON_310618' &le; 0.005<br/>gini = 0.205<br/>samples = 5760<br/>value = [5094, 666]>, fillcolor="#e58139de"] ;
1 -> 641 ;
642 [label=<FDRD &le; 1.5<br/>gini = 0.145<br/>samples = 4235<br/>value = [3901, 334]>, fillcolor="#e58139e9"] ;
641 -> 642 ;
643 [label=<saving ACC_OPEN_DATE' &le; 20100305.0<br/>gini = 0.168<br/>samples = 3429<br/>value = [3111, 318]>, fillcolor="#e58139e5"] ;
642 -> 643 ;
644 [label=<BOOKDUES_FOR_NPA/ NORMAL_AS_ON_310618' &le; -0.005<br/>gini = 0.246<br/>samples = 1918<br/>value = [1642, 276]>, fillcolor="#e58139d4"] ;
643 -> 644 ;
645 [label=<gini = 0.0<br/>samples = 11<br/>value = [0, 11]>, fillcolor="#399de5ff"] ;
644 -> 645 ;
646 [label=<CARD_TYPE<SUB>0</SUB> &le; 0.5<br/>gini = 0.239<br/>samples = 1907<br/>value = [1642, 265]>, fillcolor="#e58139d6"] ;
644 -> 646 ;
647 [label=<saving ACC_OPEN_DATE' &le; 20080207.0<br/>gini = 0.176<br/>samples = 1819<br/>value = [1642, 177]>, fillcolor="#e58139e4"] ;
646 -> 647 ;
648 [label=<BRANCH STATUS' &le; 0.5<br/>gini = 0.123<br/>samples = 1120<br/>value = [1046, 74]>, fillcolor="#e58139ed"] ;
647 -> 648 ;
649 [label=<MBS &le; 0.5<br/>gini = 0.167<br/>samples = 488<br/>value = [443, 45]>, fillcolor="#e58139e5"] ;
648 -> 649 ;
650 [label=<SPOUSE WORKING' &le; 1.5<br/>gini = 0.218<br/>samples = 257<br/>value = [225, 32]>, fillcolor="#e58139db"] ;
649 -> 650 ;
651 [label=<AGE &le; 39.5<br/>gini = 0.244<br/>samples = 148<br/>value = [127, 21]>, fillcolor="#e58139d5"] ;
650 -> 651 ;
652 [label=<saving ACC_OPEN_DATE' &le; 20061072.0<br/>gini = 0.31<br/>samples = 94<br/>value = [76, 18]>, fillcolor="#e58139c3"] ;
651 -> 652 ;
653 [label=<NO_OF_DEPENDENTS &le; 1.5<br/>gini = 0.238<br/>samples = 58<br/>value = [50, 8]>, fillcolor="#e58139d6"] ;
652 -> 653 ;
654 [label=<PROFESSION &le; 25.5<br/>gini = 0.278<br/>samples = 42<br/>value = [35, 7]>, fillcolor="#e58139cc"] ;
653 -> 654 ;
655 [label=<PHOTO_NON_PHOTOFLG &le; 1.0<br/>gini = 0.191<br/>samples = 28<br/>value = [25, 3]>, fillcolor="#e58139e0"] ;
654 -> 655 ;
656 [label=<Salary &le; 3.0<br/>gini = 0.111<br/>samples = 17<br/>value = [16, 1]>, fillcolor="#e58139ef"] ;
655 -> 656 ;
657 [label=<AGE &le; 30.5<br/>gini = 0.18<br/>samples = 10<br/>value = [9, 1]>, fillcolor="#e58139e3"] ;
656 -> 657 ;
658 [label=<gini = 0.444<br/>samples = 3<br/>value = [2, 1]>, fillcolor="#e581397f"] ;
657 -> 658 ;
659 [label=<gini = 0.0<br/>samples = 7<br/>value = [7, 0]>, fillcolor="#e58139ff"] ;
657 -> 659 ;
660 [label=<gini = 0.0<br/>samples = 7<br/>value = [7, 0]>, fillcolor="#e58139ff"] ;
656 -> 660 ;
661 [label=<NO_OF_DEPENDENTS &le; 0.5<br/>gini = 0.298<br/>samples = 11<br/>value = [9, 2]>, fillcolor="#e58139c6"] ;
655 -> 661 ;
662 [label=<gini = 0.219<br/>samples = 8<br/>value = [7, 1]>, fillcolor="#e58139db"] ;
661 -> 662 ;
663 [label=<gini = 0.444<br/>samples = 3<br/>value = [2, 1]>, fillcolor="#e581397f"] ;
661 -> 663 ;
664 [label=<OCCUPATION &le; 33.5<br/>gini = 0.408<br/>samples = 14<br/>value = [10, 4]>, fillcolor="#e5813999"] ;
654 -> 664 ;
665 [label=<NO_OF_DEPENDENTS &le; 0.5<br/>gini = 0.426<br/>samples = 13<br/>value = [9, 4]>, fillcolor="#e581398e"] ;
664 -> 665 ;
666 [label=<PHOTO_NON_PHOTOFLG &le; 1.0<br/>gini = 0.463<br/>samples = 11<br/>value = [7, 4]>, fillcolor="#e581396d"] ;
665 -> 666 ;
667 [label=<gini = 0.375<br/>samples = 8<br/>value = [6, 2]>, fillcolor="#e58139aa"] ;
666 -> 667 ;
668 [label=<gini = 0.444<br/>samples = 3<br/>value = [1, 2]>, fillcolor="#399de57f"] ;
666 -> 668 ;
669 [label=<gini = 0.0<br/>samples = 2<br/>value = [2, 0]>, fillcolor="#e58139ff"] ;
665 -> 669 ;
670 [label=<gini = 0.0<br/>samples = 1<br/>value = [1, 0]>, fillcolor="#e58139ff"] ;
664 -> 670 ;
671 [label=<OCCUPATION &le; 24.0<br/>gini = 0.117<br/>samples = 16<br/>value = [15, 1]>, fillcolor="#e58139ee"] ;
653 -> 671 ;
672 [label=<gini = 0.278<br/>samples = 6<br/>value = [5, 1]>, fillcolor="#e58139cc"] ;
671 -> 672 ;
673 [label=<gini = 0.0<br/>samples = 10<br/>value = [10, 0]>, fillcolor="#e58139ff"] ;
671 -> 673 ;
674 [label=<NO_OF_DEPENDENTS &le; 0.5<br/>gini = 0.401<br/>samples = 36<br/>value = [26, 10]>, fillcolor="#e581399d"] ;
652 -> 674 ;
675 [label=<saving ACC_OPEN_DATE' &le; 20070865.0<br/>gini = 0.444<br/>samples = 24<br/>value = [16, 8]>, fillcolor="#e581397f"] ;
674 -> 675 ;
676 [label=<Salary &le; 3.0<br/>gini = 0.498<br/>samples = 17<br/>value = [9, 8]>, fillcolor="#e581391c"] ;
675 -> 676 ;
677 [label=<OCCUPATION &le; 29.0<br/>gini = 0.496<br/>samples = 11<br/>value = [6, 5]>, fillcolor="#e581392a"] ;
676 -> 677 ;
678 [label=<gini = 0.408<br/>samples = 7<br/>value = [2, 5]>, fillcolor="#399de599"] ;
677 -> 678 ;
679 [label=<gini = 0.0<br/>samples = 4<br/>value = [4, 0]>, fillcolor="#e58139ff"] ;
677 -> 679 ;
680 [label=<gini = 0.5<br/>samples = 6<br/>value = [3, 3]>, fillcolor="#e5813900"] ;
676 -> 680 ;
681 [label=<gini = 0.0<br/>samples = 7<br/>value = [7, 0]>, fillcolor="#e58139ff"] ;
675 -> 681 ;
682 [label=<NO_OF_DEPENDENTS &le; 2.5<br/>gini = 0.278<br/>samples = 12<br/>value = [10, 2]>, fillcolor="#e58139cc"] ;
674 -> 682 ;
683 [label=<Salary &le; 3.0<br/>gini = 0.18<br/>samples = 10<br/>value = [9, 1]>, fillcolor="#e58139e3"] ;
682 -> 683 ;
684 [label=<gini = 0.278<br/>samples = 6<br/>value = [5, 1]>, fillcolor="#e58139cc"] ;
683 -> 684 ;
685 [label=<gini = 0.0<br/>samples = 4<br/>value = [4, 0]>, fillcolor="#e58139ff"] ;
683 -> 685 ;
686 [label=<gini = 0.5<br/>samples = 2<br/>value = [1, 1]>, fillcolor="#e5813900"] ;
682 -> 686 ;
687 [label=<Salary &le; 7.0<br/>gini = 0.105<br/>samples = 54<br/>value = [51, 3]>, fillcolor="#e58139f0"] ;
651 -> 687 ;
688 [label=<saving ACC_OPEN_DATE' &le; 20060760.0<br/>gini = 0.041<br/>samples = 48<br/>value = [47, 1]>, fillcolor="#e58139fa"] ;
687 -> 688 ;
689 [label=<gini = 0.0<br/>samples = 38<br/>value = [38, 0]>, fillcolor="#e58139ff"] ;
688 -> 689 ;
690 [label=<saving ACC_OPEN_DATE' &le; 20060818.0<br/>gini = 0.18<br/>samples = 10<br/>value = [9, 1]>, fillcolor="#e58139e3"] ;
688 -> 690 ;
691 [label=<gini = 0.0<br/>samples = 1<br/>value = [0, 1]>, fillcolor="#399de5ff"] ;
690 -> 691 ;
692 [label=<gini = 0.0<br/>samples = 9<br/>value = [9, 0]>, fillcolor="#e58139ff"] ;
690 -> 692 ;
693 [label=<gini = 0.444<br/>samples = 6<br/>value = [4, 2]>, fillcolor="#e581397f"] ;
687 -> 693 ;
694 [label=<saving ACC_OPEN_DATE' &le; 20030914.0<br/>gini = 0.181<br/>samples = 109<br/>value = [98, 11]>, fillcolor="#e58139e2"] ;
650 -> 694 ;
695 [label=<NO_OF_DEPENDENTS &le; 0.5<br/>gini = 0.045<br/>samples = 43<br/>value = [42, 1]>, fillcolor="#e58139f9"] ;
694 -> 695 ;
696 [label=<gini = 0.278<br/>samples = 6<br/>value = [5, 1]>, fillcolor="#e58139cc"] ;
695 -> 696 ;
697 [label=<gini = 0.0<br/>samples = 37<br/>value = [37, 0]>, fillcolor="#e58139ff"] ;
695 -> 697 ;
698 [label=<AUTO_STATUS &le; 2.5<br/>gini = 0.257<br/>samples = 66<br/>value = [56, 10]>, fillcolor="#e58139d1"] ;
694 -> 698 ;
699 [label=<saving ACC_OPEN_DATE' &le; 20045217.0<br/>gini = 0.264<br/>samples = 64<br/>value = [54, 10]>, fillcolor="#e58139d0"] ;
698 -> 699 ;
700 [label=<gini = 0.0<br/>samples = 3<br/>value = [0, 3]>, fillcolor="#399de5ff"] ;
699 -> 700 ;
701 [label=<AGE &le; 39.5<br/>gini = 0.203<br/>samples = 61<br/>value = [54, 7]>, fillcolor="#e58139de"] ;
699 -> 701 ;
702 [label=<NO_OF_DEPENDENTS &le; 0.5<br/>gini = 0.069<br/>samples = 28<br/>value = [27, 1]>, fillcolor="#e58139f6"] ;
701 -> 702 ;
703 [label=<gini = 0.219<br/>samples = 8<br/>value = [7, 1]>, fillcolor="#e58139db"] ;
702 -> 703 ;
704 [label=<gini = 0.0<br/>samples = 20<br/>value = [20, 0]>, fillcolor="#e58139ff"] ;
702 -> 704 ;
705 [label=<OCCUPATION &le; 13.5<br/>gini = 0.298<br/>samples = 33<br/>value = [27, 6]>, fillcolor="#e58139c6"] ;
701 -> 705 ;
706 [label=<gini = 0.0<br/>samples = 13<br/>value = [13, 0]>, fillcolor="#e58139ff"] ;
705 -> 706 ;
707 [label=<PHOTO_NON_PHOTOFLG &le; 1.0<br/>gini = 0.42<br/>samples = 20<br/>value = [14, 6]>, fillcolor="#e5813992"] ;
705 -> 707 ;
708 [label=<GENDER &le; 0.5<br/>gini = 0.18<br/>samples = 10<br/>value = [9, 1]>, fillcolor="#e58139e3"] ;
707 -> 708 ;
709 [label=<gini = 0.0<br/>samples = 1<br/>value = [1, 0]>, fillcolor="#e58139ff"] ;
708 -> 709 ;
710 [label=<gini = 0.198<br/>samples = 9<br/>value = [8, 1]>, fillcolor="#e58139df"] ;
708 -> 710 ;
711 [label=<Salary &le; 3.0<br/>gini = 0.5<br/>samples = 10<br/>value = [5, 5]>, fillcolor="#e5813900"] ;
707 -> 711 ;
712 [label=<gini = 0.375<br/>samples = 4<br/>value = [3, 1]>, fillcolor="#e58139aa"] ;
711 -> 712 ;
713 [label=<gini = 0.444<br/>samples = 6<br/>value = [2, 4]>, fillcolor="#399de57f"] ;
711 -> 713 ;
714 [label=<gini = 0.0<br/>samples = 2<br/>value = [2, 0]>, fillcolor="#e58139ff"] ;
698 -> 714 ;
715 [label=<NO_OF_DEPENDENTS &le; 1.5<br/>gini = 0.106<br/>samples = 231<br/>value = [218, 13]>, fillcolor="#e58139f0"] ;
649 -> 715 ;
716 [label=<AGE &le; 38.5<br/>gini = 0.161<br/>samples = 102<br/>value = [93, 9]>, fillcolor="#e58139e6"] ;
715 -> 716 ;
717 [label=<PROFESSION &le; 24.5<br/>gini = 0.105<br/>samples = 72<br/>value = [68, 4]>, fillcolor="#e58139f0"] ;
716 -> 717 ;
718 [label=<LOAN ' &le; 1.0<br/>gini = 0.142<br/>samples = 39<br/>value = [36, 3]>, fillcolor="#e58139ea"] ;
717 -> 718 ;
719 [label=<AUTO_STATUS &le; 2.5<br/>gini = 0.165<br/>samples = 33<br/>value = [30, 3]>, fillcolor="#e58139e6"] ;
718 -> 719 ;
720 [label=<NO_OF_DEPENDENTS &le; 0.5<br/>gini = 0.18<br/>samples = 30<br/>value = [27, 3]>, fillcolor="#e58139e3"] ;
719 -> 720 ;
721 [label=<PHOTO_NON_PHOTOFLG &le; 1.0<br/>gini = 0.153<br/>samples = 24<br/>value = [22, 2]>, fillcolor="#e58139e8"] ;
720 -> 721 ;
722 [label=<gini = 0.0<br/>samples = 15<br/>value = [15, 0]>, fillcolor="#e58139ff"] ;
721 -> 722 ;
723 [label=<gini = 0.346<br/>samples = 9<br/>value = [7, 2]>, fillcolor="#e58139b6"] ;
721 -> 723 ;
724 [label=<gini = 0.278<br/>samples = 6<br/>value = [5, 1]>, fillcolor="#e58139cc"] ;
720 -> 724 ;
725 [label=<gini = 0.0<br/>samples = 3<br/>value = [3, 0]>, fillcolor="#e58139ff"] ;
719 -> 725 ;
726 [label=<gini = 0.0<br/>samples = 6<br/>value = [6, 0]>, fillcolor="#e58139ff"] ;
718 -> 726 ;
727 [label=<PHOTO_NON_PHOTOFLG &le; 1.0<br/>gini = 0.059<br/>samples = 33<br/>value = [32, 1]>, fillcolor="#e58139f7"] ;
717 -> 727 ;
728 [label=<PROFESSION &le; 28.0<br/>gini = 0.095<br/>samples = 20<br/>value = [19, 1]>, fillcolor="#e58139f2"] ;
727 -> 728 ;
729 [label=<gini = 0.0<br/>samples = 8<br/>value = [8, 0]>, fillcolor="#e58139ff"] ;
728 -> 729 ;
730 [label=<MARRIEDARITAL_SINGLETATUSINGLE &le; 1.5<br/>gini = 0.153<br/>samples = 12<br/>value = [11, 1]>, fillcolor="#e58139e8"] ;
728 -> 730 ;
731 [label=<gini = 0.0<br/>samples = 4<br/>value = [4, 0]>, fillcolor="#e58139ff"] ;
730 -> 731 ;
732 [label=<gini = 0.219<br/>samples = 8<br/>value = [7, 1]>, fillcolor="#e58139db"] ;
730 -> 732 ;
733 [label=<gini = 0.0<br/>samples = 13<br/>value = [13, 0]>, fillcolor="#e58139ff"] ;
727 -> 733 ;
734 [label=<PHOTO_NON_PHOTOFLG &le; 1.0<br/>gini = 0.278<br/>samples = 30<br/>value = [25, 5]>, fillcolor="#e58139cc"] ;
716 -> 734 ;
735 [label=<SPOUSE WORKING' &le; 1.5<br/>gini = 0.1<br/>samples = 19<br/>value = [18, 1]>, fillcolor="#e58139f1"] ;
734 -> 735 ;
736 [label=<gini = 0.245<br/>samples = 7<br/>value = [6, 1]>, fillcolor="#e58139d4"] ;
735 -> 736 ;
737 [label=<gini = 0.0<br/>samples = 12<br/>value = [12, 0]>, fillcolor="#e58139ff"] ;
735 -> 737 ;
738 [label=<Salary &le; 3.0<br/>gini = 0.463<br/>samples = 11<br/>value = [7, 4]>, fillcolor="#e581396d"] ;
734 -> 738 ;
739 [label=<gini = 0.48<br/>samples = 5<br/>value = [2, 3]>, fillcolor="#399de555"] ;
738 -> 739 ;
740 [label=<gini = 0.278<br/>samples = 6<br/>value = [5, 1]>, fillcolor="#e58139cc"] ;
738 -> 740 ;
741 [label=<CREDIT_CARD_SCORE &le; 5.0<br/>gini = 0.06<br/>samples = 129<br/>value = [125, 4]>, fillcolor="#e58139f7"] ;
715 -> 741 ;
742 [label=<AGE &le; 50.5<br/>gini = 0.063<br/>samples = 122<br/>value = [118, 4]>, fillcolor="#e58139f6"] ;
741 -> 742 ;
743 [label=<saving ACC_OPEN_DATE' &le; 20050659.0<br/>gini = 0.021<br/>samples = 95<br/>value = [94, 1]>, fillcolor="#e58139fc"] ;
742 -> 743 ;
744 [label=<gini = 0.0<br/>samples = 47<br/>value = [47, 0]>, fillcolor="#e58139ff"] ;
743 -> 744 ;
745 [label=<saving ACC_OPEN_DATE' &le; 20050804.0<br/>gini = 0.041<br/>samples = 48<br/>value = [47, 1]>, fillcolor="#e58139fa"] ;
743 -> 745 ;
746 [label=<gini = 0.0<br/>samples = 1<br/>value = [0, 1]>, fillcolor="#399de5ff"] ;
745 -> 746 ;
747 [label=<gini = 0.0<br/>samples = 47<br/>value = [47, 0]>, fillcolor="#e58139ff"] ;
745 -> 747 ;
748 [label=<AGE &le; 58.5<br/>gini = 0.198<br/>samples = 27<br/>value = [24, 3]>, fillcolor="#e58139df"] ;
742 -> 748 ;
749 [label=<SPOUSE WORKING' &le; 1.5<br/>gini = 0.291<br/>samples = 17<br/>value = [14, 3]>, fillcolor="#e58139c8"] ;
748 -> 749 ;
750 [label=<gini = 0.444<br/>samples = 3<br/>value = [1, 2]>, fillcolor="#399de57f"] ;
749 -> 750 ;
751 [label=<PROFESSION &le; 17.5<br/>gini = 0.133<br/>samples = 14<br/>value = [13, 1]>, fillcolor="#e58139eb"] ;
749 -> 751 ;
752 [label=<gini = 0.444<br/>samples = 3<br/>value = [2, 1]>, fillcolor="#e581397f"] ;
751 -> 752 ;
753 [label=<gini = 0.0<br/>samples = 11<br/>value = [11, 0]>, fillcolor="#e58139ff"] ;
751 -> 753 ;
754 [label=<gini = 0.0<br/>samples = 10<br/>value = [10, 0]>, fillcolor="#e58139ff"] ;
748 -> 754 ;
755 [label=<gini = 0.0<br/>samples = 7<br/>value = [7, 0]>, fillcolor="#e58139ff"] ;
741 -> 755 ;
756 [label=<PHOTO_NON_PHOTOFLG &le; 1.0<br/>gini = 0.088<br/>samples = 632<br/>value = [603, 29]>, fillcolor="#e58139f3"] ;
648 -> 756 ;
757 [label=<BRANCH STATUS' &le; 2.5<br/>gini = 0.022<br/>samples = 357<br/>value = [353, 4]>, fillcolor="#e58139fc"] ;
756 -> 757 ;
758 [label=<gini = 0.0<br/>samples = 155<br/>value = [155, 0]>, fillcolor="#e58139ff"] ;
757 -> 758 ;
759 [label=<AUTO_STATUS &le; 2.5<br/>gini = 0.039<br/>samples = 202<br/>value = [198, 4]>, fillcolor="#e58139fa"] ;
757 -> 759 ;
760 [label=<NO_OF_DEPENDENTS &le; 2.5<br/>gini = 0.043<br/>samples = 181<br/>value = [177, 4]>, fillcolor="#e58139f9"] ;
759 -> 760 ;
761 [label=<MBS &le; 0.5<br/>gini = 0.064<br/>samples = 120<br/>value = [116, 4]>, fillcolor="#e58139f6"] ;
760 -> 761 ;
762 [label=<saving ACC_OPEN_DATE' &le; 19935406.0<br/>gini = 0.092<br/>samples = 62<br/>value = [59, 3]>, fillcolor="#e58139f2"] ;
761 -> 762 ;
763 [label=<gini = 0.375<br/>samples = 4<br/>value = [3, 1]>, fillcolor="#e58139aa"] ;
762 -> 763 ;
764 [label=<OCCUPATION &le; 28.0<br/>gini = 0.067<br/>samples = 58<br/>value = [56, 2]>, fillcolor="#e58139f6"] ;
762 -> 764 ;
765 [label=<CIBIL_SCORE &le; 0.5<br/>gini = 0.095<br/>samples = 40<br/>value = [38, 2]>, fillcolor="#e58139f2"] ;
764 -> 765 ;
766 [label=<gini = 0.0<br/>samples = 1<br/>value = [1, 0]>, fillcolor="#e58139ff"] ;
765 -> 766 ;
767 [label=<saving ACC_OPEN_DATE' &le; 20065673.0<br/>gini = 0.097<br/>samples = 39<br/>value = [37, 2]>, fillcolor="#e58139f1"] ;
765 -> 767 ;
768 [label=<gini = 0.0<br/>samples = 22<br/>value = [22, 0]>, fillcolor="#e58139ff"] ;
767 -> 768 ;
769 [label=<PROFESSION &le; 18.0<br/>gini = 0.208<br/>samples = 17<br/>value = [15, 2]>, fillcolor="#e58139dd"] ;
767 -> 769 ;
770 [label=<gini = 0.0<br/>samples = 3<br/>value = [3, 0]>, fillcolor="#e58139ff"] ;
769 -> 770 ;
771 [label=<saving ACC_OPEN_DATE' &le; 20070160.0<br/>gini = 0.245<br/>samples = 14<br/>value = [12, 2]>, fillcolor="#e58139d4"] ;
769 -> 771 ;
772 [label=<gini = 0.0<br/>samples = 1<br/>value = [0, 1]>, fillcolor="#399de5ff"] ;
771 -> 772 ;
773 [label=<LOAN ' &le; 1.0<br/>gini = 0.142<br/>samples = 13<br/>value = [12, 1]>, fillcolor="#e58139ea"] ;
771 -> 773 ;
774 [label=<NO_OF_DEPENDENTS &le; 1.5<br/>gini = 0.165<br/>samples = 11<br/>value = [10, 1]>, fillcolor="#e58139e6"] ;
773 -> 774 ;
775 [label=<gini = 0.0<br/>samples = 6<br/>value = [6, 0]>, fillcolor="#e58139ff"] ;
774 -> 775 ;
776 [label=<gini = 0.32<br/>samples = 5<br/>value = [4, 1]>, fillcolor="#e58139bf"] ;
774 -> 776 ;
777 [label=<gini = 0.0<br/>samples = 2<br/>value = [2, 0]>, fillcolor="#e58139ff"] ;
773 -> 777 ;
778 [label=<gini = 0.0<br/>samples = 18<br/>value = [18, 0]>, fillcolor="#e58139ff"] ;
764 -> 778 ;
779 [label=<OCCUPATION &le; 20.0<br/>gini = 0.034<br/>samples = 58<br/>value = [57, 1]>, fillcolor="#e58139fb"] ;
761 -> 779 ;
780 [label=<AGE &le; 49.0<br/>gini = 0.117<br/>samples = 16<br/>value = [15, 1]>, fillcolor="#e58139ee"] ;
779 -> 780 ;
781 [label=<gini = 0.0<br/>samples = 13<br/>value = [13, 0]>, fillcolor="#e58139ff"] ;
780 -> 781 ;
782 [label=<gini = 0.444<br/>samples = 3<br/>value = [2, 1]>, fillcolor="#e581397f"] ;
780 -> 782 ;
783 [label=<gini = 0.0<br/>samples = 42<br/>value = [42, 0]>, fillcolor="#e58139ff"] ;
779 -> 783 ;
784 [label=<gini = 0.0<br/>samples = 61<br/>value = [61, 0]>, fillcolor="#e58139ff"] ;
760 -> 784 ;
785 [label=<gini = 0.0<br/>samples = 21<br/>value = [21, 0]>, fillcolor="#e58139ff"] ;
759 -> 785 ;
786 [label=<MBS &le; 0.5<br/>gini = 0.165<br/>samples = 275<br/>value = [250, 25]>, fillcolor="#e58139e6"] ;
756 -> 786 ;
787 [label=<AGE &le; 57.5<br/>gini = 0.21<br/>samples = 159<br/>value = [140, 19]>, fillcolor="#e58139dc"] ;
786 -> 787 ;
788 [label=<Salary &le; 3.0<br/>gini = 0.192<br/>samples = 149<br/>value = [133, 16]>, fillcolor="#e58139e0"] ;
787 -> 788 ;
789 [label=<AUTO_STATUS &le; 2.5<br/>gini = 0.253<br/>samples = 74<br/>value = [63, 11]>, fillcolor="#e58139d2"] ;
788 -> 789 ;
790 [label=<PROFESSION &le; 10.0<br/>gini = 0.288<br/>samples = 63<br/>value = [52, 11]>, fillcolor="#e58139c9"] ;
789 -> 790 ;
791 [label=<gini = 0.5<br/>samples = 2<br/>value = [1, 1]>, fillcolor="#e5813900"] ;
790 -> 791 ;
792 [label=<SPOUSE WORKING' &le; 1.5<br/>gini = 0.274<br/>samples = 61<br/>value = [51, 10]>, fillcolor="#e58139cd"] ;
790 -> 792 ;
793 [label=<BRANCH STATUS' &le; 2.5<br/>gini = 0.295<br/>samples = 39<br/>value = [32, 7]>, fillcolor="#e58139c7"] ;
792 -> 793 ;
794 [label=<gini = 0.198<br/>samples = 9<br/>value = [8, 1]>, fillcolor="#e58139df"] ;
793 -> 794 ;
795 [label=<NO_OF_DEPENDENTS &le; 2.5<br/>gini = 0.32<br/>samples = 30<br/>value = [24, 6]>, fillcolor="#e58139bf"] ;
793 -> 795 ;
796 [label=<saving ACC_OPEN_DATE' &le; 20071023.0<br/>gini = 0.365<br/>samples = 25<br/>value = [19, 6]>, fillcolor="#e58139ae"] ;
795 -> 796 ;
797 [label=<LOAN ' &le; 1.0<br/>gini = 0.308<br/>samples = 21<br/>value = [17, 4]>, fillcolor="#e58139c3"] ;
796 -> 797 ;
798 [label=<AGE &le; 39.0<br/>gini = 0.32<br/>samples = 20<br/>value = [16, 4]>, fillcolor="#e58139bf"] ;
797 -> 798 ;
799 [label=<NO_OF_DEPENDENTS &le; 1.5<br/>gini = 0.142<br/>samples = 13<br/>value = [12, 1]>, fillcolor="#e58139ea"] ;
798 -> 799 ;
800 [label=<gini = 0.0<br/>samples = 11<br/>value = [11, 0]>, fillcolor="#e58139ff"] ;
799 -> 800 ;
801 [label=<gini = 0.5<br/>samples = 2<br/>value = [1, 1]>, fillcolor="#e5813900"] ;
799 -> 801 ;
802 [label=<gini = 0.49<br/>samples = 7<br/>value = [4, 3]>, fillcolor="#e5813940"] ;
798 -> 802 ;
803 [label=<gini = 0.0<br/>samples = 1<br/>value = [1, 0]>, fillcolor="#e58139ff"] ;
797 -> 803 ;
804 [label=<gini = 0.5<br/>samples = 4<br/>value = [2, 2]>, fillcolor="#e5813900"] ;
796 -> 804 ;
805 [label=<gini = 0.0<br/>samples = 5<br/>value = [5, 0]>, fillcolor="#e58139ff"] ;
795 -> 805 ;
806 [label=<BRANCH STATUS' &le; 2.5<br/>gini = 0.236<br/>samples = 22<br/>value = [19, 3]>, fillcolor="#e58139d7"] ;
792 -> 806 ;
807 [label=<gini = 0.0<br/>samples = 8<br/>value = [8, 0]>, fillcolor="#e58139ff"] ;
806 -> 807 ;
808 [label=<AGE &le; 39.0<br/>gini = 0.337<br/>samples = 14<br/>value = [11, 3]>, fillcolor="#e58139b9"] ;
806 -> 808 ;
809 [label=<gini = 0.5<br/>samples = 6<br/>value = [3, 3]>, fillcolor="#e5813900"] ;
808 -> 809 ;
810 [label=<gini = 0.0<br/>samples = 8<br/>value = [8, 0]>, fillcolor="#e58139ff"] ;
808 -> 810 ;
811 [label=<gini = 0.0<br/>samples = 11<br/>value = [11, 0]>, fillcolor="#e58139ff"] ;
789 -> 811 ;
812 [label=<Salary &le; 7.0<br/>gini = 0.124<br/>samples = 75<br/>value = [70, 5]>, fillcolor="#e58139ed"] ;
788 -> 812 ;
813 [label=<NO_OF_DEPENDENTS &le; 0.5<br/>gini = 0.095<br/>samples = 60<br/>value = [57, 3]>, fillcolor="#e58139f2"] ;
812 -> 813 ;
814 [label=<gini = 0.245<br/>samples = 7<br/>value = [6, 1]>, fillcolor="#e58139d4"] ;
813 -> 814 ;
815 [label=<saving ACC_OPEN_DATE' &le; 19925667.0<br/>gini = 0.073<br/>samples = 53<br/>value = [51, 2]>, fillcolor="#e58139f5"] ;
813 -> 815 ;
816 [label=<gini = 0.245<br/>samples = 7<br/>value = [6, 1]>, fillcolor="#e58139d4"] ;
815 -> 816 ;
817 [label=<BRANCH STATUS' &le; 2.5<br/>gini = 0.043<br/>samples = 46<br/>value = [45, 1]>, fillcolor="#e58139f9"] ;
815 -> 817 ;
818 [label=<NO_OF_YRS_AT_RES &le; 6.5<br/>gini = 0.111<br/>samples = 17<br/>value = [16, 1]>, fillcolor="#e58139ef"] ;
817 -> 818 ;
819 [label=<OCCUPATION &le; 20.0<br/>gini = 0.133<br/>samples = 14<br/>value = [13, 1]>, fillcolor="#e58139eb"] ;
818 -> 819 ;
820 [label=<gini = 0.0<br/>samples = 9<br/>value = [9, 0]>, fillcolor="#e58139ff"] ;
819 -> 820 ;
821 [label=<gini = 0.32<br/>samples = 5<br/>value = [4, 1]>, fillcolor="#e58139bf"] ;
819 -> 821 ;
822 [label=<gini = 0.0<br/>samples = 3<br/>value = [3, 0]>, fillcolor="#e58139ff"] ;
818 -> 822 ;
823 [label=<gini = 0.0<br/>samples = 29<br/>value = [29, 0]>, fillcolor="#e58139ff"] ;
817 -> 823 ;
824 [label=<OCCUPATION &le; 11.5<br/>gini = 0.231<br/>samples = 15<br/>value = [13, 2]>, fillcolor="#e58139d8"] ;
812 -> 824 ;
825 [label=<gini = 0.408<br/>samples = 7<br/>value = [5, 2]>, fillcolor="#e5813999"] ;
824 -> 825 ;
826 [label=<gini = 0.0<br/>samples = 8<br/>value = [8, 0]>, fillcolor="#e58139ff"] ;
824 -> 826 ;
827 [label=<BRANCH STATUS' &le; 1.5<br/>gini = 0.42<br/>samples = 10<br/>value = [7, 3]>, fillcolor="#e5813992"] ;
787 -> 827 ;
828 [label=<gini = 0.0<br/>samples = 1<br/>value = [0, 1]>, fillcolor="#399de5ff"] ;
827 -> 828 ;
829 [label=<gini = 0.346<br/>samples = 9<br/>value = [7, 2]>, fillcolor="#e58139b6"] ;
827 -> 829 ;
830 [label=<GENDER &le; 0.5<br/>gini = 0.098<br/>samples = 116<br/>value = [110, 6]>, fillcolor="#e58139f1"] ;
786 -> 830 ;
831 [label=<LOAN ' &le; 1.0<br/>gini = 0.298<br/>samples = 11<br/>value = [9, 2]>, fillcolor="#e58139c6"] ;
830 -> 831 ;
832 [label=<OCCUPATION &le; 19.5<br/>gini = 0.32<br/>samples = 10<br/>value = [8, 2]>, fillcolor="#e58139bf"] ;
831 -> 832 ;
833 [label=<gini = 0.245<br/>samples = 7<br/>value = [6, 1]>, fillcolor="#e58139d4"] ;
832 -> 833 ;
834 [label=<gini = 0.444<br/>samples = 3<br/>value = [2, 1]>, fillcolor="#e581397f"] ;
832 -> 834 ;
835 [label=<gini = 0.0<br/>samples = 1<br/>value = [1, 0]>, fillcolor="#e58139ff"] ;
831 -> 835 ;
836 [label=<AGE &le; 29.5<br/>gini = 0.073<br/>samples = 105<br/>value = [101, 4]>, fillcolor="#e58139f5"] ;
830 -> 836 ;
837 [label=<gini = 0.32<br/>samples = 5<br/>value = [4, 1]>, fillcolor="#e58139bf"] ;
836 -> 837 ;
838 [label=<CREDIT_CARD_SCORE &le; 5.5<br/>gini = 0.058<br/>samples = 100<br/>value = [97, 3]>, fillcolor="#e58139f7"] ;
836 -> 838 ;
839 [label=<AGE &le; 41.5<br/>gini = 0.06<br/>samples = 97<br/>value = [94, 3]>, fillcolor="#e58139f7"] ;
838 -> 839 ;
840 [label=<gini = 0.0<br/>samples = 47<br/>value = [47, 0]>, fillcolor="#e58139ff"] ;
839 -> 840 ;
841 [label=<AGE &le; 42.5<br/>gini = 0.113<br/>samples = 50<br/>value = [47, 3]>, fillcolor="#e58139ef"] ;
839 -> 841 ;
842 [label=<gini = 0.32<br/>samples = 5<br/>value = [4, 1]>, fillcolor="#e58139bf"] ;
841 -> 842 ;
843 [label=<saving ACC_OPEN_DATE' &le; 20035252.0<br/>gini = 0.085<br/>samples = 45<br/>value = [43, 2]>, fillcolor="#e58139f3"] ;
841 -> 843 ;
844 [label=<gini = 0.0<br/>samples = 24<br/>value = [24, 0]>, fillcolor="#e58139ff"] ;
843 -> 844 ;
845 [label=<BRANCH STATUS' &le; 2.5<br/>gini = 0.172<br/>samples = 21<br/>value = [19, 2]>, fillcolor="#e58139e4"] ;
843 -> 845 ;
846 [label=<gini = 0.0<br/>samples = 6<br/>value = [6, 0]>, fillcolor="#e58139ff"] ;
845 -> 846 ;
847 [label=<NO_OF_DEPENDENTS &le; 1.5<br/>gini = 0.231<br/>samples = 15<br/>value = [13, 2]>, fillcolor="#e58139d8"] ;
845 -> 847 ;
848 [label=<gini = 0.444<br/>samples = 3<br/>value = [2, 1]>, fillcolor="#e581397f"] ;
847 -> 848 ;
849 [label=<PROFESSION &le; 24.5<br/>gini = 0.153<br/>samples = 12<br/>value = [11, 1]>, fillcolor="#e58139e8"] ;
847 -> 849 ;
850 [label=<gini = 0.0<br/>samples = 7<br/>value = [7, 0]>, fillcolor="#e58139ff"] ;
849 -> 850 ;
851 [label=<gini = 0.32<br/>samples = 5<br/>value = [4, 1]>, fillcolor="#e58139bf"] ;
849 -> 851 ;
852 [label=<gini = 0.0<br/>samples = 3<br/>value = [3, 0]>, fillcolor="#e58139ff"] ;
838 -> 852 ;
853 [label=<saving ACC_OPEN_DATE' &le; 20081007.0<br/>gini = 0.251<br/>samples = 699<br/>value = [596, 103]>, fillcolor="#e58139d3"] ;
647 -> 853 ;
854 [label=<AUTO_STATUS &le; 2.5<br/>gini = 0.339<br/>samples = 217<br/>value = [170, 47]>, fillcolor="#e58139b9"] ;
853 -> 854 ;
855 [label=<CREDIT_CARD_SCORE &le; 8.5<br/>gini = 0.355<br/>samples = 204<br/>value = [157, 47]>, fillcolor="#e58139b3"] ;
854 -> 855 ;
856 [label=<NO_OF_DEPENDENTS &le; 3.5<br/>gini = 0.36<br/>samples = 200<br/>value = [153, 47]>, fillcolor="#e58139b1"] ;
855 -> 856 ;
857 [label=<saving ACC_OPEN_DATE' &le; 20081002.0<br/>gini = 0.329<br/>samples = 183<br/>value = [145, 38]>, fillcolor="#e58139bc"] ;
856 -> 857 ;
858 [label=<PHOTO_NON_PHOTOFLG &le; 1.0<br/>gini = 0.313<br/>samples = 180<br/>value = [145, 35]>, fillcolor="#e58139c1"] ;
857 -> 858 ;
859 [label=<OCCUPATION &le; 33.5<br/>gini = 0.236<br/>samples = 88<br/>value = [76, 12]>, fillcolor="#e58139d7"] ;
858 -> 859 ;
860 [label=<PROFESSION &le; 24.0<br/>gini = 0.208<br/>samples = 85<br/>value = [75, 10]>, fillcolor="#e58139dd"] ;
859 -> 860 ;
